FANN_FLO_2.1
num_layers=3
learning_rate=0.001000
connection_rate=1.000000
network_type=0
learning_momentum=0.000000
training_algorithm=0
train_error_function=1
train_stop_function=0
cascade_output_change_fraction=0.010000
quickprop_decay=-0.000100
quickprop_mu=1.750000
rprop_increase_factor=1.200000
rprop_decrease_factor=0.500000
rprop_delta_min=0.000000
rprop_delta_max=50.000000
rprop_delta_zero=0.100000
cascade_output_stagnation_epochs=12
cascade_candidate_change_fraction=0.010000
cascade_candidate_stagnation_epochs=12
cascade_max_out_epochs=150
cascade_min_out_epochs=50
cascade_max_cand_epochs=150
cascade_min_cand_epochs=50
cascade_num_candidate_groups=2
bit_fail_limit=3.49999994039535522461e-01
cascade_candidate_limit=1.00000000000000000000e+03
cascade_weight_multiplier=4.00000005960464477539e-01
cascade_activation_functions_count=10
cascade_activation_functions=3 5 7 8 10 11 14 15 16 17 
cascade_activation_steepnesses_count=4
cascade_activation_steepnesses=2.50000000000000000000e-01 5.00000000000000000000e-01 7.50000000000000000000e-01 1.00000000000000000000e+00 
layer_sizes=25 129 2 
scale_included=0
neurons (num_inputs, activation_function, activation_steepness)=(0, 0, 0.00000000000000000000e+00) (0, 0, 0.00000000000000000000e+00) (0, 0, 0.00000000000000000000e+00) (0, 0, 0.00000000000000000000e+00) (0, 0, 0.00000000000000000000e+00) (0, 0, 0.00000000000000000000e+00) (0, 0, 0.00000000000000000000e+00) (0, 0, 0.00000000000000000000e+00) (0, 0, 0.00000000000000000000e+00) (0, 0, 0.00000000000000000000e+00) (0, 0, 0.00000000000000000000e+00) (0, 0, 0.00000000000000000000e+00) (0, 0, 0.00000000000000000000e+00) (0, 0, 0.00000000000000000000e+00) (0, 0, 0.00000000000000000000e+00) (0, 0, 0.00000000000000000000e+00) (0, 0, 0.00000000000000000000e+00) (0, 0, 0.00000000000000000000e+00) (0, 0, 0.00000000000000000000e+00) (0, 0, 0.00000000000000000000e+00) (0, 0, 0.00000000000000000000e+00) (0, 0, 0.00000000000000000000e+00) (0, 0, 0.00000000000000000000e+00) (0, 0, 0.00000000000000000000e+00) (0, 0, 0.00000000000000000000e+00) (25, 3, 5.00000000000000000000e-01) (25, 3, 5.00000000000000000000e-01) (25, 3, 5.00000000000000000000e-01) (25, 3, 5.00000000000000000000e-01) (25, 3, 5.00000000000000000000e-01) (25, 3, 5.00000000000000000000e-01) (25, 3, 5.00000000000000000000e-01) (25, 3, 5.00000000000000000000e-01) (25, 3, 5.00000000000000000000e-01) (25, 3, 5.00000000000000000000e-01) (25, 3, 5.00000000000000000000e-01) (25, 3, 5.00000000000000000000e-01) (25, 3, 5.00000000000000000000e-01) (25, 3, 5.00000000000000000000e-01) (25, 3, 5.00000000000000000000e-01) (25, 3, 5.00000000000000000000e-01) (25, 3, 5.00000000000000000000e-01) (25, 3, 5.00000000000000000000e-01) (25, 3, 5.00000000000000000000e-01) (25, 3, 5.00000000000000000000e-01) (25, 3, 5.00000000000000000000e-01) (25, 3, 5.00000000000000000000e-01) (25, 3, 5.00000000000000000000e-01) (25, 3, 5.00000000000000000000e-01) (25, 3, 5.00000000000000000000e-01) (25, 3, 5.00000000000000000000e-01) (25, 3, 5.00000000000000000000e-01) (25, 3, 5.00000000000000000000e-01) (25, 3, 5.00000000000000000000e-01) (25, 3, 5.00000000000000000000e-01) (25, 3, 5.00000000000000000000e-01) (25, 3, 5.00000000000000000000e-01) (25, 3, 5.00000000000000000000e-01) (25, 3, 5.00000000000000000000e-01) (25, 3, 5.00000000000000000000e-01) (25, 3, 5.00000000000000000000e-01) (25, 3, 5.00000000000000000000e-01) (25, 3, 5.00000000000000000000e-01) (25, 3, 5.00000000000000000000e-01) (25, 3, 5.00000000000000000000e-01) (25, 3, 5.00000000000000000000e-01) (25, 3, 5.00000000000000000000e-01) (25, 3, 5.00000000000000000000e-01) (25, 3, 5.00000000000000000000e-01) (25, 3, 5.00000000000000000000e-01) (25, 3, 5.00000000000000000000e-01) (25, 3, 5.00000000000000000000e-01) (25, 3, 5.00000000000000000000e-01) (25, 3, 5.00000000000000000000e-01) (25, 3, 5.00000000000000000000e-01) (25, 3, 5.00000000000000000000e-01) (25, 3, 5.00000000000000000000e-01) (25, 3, 5.00000000000000000000e-01) (25, 3, 5.00000000000000000000e-01) (25, 3, 5.00000000000000000000e-01) (25, 3, 5.00000000000000000000e-01) (25, 3, 5.00000000000000000000e-01) (25, 3, 5.00000000000000000000e-01) (25, 3, 5.00000000000000000000e-01) (25, 3, 5.00000000000000000000e-01) (25, 3, 5.00000000000000000000e-01) (25, 3, 5.00000000000000000000e-01) (25, 3, 5.00000000000000000000e-01) (25, 3, 5.00000000000000000000e-01) (25, 3, 5.00000000000000000000e-01) (25, 3, 5.00000000000000000000e-01) (25, 3, 5.00000000000000000000e-01) (25, 3, 5.00000000000000000000e-01) (25, 3, 5.00000000000000000000e-01) (25, 3, 5.00000000000000000000e-01) (25, 3, 5.00000000000000000000e-01) (25, 3, 5.00000000000000000000e-01) (25, 3, 5.00000000000000000000e-01) (25, 3, 5.00000000000000000000e-01) (25, 3, 5.00000000000000000000e-01) (25, 3, 5.00000000000000000000e-01) (25, 3, 5.00000000000000000000e-01) (25, 3, 5.00000000000000000000e-01) (25, 3, 5.00000000000000000000e-01) (25, 3, 5.00000000000000000000e-01) (25, 3, 5.00000000000000000000e-01) (25, 3, 5.00000000000000000000e-01) (25, 3, 5.00000000000000000000e-01) (25, 3, 5.00000000000000000000e-01) (25, 3, 5.00000000000000000000e-01) (25, 3, 5.00000000000000000000e-01) (25, 3, 5.00000000000000000000e-01) (25, 3, 5.00000000000000000000e-01) (25, 3, 5.00000000000000000000e-01) (25, 3, 5.00000000000000000000e-01) (25, 3, 5.00000000000000000000e-01) (25, 3, 5.00000000000000000000e-01) (25, 3, 5.00000000000000000000e-01) (25, 3, 5.00000000000000000000e-01) (25, 3, 5.00000000000000000000e-01) (25, 3, 5.00000000000000000000e-01) (25, 3, 5.00000000000000000000e-01) (25, 3, 5.00000000000000000000e-01) (25, 3, 5.00000000000000000000e-01) (25, 3, 5.00000000000000000000e-01) (25, 3, 5.00000000000000000000e-01) (25, 3, 5.00000000000000000000e-01) (25, 3, 5.00000000000000000000e-01) (25, 3, 5.00000000000000000000e-01) (25, 3, 5.00000000000000000000e-01) (25, 3, 5.00000000000000000000e-01) (25, 3, 5.00000000000000000000e-01) (25, 3, 5.00000000000000000000e-01) (25, 3, 5.00000000000000000000e-01) (25, 3, 5.00000000000000000000e-01) (25, 3, 5.00000000000000000000e-01) (25, 3, 5.00000000000000000000e-01) (25, 3, 5.00000000000000000000e-01) (25, 3, 5.00000000000000000000e-01) (25, 3, 5.00000000000000000000e-01) (25, 3, 5.00000000000000000000e-01) (25, 3, 5.00000000000000000000e-01) (25, 3, 5.00000000000000000000e-01) (25, 3, 5.00000000000000000000e-01) (25, 3, 5.00000000000000000000e-01) (25, 3, 5.00000000000000000000e-01) (25, 3, 5.00000000000000000000e-01) (25, 3, 5.00000000000000000000e-01) (25, 3, 5.00000000000000000000e-01) (25, 3, 5.00000000000000000000e-01) (25, 3, 5.00000000000000000000e-01) (25, 3, 5.00000000000000000000e-01) (25, 3, 5.00000000000000000000e-01) (0, 3, 0.00000000000000000000e+00) (129, 3, 5.00000000000000000000e-01) (0, 3, 0.00000000000000000000e+00) 
connections (connected_to_neuron, weight)=(0, -4.28245328366756439209e-02) (1, -3.83232623338699340820e-01) (2, -1.76164835691452026367e-01) (3, -1.43862972036004066467e-02) (4, 1.89104396849870681763e-02) (5, -6.05788938701152801514e-02) (6, 1.18938684463500976562e-01) (7, -7.91246294975280761719e-02) (8, 2.70139753818511962891e-01) (9, -1.14821195602416992188e-01) (10, 1.31998322904109954834e-02) (11, 6.97143375873565673828e-02) (12, -7.49095231294631958008e-02) (13, -4.14722552523016929626e-03) (14, -1.13922521471977233887e-01) (15, 1.10481373965740203857e-01) (16, -1.62022318691015243530e-02) (17, -4.60608974099159240723e-02) (18, 1.83369014412164688110e-02) (19, -1.31902083754539489746e-01) (20, -1.47678405046463012695e-01) (21, -1.37293055653572082520e-01) (22, -5.75424879789352416992e-02) (23, -7.04034268856048583984e-02) (24, 1.91578045487403869629e-02) (0, -1.80290022399276494980e-03) (1, 2.87409629672765731812e-02) (2, -7.52878710627555847168e-02) (3, -1.01674035191535949707e-01) (4, -5.12682870030403137207e-02) (5, -5.61306662857532501221e-02) (6, -5.95639161765575408936e-02) (7, -9.97177213430404663086e-02) (8, -1.50702632963657379150e-02) (9, 1.05613969266414642334e-01) (10, 8.50029289722442626953e-02) (11, -1.22935444116592407227e-01) (12, 3.52635346353054046631e-02) (13, 4.33420352637767791748e-02) (14, 1.11912466585636138916e-01) (15, 2.36488543450832366943e-02) (16, -1.27655848860740661621e-01) (17, -6.49202093482017517090e-02) (18, 2.22321841865777969360e-02) (19, 5.19331619143486022949e-02) (20, 6.39126002788543701172e-02) (21, -6.30562007427215576172e-02) (22, 8.31633433699607849121e-02) (23, 9.74704101681709289551e-02) (24, -5.33815063536167144775e-02) (0, 9.67987924814224243164e-02) (1, 6.92950710654258728027e-02) (2, -1.37364104390144348145e-01) (3, -5.92604167759418487549e-02) (4, -1.72832608222961425781e-02) (5, 2.48806662857532501221e-02) (6, -1.44590213894844055176e-01) (7, -1.47176638245582580566e-01) (8, -5.68978413939476013184e-02) (9, 8.34429264068603515625e-02) (10, 7.54318833351135253906e-02) (11, -4.52442616224288940430e-02) (12, 2.44399707298725843430e-04) (13, 7.81934857368469238281e-02) (14, -4.03774119913578033447e-02) (15, -2.77547296136617660522e-02) (16, -8.25826898217201232910e-02) (17, -1.93986535072326660156e-01) (18, -1.44480705261230468750e-01) (19, 8.79383552819490432739e-03) (20, -7.55978003144264221191e-02) (21, 3.58873195946216583252e-02) (22, 2.10637450218200683594e-02) (23, 4.51768934726715087891e-03) (24, -7.59237352758646011353e-03) (0, 1.30990162491798400879e-01) (1, 1.49821028113365173340e-01) (2, -7.22870156168937683105e-02) (3, 1.44591554999351501465e-02) (4, -1.06706641614437103271e-01) (5, -4.57951538264751434326e-02) (6, -4.07733082771301269531e-01) (7, -8.33036303520202636719e-02) (8, 1.01465135812759399414e-01) (9, 1.07526637613773345947e-01) (10, 3.12171801924705505371e-02) (11, -8.71985033154487609863e-02) (12, 8.13310146331787109375e-02) (13, 6.43900334835052490234e-02) (14, 2.47031420469284057617e-01) (15, 3.60024832189083099365e-02) (16, -2.38985523581504821777e-01) (17, -2.08775833249092102051e-01) (18, -1.27585396170616149902e-01) (19, 4.57976013422012329102e-02) (20, 2.18968734145164489746e-01) (21, -2.32627406716346740723e-01) (22, 7.59897604584693908691e-02) (23, 4.77150604128837585449e-02) (24, 4.71113622188568115234e-03) (0, -5.79337701201438903809e-02) (1, -1.36736109852790832520e-01) (2, -2.79670432209968566895e-02) (3, 1.04008741676807403564e-01) (4, -2.30771917849779129028e-02) (5, 2.05090686678886413574e-01) (6, 1.98871985077857971191e-01) (7, 1.13952413201332092285e-01) (8, -5.38906976580619812012e-02) (9, -1.38182327151298522949e-01) (10, -4.31049242615699768066e-02) (11, 7.00733661651611328125e-02) (12, 3.49478088319301605225e-02) (13, -1.03025652468204498291e-01) (14, -2.15638682246208190918e-01) (15, 1.30571529269218444824e-01) (16, 1.97415679693222045898e-01) (17, 2.66590386629104614258e-01) (18, 1.41514852643013000488e-01) (19, -2.01943680644035339355e-01) (20, -1.38839513063430786133e-01) (21, 7.76534229516983032227e-02) (22, 2.90824398398399353027e-02) (23, -5.84874711930751800537e-02) (24, -4.32002171874046325684e-02) (0, 1.00853890180587768555e-01) (1, 1.72196820378303527832e-01) (2, -3.78763787448406219482e-02) (3, 1.11717365682125091553e-01) (4, -1.24103603884577751160e-02) (5, 8.52264463901519775391e-02) (6, 1.68649718165397644043e-01) (7, 1.54788801446557044983e-02) (8, 1.16310328245162963867e-01) (9, 8.67394208908081054688e-02) (10, 1.16908811032772064209e-02) (11, 4.45037670433521270752e-02) (12, -8.55801105499267578125e-02) (13, -4.08060289919376373291e-02) (14, 7.08863735198974609375e-02) (15, -2.46983557939529418945e-01) (16, -7.99780562520027160645e-02) (17, -7.01711997389793395996e-02) (18, -1.31749108433723449707e-01) (19, -3.36535833775997161865e-02) (20, 1.55811950564384460449e-01) (21, 1.01957097649574279785e-01) (22, 9.36970189213752746582e-02) (23, 2.30984464287757873535e-02) (24, -5.12433238327503204346e-02) (0, -8.39922130107879638672e-02) (1, -6.35930821299552917480e-02) (2, -6.69180974364280700684e-03) (3, 7.89794549345970153809e-02) (4, 4.78266328573226928711e-02) (5, 1.11940041184425354004e-01) (6, 2.08568200469017028809e-01) (7, 9.08593758940696716309e-02) (8, 1.72926038503646850586e-02) (9, -6.38134777545928955078e-02) (10, 5.93246072530746459961e-02) (11, 3.82573530077934265137e-02) (12, -3.15686361864209175110e-03) (13, -7.22825601696968078613e-02) (14, -1.06298953294754028320e-01) (15, -3.66630442440509796143e-02) (16, 1.28083243966102600098e-01) (17, 1.46151389926671981812e-02) (18, -9.23278462141752243042e-03) (19, -1.37376755475997924805e-01) (20, -2.00666248798370361328e-01) (21, 2.07309246063232421875e-01) (22, -1.73654705286026000977e-02) (23, -3.39378416538238525391e-03) (24, 3.58804427087306976318e-02) (0, -1.90702211111783981323e-02) (1, -9.06185656785964965820e-02) (2, 5.75938113033771514893e-02) (3, 3.37431207299232482910e-02) (4, 6.46135360002517700195e-02) (5, 1.25567307695746421814e-02) (6, -1.29519328474998474121e-01) (7, -7.70101845264434814453e-02) (8, -8.35814699530601501465e-03) (9, -8.99919867515563964844e-02) (10, 4.88744787871837615967e-02) (11, 5.68196661770343780518e-02) (12, 6.50385767221450805664e-02) (13, -7.68043175339698791504e-02) (14, 2.06091199070215225220e-02) (15, -5.08169569075107574463e-02) (16, 1.14674322307109832764e-01) (17, -7.60112777352333068848e-02) (18, 5.39430230855941772461e-02) (19, -7.54429623484611511230e-02) (20, -1.11794918775558471680e-01) (21, -1.42887368798255920410e-01) (22, 7.86680951714515686035e-02) (23, 1.11793726682662963867e-02) (24, -3.72606478631496429443e-02) (0, -7.94046744704246520996e-03) (1, -8.74870494008064270020e-02) (2, -3.76038551330566406250e-02) (3, -6.36296197772026062012e-02) (4, -6.26275390386581420898e-02) (5, -6.54844269156455993652e-02) (6, -1.36988475918769836426e-01) (7, -9.39661413431167602539e-02) (8, -1.31761670112609863281e-01) (9, 8.06488171219825744629e-02) (10, -9.04685184359550476074e-02) (11, 7.72872641682624816895e-02) (12, -8.80092531442642211914e-02) (13, -5.42004033923149108887e-02) (14, 4.40912842750549316406e-02) (15, 1.34036749601364135742e-01) (16, -3.58269289135932922363e-02) (17, 6.59362077713012695312e-02) (18, 1.29821226000785827637e-01) (19, -7.18172714114189147949e-02) (20, -1.78927496075630187988e-01) (21, -1.03737622499465942383e-01) (22, -7.69345834851264953613e-02) (23, -6.49236962199211120605e-02) (24, 1.36599093675613403320e-01) (0, 5.25740161538124084473e-02) (1, 1.34708121418952941895e-01) (2, 1.70201100409030914307e-02) (3, 6.40123486518859863281e-02) (4, -2.35612258315086364746e-01) (5, -9.84818302094936370850e-03) (6, -3.81244391202926635742e-01) (7, -6.32834061980247497559e-03) (8, 1.46690055727958679199e-01) (9, 4.41157110035419464111e-02) (10, 1.63608640432357788086e-01) (11, -4.79079037904739379883e-03) (12, -1.59499645233154296875e-02) (13, -7.48914554715156555176e-02) (14, -1.34924678131937980652e-02) (15, 3.44058163464069366455e-02) (16, -2.06779837608337402344e-01) (17, -5.97581751644611358643e-02) (18, -4.89507280290126800537e-02) (19, -5.63243404030799865723e-02) (20, 1.37948274612426757812e-01) (21, -1.77525132894515991211e-01) (22, -2.58004814386367797852e-02) (23, -7.88191556930541992188e-02) (24, -3.57872666791081428528e-03) (0, 9.40130874514579772949e-02) (1, 7.34581872820854187012e-02) (2, 7.41303041577339172363e-02) (3, 6.58566579222679138184e-02) (4, -3.20567414164543151855e-02) (5, 5.73174022138118743896e-02) (6, 1.76445573568344116211e-01) (7, 1.58216178417205810547e-01) (8, 8.36025029420852661133e-02) (9, -8.65185186266899108887e-02) (10, -7.79965072870254516602e-02) (11, 6.48765265941619873047e-02) (12, -8.17116349935531616211e-02) (13, 6.39598146080970764160e-02) (14, 3.86605821549892425537e-02) (15, -1.90491095185279846191e-01) (16, -3.31399887800216674805e-02) (17, -2.27034334093332290649e-02) (18, -1.14549309015274047852e-01) (19, 1.75920352339744567871e-02) (20, 1.85769230127334594727e-01) (21, 6.86765983700752258301e-02) (22, 6.05041310191154479980e-02) (23, 2.20723748207092285156e-02) (24, -1.86845645308494567871e-01) (0, -1.35048896074295043945e-01) (1, -1.14021882414817810059e-01) (2, 4.91887936368584632874e-03) (3, -2.53929775208234786987e-02) (4, -3.11988610774278640747e-02) (5, -8.94658565521240234375e-02) (6, -1.60010606050491333008e-01) (7, -2.13400796055793762207e-02) (8, 1.25319007784128189087e-02) (9, 2.48677432537078857422e-02) (10, 8.96771475672721862793e-02) (11, 1.57216656953096389771e-02) (12, 7.20121618360280990601e-03) (13, 8.72417464852333068848e-02) (14, -8.69601517915725708008e-02) (15, 8.35562646389007568359e-02) (16, -6.79815858602523803711e-02) (17, -7.01919794082641601562e-02) (18, 5.12732826173305511475e-02) (19, 7.90671855211257934570e-02) (20, -5.90464659035205841064e-02) (21, -7.74102061986923217773e-02) (22, -9.91281867027282714844e-03) (23, -2.85266786813735961914e-02) (24, -5.16235157847404479980e-02) (0, -1.28614217042922973633e-01) (1, -1.30929410457611083984e-01) (2, 5.39227798581123352051e-02) (3, 4.70915026962757110596e-02) (4, 5.85700161755084991455e-02) (5, 4.08170595765113830566e-02) (6, -1.15018211305141448975e-01) (7, 6.72194659709930419922e-02) (8, -1.63267925381660461426e-02) (9, 2.49609779566526412964e-02) (10, -6.24168850481510162354e-02) (11, 5.16146868467330932617e-02) (12, 3.84523458778858184814e-02) (13, 5.59608377516269683838e-02) (14, 3.97939197719097137451e-02) (15, -5.78256696462631225586e-02) (16, 6.40698298811912536621e-02) (17, -4.20007258653640747070e-02) (18, 7.88986384868621826172e-02) (19, 2.36098226159811019897e-02) (20, -1.19711391627788543701e-01) (21, -1.25480815768241882324e-01) (22, 4.58227470517158508301e-02) (23, -3.45144271850585937500e-02) (24, -1.10883064568042755127e-01) (0, 1.15094117820262908936e-01) (1, -2.43085473775863647461e-02) (2, -7.61028900742530822754e-02) (3, -2.35224198549985885620e-02) (4, -7.56087377667427062988e-02) (5, 1.40993120148777961731e-02) (6, -2.74027496576309204102e-01) (7, -8.20830613374710083008e-02) (8, 6.68964758515357971191e-02) (9, -2.17660311609506607056e-02) (10, -1.05602275580167770386e-02) (11, -1.17365367710590362549e-01) (12, -6.54626190662384033203e-02) (13, -6.95550292730331420898e-02) (14, 1.61482155323028564453e-01) (15, 6.03363476693630218506e-02) (16, -1.44446417689323425293e-01) (17, -7.24487677216529846191e-02) (18, -3.93055044114589691162e-02) (19, -7.10055604577064514160e-02) (20, 7.34408274292945861816e-02) (21, -6.98778554797172546387e-02) (22, 7.78711065649986267090e-02) (23, 2.47531905770301818848e-02) (24, 1.45356878638267517090e-02) (0, -5.33319562673568725586e-02) (1, -1.51139851659536361694e-02) (2, -1.86918731778860092163e-02) (3, -1.10296711325645446777e-01) (4, 1.05449609458446502686e-01) (5, -6.26230910420417785645e-02) (6, 2.74975180625915527344e-01) (7, -6.98420219123363494873e-03) (8, -3.93291302025318145752e-02) (9, 6.58902227878570556641e-02) (10, -9.40209403634071350098e-02) (11, -3.39678823947906494141e-02) (12, -5.89442066848278045654e-02) (13, -8.05207416415214538574e-02) (14, -2.99133267253637313843e-02) (15, -2.00501874089241027832e-01) (16, 5.56333735585212707520e-02) (17, 1.42676517367362976074e-01) (18, -1.07981485780328512192e-03) (19, 8.20651203393936157227e-02) (20, 7.47466236352920532227e-02) (21, -1.10914178192615509033e-01) (22, 6.47735074162483215332e-02) (23, -1.36136636137962341309e-02) (24, -4.53244782984256744385e-02) (0, 6.83904588222503662109e-02) (1, 1.15292683243751525879e-01) (2, -1.52493804693222045898e-01) (3, 1.86688452959060668945e-01) (4, -1.46499305963516235352e-01) (5, -7.25362971425056457520e-02) (6, -2.49369129538536071777e-01) (7, -1.72996282577514648438e-01) (8, -2.61665135622024536133e-02) (9, 9.52630117535591125488e-02) (10, 1.84898450970649719238e-01) (11, -1.34995460510253906250e-01) (12, -1.30034983158111572266e-03) (13, 9.67801287770271301270e-02) (14, 3.42944860458374023438e-02) (15, 8.98414477705955505371e-02) (16, -1.09165459871292114258e-01) (17, -9.34664011001586914062e-02) (18, -2.75438856333494186401e-02) (19, 3.73787879943847656250e-02) (20, -4.04920540750026702881e-02) (21, 1.73504427075386047363e-02) (22, -8.35378170013427734375e-02) (23, 7.56808593869209289551e-02) (24, -1.03547610342502593994e-01) (0, -1.17705740034580230713e-01) (1, 1.57294899225234985352e-01) (2, -2.02269688248634338379e-01) (3, 3.09491962194442749023e-01) (4, -4.78389978408813476562e-01) (5, 2.52076566219329833984e-01) (6, -4.24944132566452026367e-01) (7, 3.38723026216030120850e-02) (8, -2.22457662224769592285e-01) (9, -5.98166808485984802246e-02) (10, 2.09722593426704406738e-01) (11, -1.20048463344573974609e-01) (12, -7.28306248784065246582e-02) (13, 6.49845451116561889648e-02) (14, -1.08209595084190368652e-01) (15, 4.10327948629856109619e-02) (16, -1.48178681731224060059e-01) (17, -1.12468704581260681152e-01) (18, -1.62901744246482849121e-01) (19, -9.87414717674255371094e-02) (20, -1.20708696544170379639e-01) (21, 7.81307555735111236572e-03) (22, 7.09243044257164001465e-02) (23, 7.01215341687202453613e-02) (24, -1.02975316345691680908e-01) (0, -4.14508283138275146484e-02) (1, -6.69325366616249084473e-02) (2, 2.28037223219871520996e-01) (3, -1.31929621100425720215e-01) (4, 3.81979227066040039062e-01) (5, 5.95000125467777252197e-02) (6, 3.71463328599929809570e-01) (7, 1.17881089448928833008e-01) (8, 1.44758343696594238281e-01) (9, -4.29580081254243850708e-03) (10, -2.24830314517021179199e-01) (11, 1.36114209890365600586e-01) (12, 1.62767767906188964844e-01) (13, -6.00232966244220733643e-02) (14, 2.51449048519134521484e-02) (15, -3.44725251197814941406e-01) (16, 1.81055620312690734863e-01) (17, 2.52865135669708251953e-01) (18, 1.16855658590793609619e-01) (19, 8.18764325231313705444e-03) (20, -1.06756985187530517578e-01) (21, -1.93287625908851623535e-01) (22, 3.91926094889640808105e-02) (23, 6.19870647788047790527e-02) (24, -1.65199428796768188477e-01) (0, 1.83839231729507446289e-01) (1, 3.26794087886810302734e-01) (2, 1.13912515342235565186e-01) (3, 1.19126774370670318604e-01) (4, 7.65826180577278137207e-02) (5, 6.85780271887779235840e-02) (6, -1.48751601576805114746e-01) (7, 1.79378941655158996582e-01) (8, -1.73303380608558654785e-01) (9, -5.51283024251461029053e-02) (10, -1.42628485336899757385e-02) (11, -4.06689718365669250488e-02) (12, -6.30152001976966857910e-02) (13, -8.93186032772064208984e-02) (14, 1.01644881069660186768e-01) (15, -6.08141645789146423340e-02) (16, -4.21783849596977233887e-02) (17, -9.88515242934226989746e-02) (18, 8.89199078083038330078e-02) (19, 6.04939684271812438965e-02) (20, -4.25019189715385437012e-02) (21, 9.37725156545639038086e-02) (22, -1.14706009626388549805e-02) (23, -9.63412001729011535645e-02) (24, 4.32404968887567520142e-03) (0, 1.70925617218017578125e-01) (1, 1.45315304398536682129e-01) (2, -1.70255288481712341309e-01) (3, 2.16824188828468322754e-02) (4, -1.88511356711387634277e-01) (5, -4.95555400848388671875e-02) (6, -5.07403612136840820312e-01) (7, -3.28272759914398193359e-01) (8, 1.80210322141647338867e-01) (9, 1.21167913079261779785e-01) (10, 2.72265464067459106445e-01) (11, -2.18379795551300048828e-01) (12, 5.37963062524795532227e-02) (13, 6.41887485980987548828e-02) (14, 6.63737878203392028809e-02) (15, 3.00790458917617797852e-01) (16, -2.90563941001892089844e-01) (17, -2.38314613699913024902e-01) (18, -1.65524572134017944336e-01) (19, -1.28608280792832374573e-02) (20, 3.49760130047798156738e-02) (21, 4.09290380775928497314e-02) (22, 8.07983353734016418457e-02) (23, -2.94704735279083251953e-02) (24, 1.18575200438499450684e-01) (0, 1.08317852020263671875e-01) (1, 4.33682873845100402832e-02) (2, 8.89628306031227111816e-02) (3, -2.54650618880987167358e-02) (4, -2.62992270290851593018e-02) (5, 3.98264117538928985596e-02) (6, 1.56585037708282470703e-01) (7, 7.39673897624015808105e-02) (8, 1.90448146313428878784e-02) (9, -1.02088153362274169922e-02) (10, 6.46490156650543212891e-02) (11, -4.88734096288681030273e-02) (12, 7.37765803933143615723e-02) (13, 8.41231420636177062988e-02) (14, 8.53168442845344543457e-02) (15, -1.10758848488330841064e-01) (16, 5.33213056623935699463e-02) (17, -4.95995618402957916260e-02) (18, 5.45954965054988861084e-02) (19, 2.36822143197059631348e-02) (20, 9.60893705487251281738e-02) (21, 8.79434570670127868652e-02) (22, 9.94616225361824035645e-02) (23, -8.06518867611885070801e-02) (24, -1.87295805662870407104e-02) (0, -1.51675194501876831055e-02) (1, 2.02537849545478820801e-02) (2, -5.29193915426731109619e-02) (3, 1.12421236932277679443e-01) (4, -1.31080538034439086914e-01) (5, 4.46163006126880645752e-02) (6, -2.89619117975234985352e-01) (7, 2.79877427965402603149e-02) (8, 3.50717135006561875343e-04) (9, -3.75544019043445587158e-02) (10, 1.03609055280685424805e-01) (11, -2.59360559284687042236e-02) (12, -1.07378654181957244873e-01) (13, -7.65185281634330749512e-02) (14, 9.27991122007369995117e-02) (15, 8.83934423327445983887e-02) (16, -2.74144690483808517456e-02) (17, -1.50315865874290466309e-01) (18, -6.52673691511154174805e-02) (19, 4.13607917726039886475e-02) (20, -1.69344600290060043335e-02) (21, -1.11201824620366096497e-02) (22, 3.06042805314064025879e-02) (23, 5.54992258548736572266e-03) (24, -3.25983427464962005615e-02) (0, -3.62772852182388305664e-01) (1, -1.51321589946746826172e-01) (2, 2.61864572763442993164e-01) (3, -3.38980764150619506836e-01) (4, -3.83670143783092498779e-02) (5, -8.13878029584884643555e-02) (6, 9.39535140991210937500e-01) (7, 3.11576128005981445312e-01) (8, -6.98957517743110656738e-02) (9, -1.35617226362228393555e-01) (10, -8.84429067373275756836e-02) (11, 3.79323214292526245117e-01) (12, -1.70561671257019042969e-01) (13, 6.62712603807449340820e-02) (14, -1.97442889213562011719e-01) (15, -5.85748493671417236328e-01) (16, 1.28762334585189819336e-01) (17, 1.79501861333847045898e-01) (18, -1.48609161376953125000e-01) (19, -1.76624685525894165039e-01) (20, -1.26896068453788757324e-01) (21, 2.48983651399612426758e-01) (22, -6.26027435064315795898e-02) (23, 4.84886541962623596191e-02) (24, -1.82907819747924804688e-01) (0, -1.21815696358680725098e-01) (1, -3.54733094573020935059e-02) (2, 1.36334940791130065918e-01) (3, -3.92433963716030120850e-02) (4, 8.56079459190368652344e-02) (5, 4.75363805890083312988e-03) (6, 3.94154220819473266602e-01) (7, 1.80003866553306579590e-01) (8, -1.31332382559776306152e-01) (9, -2.24811553955078125000e-01) (10, -6.01972229778766632080e-02) (11, 2.04495683312416076660e-01) (12, 1.02805472910404205322e-01) (13, 5.78941144049167633057e-02) (14, -2.30008393526077270508e-01) (15, 4.29328903555870056152e-02) (16, 2.61356323957443237305e-01) (17, 2.73665219545364379883e-01) (18, 1.37747198343276977539e-01) (19, 1.95330101996660232544e-02) (20, -1.66450724005699157715e-01) (21, -1.65223386138677597046e-02) (22, 8.54526981711387634277e-02) (23, -5.88791966438293457031e-02) (24, -9.53773483633995056152e-02) (0, -8.22714418172836303711e-02) (1, 1.28381371498107910156e-01) (2, -1.74463748931884765625e-01) (3, 2.60865062475204467773e-01) (4, -2.82034039497375488281e-01) (5, 1.44467934966087341309e-01) (6, -4.40859556198120117188e-01) (7, -1.29140198230743408203e-01) (8, -1.00618481636047363281e-01) (9, -5.12947142124176025391e-02) (10, 2.64590620994567871094e-01) (11, -5.65760470926761627197e-02) (12, 2.70164497196674346924e-02) (13, -3.68538908660411834717e-02) (14, 5.63505217432975769043e-02) (15, 1.45676136016845703125e-02) (16, -9.09292027354240417480e-02) (17, -8.56972262263298034668e-02) (18, 2.34508980065584182739e-02) (19, -6.62944838404655456543e-03) (20, 2.62169688940048217773e-02) (21, 4.07121144235134124756e-02) (22, -2.85866186022758483887e-02) (23, 5.05939647555351257324e-02) (24, 2.41462234407663345337e-02) (0, -1.04553237557411193848e-01) (1, 4.12684194743633270264e-02) (2, 1.20638664811849594116e-02) (3, 1.62136241793632507324e-01) (4, -4.14725504815578460693e-02) (5, -2.42872089147567749023e-02) (6, -1.91246822476387023926e-01) (7, -3.20190489292144775391e-02) (8, -2.00100280344486236572e-02) (9, 3.65542843937873840332e-02) (10, 1.01997889578342437744e-01) (11, 7.61831551790237426758e-02) (12, -1.11666940152645111084e-01) (13, -6.75742477178573608398e-02) (14, -2.52299197018146514893e-02) (15, -4.28187139332294464111e-02) (16, 5.59253916144371032715e-02) (17, 6.92629218101501464844e-02) (18, 8.03951397538185119629e-02) (19, -7.35776200890541076660e-02) (20, 9.92489382624626159668e-02) (21, -6.37201145291328430176e-02) (22, 7.46110752224922180176e-02) (23, 2.39525660872459411621e-02) (24, -1.25010982155799865723e-01) (0, -4.54143919050693511963e-02) (1, -5.32340891659259796143e-02) (2, 3.13283093273639678955e-02) (3, 9.13182180374860763550e-03) (4, -3.62138487398624420166e-02) (5, -4.15885336697101593018e-02) (6, 3.69697771966457366943e-02) (7, 1.28311607986688613892e-02) (8, -2.10734512656927108765e-02) (9, 5.32597675919532775879e-02) (10, -2.80929952859878540039e-02) (11, 8.56826640665531158447e-03) (12, 1.00974045693874359131e-01) (13, 4.45590354502201080322e-02) (14, 8.56492817401885986328e-02) (15, 9.92735754698514938354e-03) (16, 2.76553793810307979584e-03) (17, 8.66069942712783813477e-02) (18, 2.84588187932968139648e-02) (19, 2.61138398200273513794e-02) (20, -1.07844397425651550293e-01) (21, -2.32892464846372604370e-02) (22, 1.05611681938171386719e-02) (23, -4.70196083188056945801e-02) (24, 1.12568563781678676605e-03) (0, 1.71374157071113586426e-01) (1, 8.46667736768722534180e-02) (2, -3.62140126526355743408e-02) (3, -1.06476889923214912415e-02) (4, 2.06754449754953384399e-02) (5, -2.48960033059120178223e-02) (6, -3.05383861064910888672e-01) (7, -9.74561497569084167480e-02) (8, 7.78655707836151123047e-02) (9, 1.45157247781753540039e-01) (10, 3.25991138815879821777e-02) (11, -1.63650169968605041504e-01) (12, 3.74258048832416534424e-02) (13, -3.37104722857475280762e-02) (14, 1.37107118964195251465e-01) (15, 1.97935737669467926025e-02) (16, -4.77014370262622833252e-02) (17, -1.70605421066284179688e-01) (18, -7.22873839549720287323e-04) (19, 2.49871984124183654785e-02) (20, 9.61836054921150207520e-02) (21, -1.79592370986938476562e-01) (22, 8.61120894551277160645e-02) (23, 9.20555219054222106934e-02) (24, 2.80661080032587051392e-02) (0, -1.28186672925949096680e-01) (1, -8.51225316524505615234e-01) (2, 7.25433677434921264648e-02) (3, 1.46298035979270935059e-01) (4, -4.62134331464767456055e-02) (5, 5.35092294216156005859e-01) (6, 2.01260849833488464355e-01) (7, -6.41925215721130371094e-01) (8, 7.83310651779174804688e-01) (9, -2.91780620813369750977e-01) (10, -4.25919622182846069336e-01) (11, 3.40110808610916137695e-01) (12, 5.38194505497813224792e-03) (13, 5.56809874251484870911e-03) (14, 7.80650079250335693359e-02) (15, 2.28915929794311523438e-01) (16, 1.64793461561203002930e-01) (17, 2.55381256341934204102e-01) (18, 1.71276777982711791992e-01) (19, 7.33955383300781250000e-01) (20, 2.22359657287597656250e-01) (21, -2.76455521583557128906e-01) (22, -5.63716180622577667236e-02) (23, -3.79661619663238525391e-02) (24, 6.73207715153694152832e-02) (0, -3.19764390587806701660e-02) (1, -1.00028783082962036133e-01) (2, 4.50901165604591369629e-02) (3, -3.33001352846622467041e-02) (4, -3.11189424246549606323e-02) (5, -2.00775749981403350830e-02) (6, -1.24433942139148712158e-01) (7, -2.88032442331314086914e-02) (8, -1.05124287307262420654e-01) (9, -5.18722273409366607666e-02) (10, -9.11121815443038940430e-02) (11, -3.96050848066806793213e-02) (12, -8.62259864807128906250e-02) (13, 3.47111634910106658936e-02) (14, -5.52080720663070678711e-02) (15, 5.93231357634067535400e-02) (16, -6.53681680560111999512e-02) (17, 1.23349346220493316650e-01) (18, 8.41566622257232666016e-02) (19, 3.44316065311431884766e-02) (20, -9.53428372740745544434e-02) (21, -1.42255216836929321289e-01) (22, 8.26960727572441101074e-02) (23, -7.85581544041633605957e-02) (24, 7.26063027977943420410e-02) (0, 1.26493547577410936356e-03) (1, -4.02233973145484924316e-02) (2, -4.30706031620502471924e-02) (3, 3.72613649233244359493e-05) (4, 5.38188405334949493408e-02) (5, -1.01866252720355987549e-01) (6, -8.19529406726360321045e-03) (7, 1.28281340003013610840e-01) (8, -1.15676417946815490723e-01) (9, 7.10101500153541564941e-02) (10, -5.79152591526508331299e-02) (11, 2.73107755929231643677e-02) (12, -9.59766134619712829590e-02) (13, 6.68163672089576721191e-02) (14, 5.45584112405776977539e-02) (15, -9.48387235403060913086e-02) (16, 1.05196334421634674072e-01) (17, -6.72971233725547790527e-02) (18, -1.35833239182829856873e-02) (19, -6.44401228055357933044e-03) (20, -5.94561025500297546387e-02) (21, -1.31455818191170692444e-02) (22, 2.35860496759414672852e-02) (23, -5.22469244897365570068e-02) (24, -2.68005654215812683105e-02) (0, 1.06962986290454864502e-01) (1, 2.04086452722549438477e-01) (2, -3.09585109353065490723e-02) (3, -8.85181277990341186523e-02) (4, 2.03634183853864669800e-02) (5, -1.26137226819992065430e-01) (6, -2.63692945241928100586e-01) (7, -1.67077064514160156250e-01) (8, 5.66592179238796234131e-02) (9, 6.82693719863891601562e-02) (10, 6.11312016844749450684e-02) (11, -1.91569954156875610352e-01) (12, 1.81873403489589691162e-02) (13, 5.82738965749740600586e-02) (14, 5.70433773100376129150e-02) (15, -2.40435842424631118774e-02) (16, -2.54836708307266235352e-01) (17, -1.23879171907901763916e-01) (18, -4.85399812459945678711e-02) (19, 2.10373565554618835449e-01) (20, 1.28953412175178527832e-01) (21, -1.39862284064292907715e-01) (22, 5.84957078099250793457e-02) (23, 1.49533897638320922852e-03) (24, -9.38385277986526489258e-02) (0, 1.84092938899993896484e-01) (1, 1.30050435662269592285e-01) (2, -3.24999243021011352539e-02) (3, -1.57260313630104064941e-01) (4, 2.65954524278640747070e-01) (5, -2.59635895490646362305e-01) (6, 1.06229119002819061279e-01) (7, 3.68421733379364013672e-01) (8, -3.90798509120941162109e-01) (9, 1.32653098553419113159e-02) (10, -1.33940756320953369141e-01) (11, -3.23785915970802307129e-02) (12, -5.27568794786930084229e-02) (13, 8.78365524113178253174e-03) (14, 8.48616659641265869141e-02) (15, -2.79109925031661987305e-01) (16, 1.71601593494415283203e-01) (17, 2.19606786966323852539e-01) (18, 8.54469314217567443848e-02) (19, -2.89370656013488769531e-01) (20, -6.42054975032806396484e-02) (21, -2.39978387951850891113e-01) (22, -6.64838850498199462891e-02) (23, -2.97845974564552307129e-02) (24, -1.72640934586524963379e-01) (0, -1.37961879372596740723e-01) (1, 2.82779000699520111084e-02) (2, 8.98706391453742980957e-02) (3, 5.49196712672710418701e-02) (4, -7.92175624519586563110e-03) (5, 6.01950362324714660645e-02) (6, -5.18707111477851867676e-02) (7, -5.74847534298896789551e-02) (8, -2.76429727673530578613e-02) (9, -7.00815171003341674805e-02) (10, -9.75631251931190490723e-02) (11, -6.87440261244773864746e-02) (12, 4.93324920535087585449e-03) (13, 4.90232035517692565918e-02) (14, -3.95022407174110412598e-02) (15, -1.98006302118301391602e-01) (16, -3.83379459381103515625e-02) (17, 1.13845691084861755371e-01) (18, -4.18308898806571960449e-02) (19, 1.71956773847341537476e-02) (20, -9.09669846296310424805e-02) (21, -1.54430717229843139648e-01) (22, -7.53609016537666320801e-02) (23, -7.82209336757659912109e-02) (24, 4.36230450868606567383e-02) (0, -2.61182397603988647461e-01) (1, -2.17218860983848571777e-01) (2, 1.79846271872520446777e-01) (3, -1.41744360327720642090e-01) (4, -9.24415607005357742310e-03) (5, 5.74130900204181671143e-02) (6, 6.08208477497100830078e-01) (7, 4.11123126745223999023e-01) (8, -1.32306367158889770508e-02) (9, -2.96996742486953735352e-01) (10, -1.36121526360511779785e-01) (11, 2.09186464548110961914e-01) (12, 4.80661774054169654846e-03) (13, -4.07954864203929901123e-02) (14, -3.41422528028488159180e-01) (15, -1.00649699568748474121e-01) (16, 2.85164058208465576172e-01) (17, 2.76397585868835449219e-01) (18, -1.67517419904470443726e-02) (19, -3.04238796234130859375e-01) (20, -2.49678641557693481445e-01) (21, 1.13191500306129455566e-01) (22, -1.96515172719955444336e-02) (23, 3.42150405049324035645e-02) (24, -1.02249622344970703125e-01) (0, -9.28901508450508117676e-02) (1, -3.58814001083374023438e-01) (2, -1.21946580708026885986e-01) (3, -7.96615257859230041504e-02) (4, -3.19128558039665222168e-02) (5, -8.26214626431465148926e-02) (6, 1.43268018960952758789e-01) (7, -2.55817472934722900391e-01) (8, 1.65912464261054992676e-01) (9, 7.35551863908767700195e-02) (10, -3.58189903199672698975e-02) (11, -2.24387776106595993042e-02) (12, 1.75051409751176834106e-02) (13, -8.94423946738243103027e-02) (14, -1.23724281787872314453e-01) (15, 2.53192454576492309570e-01) (16, -4.16809227317571640015e-03) (17, 9.76906418800354003906e-02) (18, -1.05732977390289306641e-01) (19, 6.55334740877151489258e-02) (20, -1.70265242457389831543e-01) (21, -1.20618559420108795166e-01) (22, -7.50363990664482116699e-02) (23, -1.96548625826835632324e-02) (24, -1.75408180803060531616e-02) (0, -8.94498825073242187500e-02) (1, 1.05881746858358383179e-02) (2, -8.93408879637718200684e-02) (3, 1.98636829853057861328e-01) (4, -1.25772163271903991699e-01) (5, -2.09726970642805099487e-02) (6, -2.29359984397888183594e-01) (7, 1.90021917223930358887e-02) (8, -9.13524925708770751953e-02) (9, -4.41295839846134185791e-02) (10, 1.19261115789413452148e-01) (11, -9.84913557767868041992e-02) (12, 1.79833397269248962402e-02) (13, -2.06192769110202789307e-02) (14, 2.07981858402490615845e-02) (15, 1.33513346314430236816e-01) (16, -1.34689480066299438477e-01) (17, -6.97118043899536132812e-02) (18, -1.65968552231788635254e-01) (19, -5.52471540868282318115e-03) (20, -1.46414935588836669922e-01) (21, 1.07187382876873016357e-01) (22, 7.51002505421638488770e-02) (23, -7.87624046206474304199e-02) (24, -9.71289873123168945312e-02) (0, 3.44028592109680175781e-01) (1, 1.68405428528785705566e-01) (2, -1.58474624156951904297e-01) (3, 6.87803924083709716797e-02) (4, -6.25829771161079406738e-02) (5, -1.12344026565551757812e-01) (6, -4.65234458446502685547e-01) (7, -9.25761237740516662598e-02) (8, -3.84869286790490150452e-03) (9, 1.67077600955963134766e-01) (10, -6.41079396009445190430e-02) (11, -2.32551828026771545410e-01) (12, 2.30858866125345230103e-02) (13, -2.13452763855457305908e-02) (14, 1.64152011275291442871e-01) (15, -1.69368684291839599609e-02) (16, -1.24881483614444732666e-01) (17, -1.51257336139678955078e-01) (18, 1.39419939368963241577e-02) (19, 3.97693634033203125000e-01) (20, 2.44652360677719116211e-01) (21, -3.84601622819900512695e-01) (22, -1.08675286173820495605e-02) (23, -8.80300253629684448242e-02) (24, -7.31419920921325683594e-02) (0, 3.28161358833312988281e-01) (1, 1.39105454087257385254e-01) (2, -1.95114105939865112305e-01) (3, 4.08208630979061126709e-02) (4, -8.15652832388877868652e-02) (5, -2.25066453218460083008e-01) (6, -4.21925157308578491211e-01) (7, -1.39758795499801635742e-01) (8, -8.02534073591232299805e-02) (9, 3.58048900961875915527e-02) (10, -1.66534110903739929199e-01) (11, -3.89077737927436828613e-02) (12, -9.48668792843818664551e-02) (13, 3.96291427314281463623e-02) (14, 2.57902413606643676758e-01) (15, -5.39562106132507324219e-02) (16, -2.65871554613113403320e-01) (17, -1.34330242872238159180e-01) (18, -4.53187040984630584717e-02) (19, 3.18551123142242431641e-01) (20, 3.44649225473403930664e-01) (21, -4.10031080245971679688e-01) (22, -8.38259011507034301758e-02) (23, -2.22016870975494384766e-03) (24, 2.87246741354465484619e-02) (0, -1.49133694171905517578e+00) (1, 2.64666587114334106445e-01) (2, -7.95184433460235595703e-01) (3, 2.42299705743789672852e-01) (4, -7.19015598297119140625e-01) (5, -1.78415387868881225586e-01) (6, 3.52598249912261962891e-01) (7, -1.79499626159667968750e-01) (8, 1.01404631137847900391e+00) (9, -2.94371724128723144531e-01) (10, 7.61260688304901123047e-01) (11, 4.21541407704353332520e-02) (12, -3.30759972333908081055e-01) (13, -4.37897630035877227783e-02) (14, -2.83023655414581298828e-01) (15, 4.51690852642059326172e-01) (16, -4.70575958490371704102e-01) (17, -3.23280960321426391602e-01) (18, -3.89093697071075439453e-01) (19, -4.49447304010391235352e-01) (20, 1.63701012730598449707e-01) (21, 7.54464387893676757812e-01) (22, 8.26905742287635803223e-02) (23, -3.06450650095939636230e-02) (24, -3.86383906006813049316e-02) (0, 5.20209744572639465332e-02) (1, -1.94698005914688110352e-01) (2, 2.07824945449829101562e-01) (3, -2.93728709220886230469e-01) (4, 4.20011848211288452148e-01) (5, -1.05302408337593078613e-01) (6, 4.07039076089859008789e-01) (7, 9.47763323783874511719e-02) (8, 9.53658372163772583008e-02) (9, 6.92437067627906799316e-02) (10, -3.08844208717346191406e-01) (11, 2.50506289303302764893e-02) (12, 7.07677826285362243652e-02) (13, -2.07003653049468994141e-02) (14, 9.23062041401863098145e-02) (15, -1.11782908439636230469e-01) (16, 8.10411795973777770996e-02) (17, 1.80378153920173645020e-01) (18, 1.03082470595836639404e-01) (19, 1.48375658318400382996e-02) (20, 1.08135819435119628906e-01) (21, -5.23708313703536987305e-02) (22, -2.62845903635025024414e-02) (23, 3.00710275769233703613e-02) (24, -6.69605508446693420410e-02) (0, -1.39798104763031005859e-01) (1, 5.94396255910396575928e-02) (2, -1.46193638443946838379e-01) (3, 2.02958092093467712402e-01) (4, -2.46115908026695251465e-01) (5, 2.23210811614990234375e-01) (6, -3.84949505329132080078e-01) (7, 3.32771278917789459229e-02) (8, -1.58137083053588867188e-01) (9, 8.11400711536407470703e-02) (10, 2.36722007393836975098e-01) (11, 2.29144468903541564941e-02) (12, -8.06502923369407653809e-02) (13, -1.89322642982006072998e-02) (14, -5.13317696750164031982e-02) (15, 4.27919290959835052490e-02) (16, -7.85597041249275207520e-02) (17, -8.97818282246589660645e-02) (18, -1.06149390339851379395e-02) (19, -6.99737071990966796875e-02) (20, -1.18764363229274749756e-01) (21, 6.78314268589019775391e-02) (22, -4.23181653022766113281e-02) (23, 9.32449772953987121582e-02) (24, -7.44181945919990539551e-02) (0, -1.16809919476509094238e-01) (1, -4.88980188965797424316e-02) (2, 2.15656414628028869629e-01) (3, 5.32680042088031768799e-02) (4, 4.09068614244461059570e-02) (5, 5.54279126226902008057e-02) (6, 3.28280031681060791016e-01) (7, 3.83266955614089965820e-01) (8, -1.79455712437629699707e-01) (9, -2.49604135751724243164e-01) (10, -1.87809690833091735840e-01) (11, 1.02451801300048828125e-01) (12, 2.20662225037813186646e-02) (13, -7.53711834549903869629e-02) (14, -1.17304995656013488770e-01) (15, -1.93290218710899353027e-01) (16, 3.88858765363693237305e-01) (17, 2.84063786268234252930e-01) (18, 2.25553676486015319824e-01) (19, -1.42468959093093872070e-01) (20, -9.32057946920394897461e-02) (21, -8.75091850757598876953e-02) (22, 8.79229679703712463379e-02) (23, 7.48511403799057006836e-03) (24, -1.85971304774284362793e-01) (0, -6.76706016063690185547e-01) (1, -2.93775618076324462891e-01) (2, 7.64438956975936889648e-02) (3, 7.36234113574028015137e-02) (4, 3.16632121801376342773e-01) (5, 2.58878231048583984375e-01) (6, 1.02944254875183105469e+00) (7, 9.06703099608421325684e-02) (8, 4.79713201522827148438e-01) (9, -9.69005301594734191895e-02) (10, 1.74232795834541320801e-02) (11, 2.32429746538400650024e-02) (12, 2.23180875182151794434e-01) (13, -2.95622888952493667603e-02) (14, -2.41393327713012695312e-01) (15, -6.07321619987487792969e-01) (16, 2.09792122244834899902e-01) (17, 4.93147559463977813721e-02) (18, 8.15650299191474914551e-02) (19, 6.13928623497486114502e-02) (20, 3.73024269938468933105e-02) (21, -3.53110581636428833008e-01) (22, 9.21749100089073181152e-02) (23, -9.30747911334037780762e-02) (24, -1.67631924152374267578e-01) (0, -1.69515103101730346680e-01) (1, -8.13920944929122924805e-02) (2, 2.00687959790229797363e-01) (3, -1.54643967747688293457e-01) (4, 7.57822096347808837891e-02) (5, 1.28542557358741760254e-01) (6, 5.57446897029876708984e-01) (7, 3.22702497243881225586e-01) (8, -8.46991166472434997559e-02) (9, -1.64851382374763488770e-01) (10, -1.87566712498664855957e-01) (11, 2.51347661018371582031e-01) (12, 1.33708342909812927246e-02) (13, 6.43379017710685729980e-02) (14, -1.59136116504669189453e-01) (15, -2.91075795888900756836e-01) (16, 3.50268304347991943359e-01) (17, 3.37397098541259765625e-01) (18, 2.24727950990200042725e-02) (19, -1.03354007005691528320e-01) (20, -1.42673030495643615723e-01) (21, -2.59378086775541305542e-02) (22, -4.42271195352077484131e-02) (23, 1.59230679273605346680e-02) (24, -2.26255312561988830566e-01) (0, -1.09388321638107299805e-01) (1, -1.49257838726043701172e-01) (2, 5.74931241571903228760e-02) (3, -6.44843056797981262207e-02) (4, 1.01561183109879493713e-02) (5, 7.30003416538238525391e-02) (6, 3.16705614328384399414e-01) (7, 6.28061890602111816406e-02) (8, -1.69107198715209960938e-01) (9, -4.42783273756504058838e-02) (10, -3.64152863621711730957e-02) (11, 1.90104901790618896484e-01) (12, 7.90507718920707702637e-02) (13, -9.73218306899070739746e-02) (14, -8.80485773086547851562e-02) (15, -9.15319770574569702148e-02) (16, 8.36526453495025634766e-02) (17, 7.65013247728347778320e-02) (18, -2.23810058087110519409e-02) (19, -8.20494890213012695312e-02) (20, -6.71270582824945449829e-03) (21, 1.53433248400688171387e-01) (22, -8.48607942461967468262e-02) (23, 4.49686571955680847168e-02) (24, 2.81824395060539245605e-02) (0, -6.83277994394302368164e-02) (1, -1.07644796371459960938e-01) (2, -6.81156665086746215820e-02) (3, 2.26888582110404968262e-02) (4, 8.32155197858810424805e-02) (5, -6.96605145931243896484e-02) (6, -1.32787480950355529785e-01) (7, -1.19575440883636474609e-01) (8, -7.61037543416023254395e-02) (9, -3.20388823747634887695e-02) (10, -4.44224700331687927246e-02) (11, -6.12551271915435791016e-02) (12, 7.35057070851325988770e-02) (13, -9.41591896116733551025e-03) (14, -5.32020591199398040771e-02) (15, 1.22267812490463256836e-01) (16, -3.68953682482242584229e-02) (17, -2.28848699480295181274e-02) (18, 1.78246246650815010071e-03) (19, -5.22874034941196441650e-02) (20, -5.20188435912132263184e-02) (21, -9.52200219035148620605e-02) (22, 5.84222376346588134766e-04) (23, -9.23969522118568420410e-02) (24, -1.16427112370729446411e-02) (0, -8.07209536433219909668e-02) (1, -5.99093995988368988037e-02) (2, -4.49141524732112884521e-02) (3, 4.82948422431945800781e-02) (4, 5.68936616182327270508e-02) (5, 1.57582566142082214355e-01) (6, 2.42926165461540222168e-01) (7, 1.59181103110313415527e-01) (8, -5.60469478368759155273e-02) (9, -1.63690537214279174805e-01) (10, 5.85671067237854003906e-02) (11, 9.18021127581596374512e-02) (12, -6.42379373311996459961e-02) (13, 6.75037950277328491211e-02) (14, -2.07757875323295593262e-01) (15, 1.36920157819986343384e-02) (16, 8.17783847451210021973e-02) (17, 9.78871062397956848145e-02) (18, 3.81813794374465942383e-02) (19, -5.65555766224861145020e-02) (20, -1.24550223350524902344e-01) (21, 8.15130174160003662109e-02) (22, 4.53266724944114685059e-02) (23, 3.54968979954719543457e-02) (24, -9.86212491989135742188e-02) (0, 1.75163120031356811523e-01) (1, 5.98537325859069824219e-02) (2, -8.97140726447105407715e-02) (3, -3.90714369714260101318e-02) (4, -2.32093688100576400757e-02) (5, -4.55501191318035125732e-02) (6, -2.28055700659751892090e-01) (7, -7.38107562065124511719e-02) (8, 2.07315143197774887085e-02) (9, 1.40419051051139831543e-01) (10, -9.98363569378852844238e-02) (11, -3.58870066702365875244e-02) (12, -5.95544613897800445557e-02) (13, -7.70863518118858337402e-02) (14, 1.83077827095985412598e-01) (15, -9.08832252025604248047e-02) (16, 2.92496699839830398560e-02) (17, -6.70433267951011657715e-02) (18, 3.14256139099597930908e-02) (19, 1.25238597393035888672e-01) (20, 1.56710669398307800293e-01) (21, -2.37228006124496459961e-01) (22, 8.64981338381767272949e-02) (23, 5.56313470005989074707e-02) (24, -2.21617296338081359863e-02) (0, -6.11002258956432342529e-02) (1, -1.48775413632392883301e-01) (2, -5.47830909490585327148e-02) (3, -1.01933032274246215820e-01) (4, 9.73514020442962646484e-02) (5, -1.05819981545209884644e-02) (6, -1.26303225755691528320e-01) (7, -8.37397053837776184082e-02) (8, -1.37238726019859313965e-01) (9, 6.25903625041246414185e-03) (10, 6.43138214945793151855e-02) (11, 3.55171002447605133057e-02) (12, 3.78315709531307220459e-02) (13, -5.32382652163505554199e-02) (14, -5.27130216360092163086e-02) (15, 1.36830896139144897461e-01) (16, 8.43016989529132843018e-03) (17, 1.10499829053878784180e-01) (18, 9.24276933073997497559e-02) (19, -4.46351664140820503235e-03) (20, -4.66972887516021728516e-02) (21, -1.16714015603065490723e-01) (22, -2.15687155723571777344e-02) (23, -5.72550296783447265625e-02) (24, 5.81256225705146789551e-02) (0, 8.05397052317857742310e-03) (1, 1.61052927374839782715e-01) (2, 1.24688476324081420898e-01) (3, -3.11342459172010421753e-02) (4, -8.01031012088060379028e-03) (5, 4.45352271199226379395e-02) (6, 6.84950575232505798340e-02) (7, 1.17794200778007507324e-01) (8, 1.32111921906471252441e-01) (9, 9.00826826691627502441e-02) (10, 4.87582907080650329590e-02) (11, 2.04096958041191101074e-02) (12, -8.78745540976524353027e-02) (13, -7.34531655907630920410e-02) (14, 5.17128258943557739258e-02) (15, -1.52019605040550231934e-01) (16, 3.91625761985778808594e-02) (17, -8.13272818922996520996e-02) (18, -6.39712139964103698730e-02) (19, -7.15513080358505249023e-02) (20, 1.04680486023426055908e-01) (21, 1.08906559646129608154e-01) (22, 9.59640741348266601562e-03) (23, -6.92423433065414428711e-03) (24, -4.09739837050437927246e-02) (0, -1.51797667145729064941e-01) (1, -1.06556706130504608154e-01) (2, -1.24182447791099548340e-01) (3, -5.31657077372074127197e-02) (4, 1.58746587112545967102e-03) (5, 3.88882979750633239746e-02) (6, -2.79644727706909179688e-02) (7, -8.72084200382232666016e-02) (8, -2.23335213959217071533e-02) (9, 3.50903347134590148926e-02) (10, 4.68719676136970520020e-02) (11, -2.27169971913099288940e-02) (12, -2.45505478233098983765e-02) (13, 1.21496533975005149841e-02) (14, -4.16558831930160522461e-02) (15, 3.41826975345611572266e-02) (16, -4.70274267718195915222e-03) (17, -6.35987445712089538574e-02) (18, -9.08738095313310623169e-03) (19, 5.92719158157706260681e-03) (20, -3.33194360136985778809e-02) (21, -1.03510059416294097900e-01) (22, -2.33016759157180786133e-02) (23, -8.40874984860420227051e-02) (24, -3.40545848011970520020e-02) (0, 5.98009070381522178650e-03) (1, 4.92884248495101928711e-01) (2, -5.35023868083953857422e-01) (3, -1.44082590937614440918e-01) (4, -7.73468971252441406250e-01) (5, -4.40967857837677001953e-01) (6, -8.77088427543640136719e-01) (7, 1.18062011897563934326e-01) (8, -3.18236440420150756836e-01) (9, 1.67113795876502990723e-01) (10, 4.46445226669311523438e-01) (11, -1.19255833327770233154e-01) (12, -3.36857557296752929688e-01) (13, -3.88736985623836517334e-02) (14, 2.13057547807693481445e-01) (15, 8.96522879600524902344e-01) (16, 1.07728093862533569336e-01) (17, -5.01811318099498748779e-02) (18, 4.83477637171745300293e-02) (19, -4.80710566043853759766e-01) (20, 6.64523616433143615723e-02) (21, 4.85926985740661621094e-01) (22, 3.97442504763603210449e-02) (23, -2.56666466593742370605e-02) (24, 9.13365259766578674316e-02) (0, -1.02239584922790527344e+00) (1, 2.66587615013122558594e-01) (2, 2.41259187459945678711e-01) (3, 3.13030481338500976562e-01) (4, -4.92865890264511108398e-01) (5, -1.25658199191093444824e-01) (6, -2.75985270738601684570e-01) (7, -1.16922585293650627136e-02) (8, 6.62248969078063964844e-01) (9, 1.22828699648380279541e-01) (10, 9.35320794582366943359e-01) (11, -5.04383683204650878906e-01) (12, -5.87572418153285980225e-02) (13, -6.42738677561283111572e-03) (14, -5.89273497462272644043e-02) (15, 7.46314704418182373047e-01) (16, -3.70506972074508666992e-01) (17, -3.29522520303726196289e-01) (18, -1.47941127419471740723e-01) (19, -1.17369461059570312500e+00) (20, -5.23375093936920166016e-01) (21, 7.43215203285217285156e-01) (22, -9.24940183758735656738e-02) (23, -8.17950069904327392578e-02) (24, 6.34334906935691833496e-02) (0, -8.02710950374603271484e-02) (1, -8.86804834008216857910e-02) (2, -2.29848939925432205200e-02) (3, -1.17758892476558685303e-01) (4, 7.95661509037017822266e-02) (5, -8.11284333467483520508e-02) (6, -1.02666676044464111328e-01) (7, 6.53600096702575683594e-02) (8, -1.49999648332595825195e-01) (9, 5.30155114829540252686e-02) (10, -8.31430777907371520996e-02) (11, -5.38839772343635559082e-02) (12, 8.03557932376861572266e-02) (13, 9.45765301585197448730e-02) (14, 1.79090537130832672119e-02) (15, 3.12289576977491378784e-02) (16, 1.44159793853759765625e-01) (17, -4.83965128660202026367e-02) (18, 1.75592396408319473267e-02) (19, -4.76196333765983581543e-02) (20, -9.06052291393280029297e-02) (21, -1.16874560713768005371e-01) (22, 4.22255694866180419922e-03) (23, 8.06468948721885681152e-02) (24, -9.71285533159971237183e-03) (0, 1.74146771430969238281e-01) (1, 2.63355523347854614258e-01) (2, -1.31157338619232177734e-01) (3, 4.19377498328685760498e-02) (4, -1.61652639508247375488e-01) (5, -2.34319001436233520508e-01) (6, -3.54504913091659545898e-01) (7, -1.48769021034240722656e-01) (8, 1.46684097126126289368e-02) (9, 6.71818852424621582031e-02) (10, -9.35318320989608764648e-02) (11, 1.51911401189863681793e-03) (12, -2.31658406555652618408e-02) (13, -5.03850989043712615967e-02) (14, 2.70476222038269042969e-01) (15, -7.37625136971473693848e-02) (16, -2.05916985869407653809e-01) (17, -2.60599851608276367188e-01) (18, -9.31387394666671752930e-02) (19, 2.32353717088699340820e-01) (20, 3.09907227754592895508e-01) (21, -3.41071993112564086914e-01) (22, -4.01656441390514373779e-02) (23, 3.06744053959846496582e-02) (24, 1.40516916289925575256e-02) (0, -1.05437107384204864502e-01) (1, -1.42904698848724365234e-01) (2, 2.13737323880195617676e-01) (3, -2.24355727434158325195e-01) (4, 9.00792777538299560547e-02) (5, -5.46695031225681304932e-02) (6, 4.76293593645095825195e-01) (7, 5.96726685762405395508e-02) (8, -1.45510926842689514160e-01) (9, -5.27553372085094451904e-02) (10, -2.33162850141525268555e-01) (11, 1.26602843403816223145e-01) (12, 1.29717513918876647949e-01) (13, 7.37953279167413711548e-03) (14, -1.78344607353210449219e-01) (15, -1.99364468455314636230e-01) (16, 2.02880874276161193848e-01) (17, 1.86893835663795471191e-01) (18, 6.15663453936576843262e-02) (19, -1.04926638305187225342e-02) (20, -8.28560218214988708496e-02) (21, 1.33361980319023132324e-01) (22, -2.52927839756011962891e-03) (23, 5.77595904469490051270e-02) (24, -1.05032026767730712891e-01) (0, 8.79659354686737060547e-02) (1, 2.46684532612562179565e-02) (2, -9.12676472216844558716e-03) (3, -8.29921662807464599609e-02) (4, -1.02769941091537475586e-01) (5, -7.96191692352294921875e-02) (6, -1.04068517684936523438e-01) (7, -1.30532547831535339355e-01) (8, 9.10110026597976684570e-03) (9, 1.27873167395591735840e-01) (10, -2.36038286238908767700e-02) (11, -3.39750424027442932129e-02) (12, 6.00921288132667541504e-02) (13, -2.37216204404830932617e-02) (14, 1.48648887872695922852e-01) (15, -2.04402059316635131836e-02) (16, -9.36587899923324584961e-02) (17, -1.12995252013206481934e-01) (18, -4.98726591467857360840e-02) (19, -5.53003586828708648682e-02) (20, 4.23754304647445678711e-02) (21, -6.31184279918670654297e-02) (22, -9.64543819427490234375e-02) (23, -5.12061826884746551514e-02) (24, -4.35264818370342254639e-02) (0, -8.40460956096649169922e-02) (1, 5.42397610843181610107e-03) (2, -1.94091517478227615356e-02) (3, -9.26360562443733215332e-02) (4, 1.13228477537631988525e-01) (5, -2.51818564720451831818e-04) (6, 1.09993681311607360840e-01) (7, -5.49002997577190399170e-02) (8, 2.92401015758514404297e-02) (9, -8.74505005776882171631e-03) (10, -8.76874551177024841309e-02) (11, 1.21927618980407714844e-01) (12, -2.31264494359493255615e-02) (13, -2.31606885790824890137e-03) (14, -7.86231309175491333008e-02) (15, -5.73304146528244018555e-02) (16, 1.31452396512031555176e-01) (17, 1.26270011067390441895e-01) (18, -6.64764791727066040039e-02) (19, -7.12440013885498046875e-02) (20, -3.11268009245395660400e-02) (21, 1.75414271652698516846e-02) (22, 3.63165810704231262207e-02) (23, -7.55660682916641235352e-02) (24, 4.21965382993221282959e-02) (0, 1.32103130221366882324e-01) (1, 9.06938239932060241699e-02) (2, 3.69085446000099182129e-02) (3, 8.40789079666137695312e-02) (4, 4.88767027854919433594e-02) (5, 1.10321760177612304688e-01) (6, 1.60476535558700561523e-01) (7, 9.64695662260055541992e-02) (8, 3.58034186065196990967e-02) (9, 2.48756781220436096191e-02) (10, 2.32166936621069908142e-03) (11, -3.20831611752510070801e-02) (12, -9.06533375382423400879e-02) (13, 3.54228168725967407227e-02) (14, 9.10069420933723449707e-02) (15, -2.32009515166282653809e-02) (16, 6.24644532799720764160e-02) (17, 3.80917638540267944336e-02) (18, 7.99203515052795410156e-02) (19, -8.16286262124776840210e-03) (20, 4.54505998641252517700e-03) (21, 1.78406797349452972412e-02) (22, -3.93977724015712738037e-02) (23, 7.39702805876731872559e-02) (24, -1.06257162988185882568e-01) (0, -5.32214902341365814209e-02) (1, -4.00673523545265197754e-02) (2, 3.57561632990837097168e-02) (3, -9.45190712809562683105e-02) (4, 6.01337291300296783447e-02) (5, 1.09665822237730026245e-02) (6, 5.99039085209369659424e-02) (7, -7.09747746586799621582e-02) (8, -1.04531839489936828613e-01) (9, 4.85685132443904876709e-02) (10, -1.00069709122180938721e-01) (11, -4.83699403703212738037e-02) (12, 4.86765988171100616455e-02) (13, 5.07893450558185577393e-02) (14, 4.32641915977001190186e-02) (15, 2.55598258227109909058e-02) (16, -1.73420440405607223511e-02) (17, -4.57218103110790252686e-02) (18, 4.90909442305564880371e-03) (19, 7.58458301424980163574e-02) (20, -1.71135142445564270020e-01) (21, -1.58472076058387756348e-01) (22, 7.24234953522682189941e-02) (23, 6.90958127379417419434e-02) (24, -8.89574885368347167969e-02) (0, -9.96403247117996215820e-02) (1, -1.24714281409978866577e-02) (2, -7.44350403547286987305e-02) (3, -1.15186600014567375183e-02) (4, 7.46191963553428649902e-02) (5, -4.65745367109775543213e-02) (6, -1.40577733516693115234e-01) (7, -6.30305483937263488770e-02) (8, -8.48116949200630187988e-02) (9, -4.12817485630512237549e-02) (10, -8.39762911200523376465e-02) (11, 8.67861285805702209473e-02) (12, -3.69392856955528259277e-02) (13, -2.85236127674579620361e-02) (14, -7.19548761844635009766e-02) (15, 1.19655922055244445801e-01) (16, 3.98537889122962951660e-02) (17, 2.85261664539575576782e-02) (18, 9.78982374072074890137e-02) (19, -6.93289116024971008301e-02) (20, -1.95333570241928100586e-01) (21, -1.00357361137866973877e-01) (22, -1.90887600183486938477e-02) (23, -6.57190084457397460938e-02) (24, 5.97973540425300598145e-02) (0, -3.43422815203666687012e-02) (1, 3.70120219886302947998e-02) (2, -3.14777642488479614258e-02) (3, 9.56177562475204467773e-02) (4, -2.57489740848541259766e-01) (5, 8.18144679069519042969e-02) (6, -2.31565579771995544434e-01) (7, 9.62435901165008544922e-02) (8, -2.07815002650022506714e-02) (9, -4.89485226571559906006e-02) (10, 1.50467455387115478516e-01) (11, -1.33057400584220886230e-01) (12, -7.89798721671104431152e-02) (13, -6.86429440975189208984e-02) (14, -4.31937575340270996094e-02) (15, -2.38089766353368759155e-02) (16, -1.53621137142181396484e-01) (17, -1.68298184871673583984e-01) (18, 1.81943587958812713623e-02) (19, 7.17907329089939594269e-04) (20, -5.72410263121128082275e-02) (21, -1.35006001219153404236e-02) (22, 9.42489579319953918457e-02) (23, 1.60886272788047790527e-02) (24, 1.04630012065172195435e-02) (0, 2.29658577591180801392e-02) (1, 1.31793737411499023438e-01) (2, -3.38543467223644256592e-02) (3, -2.71824337542057037354e-02) (4, 2.33159679919481277466e-02) (5, -1.53420016169548034668e-01) (6, -1.84185996651649475098e-01) (7, -1.52770921587944030762e-01) (8, 8.03065076470375061035e-02) (9, -3.84167730808258056641e-02) (10, -3.60993333160877227783e-02) (11, -9.92334857583045959473e-02) (12, 1.55210001394152641296e-02) (13, 1.05582229793071746826e-01) (14, -1.39887593686580657959e-02) (15, 8.68805870413780212402e-02) (16, -7.72693902254104614258e-02) (17, -1.72842949628829956055e-01) (18, 3.93017567694187164307e-02) (19, 8.35025459527969360352e-02) (20, 1.12905530259013175964e-02) (21, -5.25619536638259887695e-02) (22, -9.66506451368331909180e-02) (23, 3.17866280674934387207e-02) (24, -1.76849532872438430786e-02) (0, 2.40808892995119094849e-02) (1, -1.05020485818386077881e-01) (2, 5.53206384181976318359e-01) (3, -6.46427646279335021973e-03) (4, -5.08680567145347595215e-02) (5, 5.39939850568771362305e-02) (6, 9.54944968223571777344e-01) (7, 5.06451368331909179688e-01) (8, -1.36375144124031066895e-01) (9, -2.80883133411407470703e-01) (10, -1.74371168017387390137e-01) (11, 1.55328989028930664062e-01) (12, -1.19755476713180541992e-01) (13, 6.98530673980712890625e-02) (14, -1.09880246222019195557e-01) (15, -6.50802493095397949219e-01) (16, 3.87934178113937377930e-01) (17, 4.56370979547500610352e-01) (18, 3.49795639514923095703e-01) (19, -2.90791034698486328125e-01) (20, -1.51758819818496704102e-01) (21, -4.43841874599456787109e-01) (22, 4.51071187853813171387e-02) (23, 3.78986373543739318848e-02) (24, -2.84869402647018432617e-01) (0, 7.47892931103706359863e-02) (1, 3.30832637846469879150e-02) (2, 1.03895962238311767578e-01) (3, 4.06623445451259613037e-02) (4, 6.58162832260131835938e-02) (5, -2.47961538843810558319e-03) (6, -2.26437877863645553589e-02) (7, 1.02191023528575897217e-01) (8, 8.62968116998672485352e-02) (9, 4.52524498105049133301e-02) (10, -4.30619604885578155518e-02) (11, 5.57521320879459381104e-02) (12, -2.42186002433300018311e-02) (13, -2.23132502287626266479e-02) (14, 4.78545650839805603027e-02) (15, -6.71028792858123779297e-02) (16, -7.02604353427886962891e-02) (17, 4.21694405376911163330e-02) (18, 1.56877767294645309448e-02) (19, -4.25669141113758087158e-02) (20, 1.54597178101539611816e-01) (21, 1.24489024281501770020e-01) (22, -3.98399122059345245361e-02) (23, -5.19138909876346588135e-02) (24, -5.90191595256328582764e-02) (0, 1.36925667524337768555e-01) (1, 3.10043662786483764648e-01) (2, -3.62761542201042175293e-02) (3, -1.64590217173099517822e-02) (4, -1.26945763826370239258e-01) (5, -1.68040513992309570312e-01) (6, -4.82264786958694458008e-01) (7, -2.41134271025657653809e-01) (8, -8.55517107993364334106e-03) (9, 9.35642868280410766602e-02) (10, 1.20776854455471038818e-01) (11, -1.81264862418174743652e-01) (12, -3.81026454269886016846e-02) (13, -3.97801063954830169678e-02) (14, 1.42888233065605163574e-01) (15, 3.43980014324188232422e-01) (16, -2.60283321142196655273e-01) (17, -3.37745338678359985352e-01) (18, -6.03085942566394805908e-02) (19, 2.37488880753517150879e-01) (20, 2.47262194752693176270e-01) (21, -2.74123847484588623047e-01) (22, -5.82021959125995635986e-02) (23, 4.40871194005012512207e-02) (24, 9.08919870853424072266e-02) (0, -2.72046446800231933594e-01) (1, 3.33950191736221313477e-01) (2, -1.88592031598091125488e-01) (3, 4.99698549509048461914e-01) (4, -7.38211125135421752930e-02) (5, 1.76532611250877380371e-01) (6, -1.04953086376190185547e+00) (7, 2.81833522021770477295e-02) (8, 4.94739741086959838867e-01) (9, 3.97339053452014923096e-02) (10, 3.59052062034606933594e-01) (11, -2.99013912677764892578e-01) (12, 6.48856833577156066895e-02) (13, 3.45855802297592163086e-02) (14, 5.55036067962646484375e-02) (15, 7.03102409839630126953e-01) (16, -2.80579980462789535522e-02) (17, -6.42497837543487548828e-02) (18, -6.92864432930946350098e-02) (19, -1.42076924443244934082e-01) (20, 1.22450731694698333740e-01) (21, -2.40872785449028015137e-01) (22, 4.76547852158546447754e-02) (23, -6.06687180697917938232e-02) (24, 8.54415670037269592285e-02) (0, -2.94016860425472259521e-02) (1, -1.54329091310501098633e-01) (2, -3.44146303832530975342e-02) (3, 3.05057168006896972656e-02) (4, 5.20081408321857452393e-02) (5, -1.03106789290904998779e-01) (6, -6.17474056780338287354e-02) (7, -5.75447119772434234619e-02) (8, -4.73360856994986534119e-03) (9, -8.13578069210052490234e-02) (10, -5.98689280450344085693e-02) (11, 4.99046295881271362305e-02) (12, -5.44767044484615325928e-02) (13, 4.60875220596790313721e-02) (14, 2.13460065424442291260e-02) (15, -5.03774769604206085205e-02) (16, 4.57272790372371673584e-02) (17, 7.69373849034309387207e-02) (18, -7.37216174602508544922e-02) (19, -7.66999870538711547852e-02) (20, -1.53789892792701721191e-01) (21, -2.18271538615226745605e-02) (22, -6.55591487884521484375e-02) (23, 8.43094661831855773926e-02) (24, -1.20547272264957427979e-01) (0, -2.46108956634998321533e-02) (1, 1.71855222433805465698e-02) (2, -1.55205160379409790039e-01) (3, 1.34322479367256164551e-01) (4, -2.78031647205352783203e-01) (5, 1.34264275431632995605e-01) (6, -2.30255350470542907715e-01) (7, -8.61871615052223205566e-02) (8, -1.66578486561775207520e-01) (9, 5.12172915041446685791e-02) (10, 2.55845218896865844727e-01) (11, -1.02836415171623229980e-01) (12, 3.05404458194971084595e-02) (13, -1.80674716830253601074e-02) (14, 7.69936069846153259277e-02) (15, -6.83762133121490478516e-02) (16, -1.22406914830207824707e-01) (17, -8.31020474433898925781e-02) (18, -1.24159649014472961426e-01) (19, -6.65794759988784790039e-02) (20, -4.76714894175529479980e-02) (21, 1.07215277850627899170e-01) (22, 8.34729745984077453613e-02) (23, -5.94383254647254943848e-02) (24, 2.47203931212425231934e-02) (0, 9.77632179856300354004e-02) (1, 1.66813388466835021973e-01) (2, -5.43130412697792053223e-02) (3, -8.30787569284439086914e-02) (4, -1.24642394483089447021e-01) (5, -1.01463072001934051514e-01) (6, -2.96570956707000732422e-01) (7, -1.18464387953281402588e-01) (8, 4.63217459619045257568e-02) (9, 1.71732679009437561035e-01) (10, -3.68692958727478981018e-03) (11, -7.89458006620407104492e-02) (12, -6.98046409524977207184e-04) (13, 4.09808307886123657227e-02) (14, 1.86238914728164672852e-01) (15, -6.07935152947902679443e-02) (16, -1.45757421851158142090e-01) (17, -9.72718521952629089355e-02) (18, -1.28251925110816955566e-01) (19, 2.24041908979415893555e-01) (20, 2.21594884991645812988e-01) (21, -1.95068910717964172363e-01) (22, 1.82373821735382080078e-03) (23, 1.84535011649131774902e-02) (24, -2.57278569042682647705e-02) (0, 2.62158811092376708984e-01) (1, -2.41787880659103393555e-01) (2, -1.27503633499145507812e-01) (3, -2.24256366491317749023e-01) (4, 1.76632374525070190430e-01) (5, -5.64169101417064666748e-02) (6, 1.17994761466979980469e+00) (7, 1.52338638901710510254e-01) (8, -3.00560653209686279297e-01) (9, -1.78536757826805114746e-01) (10, -5.93868009746074676514e-02) (11, 6.23756311833858489990e-02) (12, 6.83158859610557556152e-02) (13, 8.39629992842674255371e-02) (14, -3.26864898204803466797e-01) (15, -5.13968408107757568359e-01) (16, 3.58950376510620117188e-01) (17, 4.25986826419830322266e-01) (18, 1.05463154613971710205e-01) (19, -4.57711249589920043945e-01) (20, -3.99393260478973388672e-01) (21, -4.14310395717620849609e-01) (22, 4.80720475316047668457e-02) (23, -4.53996956348419189453e-02) (24, -1.98335483670234680176e-01) (0, 5.54555244743824005127e-02) (1, 4.94267269968986511230e-02) (2, -2.10745230317115783691e-01) (3, 1.35328412055969238281e-01) (4, -1.48648604750633239746e-01) (5, -4.96771000325679779053e-02) (6, -4.92840111255645751953e-01) (7, -1.67002409696578979492e-01) (8, 1.28940761089324951172e-01) (9, 9.75972712039947509766e-02) (10, 3.55375409126281738281e-01) (11, -3.62062789499759674072e-02) (12, -2.91641633957624435425e-02) (13, -1.59792660269886255264e-03) (14, 1.56291797757148742676e-02) (15, 3.67888063192367553711e-01) (16, -2.67401516437530517578e-01) (17, -1.28273367881774902344e-01) (18, -1.31985500454902648926e-01) (19, -1.86031550168991088867e-01) (20, -1.49267435073852539062e-01) (21, 1.62063196301460266113e-01) (22, 1.02629512548446655273e-03) (23, 5.54483011364936828613e-02) (24, 1.47246614098548889160e-01) (0, -4.25318852066993713379e-02) (1, 1.31746632978320121765e-02) (2, -9.92437601089477539062e-02) (3, 1.35553494095802307129e-01) (4, -1.61859497427940368652e-01) (5, 1.53803288936614990234e-01) (6, -2.83176839351654052734e-01) (7, 1.87288746237754821777e-02) (8, -5.92463277280330657959e-02) (9, -3.29688042402267456055e-02) (10, 7.78640657663345336914e-02) (11, -6.14220313727855682373e-02) (12, -7.31008648872375488281e-02) (13, -8.40798541903495788574e-02) (14, 8.78250319510698318481e-03) (15, 7.80265629291534423828e-02) (16, 1.29991136491298675537e-02) (17, -4.83942665159702301025e-02) (18, -4.87576648592948913574e-02) (19, -7.70029947161674499512e-02) (20, -7.45539963245391845703e-02) (21, 2.07897406071424484253e-02) (22, -1.16235166788101196289e-02) (23, 9.19089987874031066895e-02) (24, -8.19989889860153198242e-02) (0, -1.59374073147773742676e-01) (1, -5.54918833076953887939e-02) (2, -9.64385047554969787598e-02) (3, -1.89094930887222290039e-01) (4, 1.52463972568511962891e-01) (5, -9.31013077497482299805e-02) (6, 3.03703546524047851562e-01) (7, 1.25020295381546020508e-01) (8, -1.11199859529733657837e-02) (9, 4.22686673700809478760e-02) (10, -1.23791359364986419678e-01) (11, 5.04291709512472152710e-03) (12, -8.07604789733886718750e-02) (13, 7.19655528664588928223e-02) (14, -5.73555752635002136230e-02) (15, -1.18335872888565063477e-01) (16, 8.93876552581787109375e-02) (17, 4.58808392286300659180e-02) (18, 1.00364066660404205322e-01) (19, -2.34655737876892089844e-02) (20, 1.32861202582716941833e-02) (21, 8.74543935060501098633e-03) (22, -6.57371059060096740723e-02) (23, -4.94558513164520263672e-02) (24, -1.65307551622390747070e-01) (0, 7.30947330594062805176e-02) (1, 4.82025854289531707764e-02) (2, -1.39814823865890502930e-01) (3, 2.03879088163375854492e-01) (4, -1.54070094227790832520e-01) (5, -1.31599539890885353088e-02) (6, -1.90876469016075134277e-01) (7, -7.77166634798049926758e-02) (8, -2.08681747317314147949e-02) (9, 4.76494394242763519287e-02) (10, 7.42372404783964157104e-03) (11, -9.98976975679397583008e-02) (12, -1.07972681522369384766e-01) (13, -8.40599611401557922363e-02) (14, 5.18522821366786956787e-02) (15, -6.01296909153461456299e-02) (16, -1.18709504604339599609e-01) (17, -5.02450503408908843994e-02) (18, -1.15970484912395477295e-01) (19, -4.69185635447502136230e-02) (20, 3.36632132530212402344e-02) (21, -1.84405557811260223389e-02) (22, 4.14903461933135986328e-03) (23, -4.87388260662555694580e-02) (24, -1.15393519401550292969e-01) (0, 5.54125130176544189453e-01) (1, -3.30224871635437011719e-01) (2, -6.51659369468688964844e-02) (3, -2.35243290662765502930e-01) (4, 8.35061296820640563965e-02) (5, -2.31497049331665039062e-01) (6, 4.59738403558731079102e-01) (7, -2.70327590405941009521e-02) (8, 2.87684231996536254883e-01) (9, -1.03914178907871246338e-01) (10, -1.41975253820419311523e-01) (11, 2.13444977998733520508e-01) (12, 2.90534514933824539185e-02) (13, -6.00339248776435852051e-02) (14, -6.91777989268302917480e-02) (15, 4.70246598124504089355e-02) (16, 3.45603197813034057617e-01) (17, 3.64985316991806030273e-01) (18, 2.28878185153007507324e-01) (19, -2.52117305994033813477e-01) (20, -2.64672935009002685547e-01) (21, -4.64905023574829101562e-01) (22, 4.90938499569892883301e-02) (23, 5.19770309329032897949e-02) (24, -5.73823079466819763184e-02) (0, -1.28724917769432067871e-01) (1, -3.41254562139511108398e-01) (2, -1.57789915800094604492e-01) (3, -4.47823591530323028564e-02) (4, -4.60709184408187866211e-02) (5, -7.09138661623001098633e-02) (6, 8.72472450137138366699e-02) (7, -2.06216469407081604004e-01) (8, 2.23704770207405090332e-01) (9, -6.10140748322010040283e-02) (10, -9.72211733460426330566e-03) (11, 4.41022738814353942871e-02) (12, 7.63040930032730102539e-02) (13, 6.51118755340576171875e-02) (14, -1.88565284013748168945e-01) (15, 8.84212106466293334961e-02) (16, 6.48583248257637023926e-02) (17, 1.11429251730442047119e-01) (18, 2.13379040360450744629e-02) (19, 1.34576290845870971680e-01) (20, -1.22406981885433197021e-01) (21, -3.93589362502098083496e-02) (22, -3.93631830811500549316e-02) (23, 1.18548274040222167969e-02) (24, 4.35798801481723785400e-02) (0, 2.45043873786926269531e-01) (1, 2.15454593300819396973e-01) (2, -2.56974965333938598633e-01) (3, 8.85335579514503479004e-02) (4, -1.37687265872955322266e-01) (5, 8.81236232817173004150e-03) (6, -6.20187997817993164062e-01) (7, -4.04106259346008300781e-01) (8, 1.06375450268387794495e-02) (9, 1.17577575147151947021e-01) (10, 2.28276386857032775879e-01) (11, -3.00125807523727416992e-01) (12, -8.12952406704425811768e-03) (13, 7.09429755806922912598e-02) (14, 9.36757549643516540527e-02) (15, 4.37150865793228149414e-01) (16, -3.27006340026855468750e-01) (17, -2.57530689239501953125e-01) (18, -3.01374178379774093628e-02) (19, 1.57608494162559509277e-01) (20, 1.38086110353469848633e-01) (21, -9.84123945236206054688e-02) (22, 3.30513790249824523926e-02) (23, -3.43609601259231567383e-03) (24, 3.10978349298238754272e-02) (0, -2.19549238681793212891e-02) (1, -7.49034136533737182617e-02) (2, -5.08793182671070098877e-02) (3, -4.29693832993507385254e-02) (4, -3.77288251183927059174e-03) (5, -1.45629882812500000000e-01) (6, 1.34988084435462951660e-01) (7, 5.16128614544868469238e-02) (8, 2.03191246837377548218e-02) (9, -1.19482621550559997559e-01) (10, -1.33198931813240051270e-01) (11, 2.54616774618625640869e-02) (12, 6.27212040126323699951e-03) (13, -7.27670872583985328674e-03) (14, -2.15221755206584930420e-02) (15, -3.35764214396476745605e-02) (16, -1.06576755642890930176e-02) (17, 1.10179774463176727295e-01) (18, 9.96849909424781799316e-02) (19, 1.08921937644481658936e-01) (20, 1.40426810830831527710e-02) (21, -3.18843610584735870361e-02) (22, -9.81524586677551269531e-02) (23, -6.18459694087505340576e-02) (24, 7.30784097686409950256e-03) (0, 4.95338924229145050049e-02) (1, -1.33248999714851379395e-01) (2, -2.27010324597358703613e-01) (3, -2.15290352702140808105e-01) (4, -2.12927372194826602936e-03) (5, -2.02891573309898376465e-01) (6, 1.33035689592361450195e-01) (7, 7.43652805685997009277e-02) (8, 2.44452297687530517578e-01) (9, -1.18980199098587036133e-01) (10, 3.71116884052753448486e-02) (11, -3.10698989778757095337e-02) (12, 5.82840107381343841553e-02) (13, 4.17887493968009948730e-02) (14, -2.13690772652626037598e-02) (15, 4.91916723549365997314e-02) (16, 2.06470519304275512695e-01) (17, 2.33932614326477050781e-01) (18, 1.66875906288623809814e-02) (19, -1.04102775454521179199e-01) (20, -6.70956000685691833496e-02) (21, -1.19642995297908782959e-01) (22, -4.93786484003067016602e-03) (23, -5.82336634397506713867e-02) (24, -3.51383574306964874268e-02) (0, -2.42099344730377197266e-01) (1, 4.78824526071548461914e-01) (2, -2.35707581043243408203e-01) (3, -5.83413802087306976318e-02) (4, -2.14126273989677429199e-01) (5, -1.54124364256858825684e-01) (6, -7.87293612957000732422e-02) (7, 3.31927329301834106445e-01) (8, -3.59692484140396118164e-01) (9, 6.63353279232978820801e-02) (10, 1.38506293296813964844e-01) (11, -5.71437515318393707275e-02) (12, -1.70801639556884765625e-01) (13, 8.75749439001083374023e-02) (14, -4.94964383542537689209e-02) (15, -6.01624771952629089355e-02) (16, -5.73060847818851470947e-02) (17, -9.78368893265724182129e-02) (18, -1.82658970355987548828e-01) (19, -2.50907748937606811523e-01) (20, -1.75743654370307922363e-01) (21, 2.04486131668090820312e-01) (22, -2.17304751276969909668e-02) (23, -6.31292462348937988281e-02) (24, -9.17414128780364990234e-02) (0, -9.37943756580352783203e-02) (1, -1.58486559987068176270e-01) (2, 2.82312542200088500977e-01) (3, -3.72731208801269531250e-01) (4, 3.74330133199691772461e-01) (5, -8.73635262250900268555e-02) (6, 5.95973014831542968750e-01) (7, 1.33690729737281799316e-01) (8, -1.27933055162429809570e-01) (9, -2.02682420611381530762e-01) (10, -1.34017795324325561523e-01) (11, 1.78231626749038696289e-01) (12, 4.11937236785888671875e-02) (13, 4.44439500570297241211e-02) (14, -7.26796910166740417480e-02) (15, -2.76641845703125000000e-01) (16, 2.56120920181274414062e-01) (17, 1.10699109733104705811e-01) (18, 4.04089204967021942139e-02) (19, 1.26141220331192016602e-01) (20, -1.61994919180870056152e-01) (21, 1.38602018356323242188e-01) (22, 9.18479263782501220703e-03) (23, -5.16903772950172424316e-02) (24, -1.97471608407795429230e-03) (0, -1.17778517305850982666e-01) (1, -1.51549622416496276855e-01) (2, 2.09590252488851547241e-02) (3, -7.48656168580055236816e-02) (4, 3.53829264640808105469e-02) (5, -1.41035512089729309082e-01) (6, -1.21093884110450744629e-01) (7, -1.17526568472385406494e-01) (8, -7.34645202755928039551e-02) (9, -2.17307601124048233032e-02) (10, -6.97470530867576599121e-02) (11, 5.06924390792846679688e-02) (12, -8.64342078566551208496e-02) (13, 9.41455960273742675781e-02) (14, -3.59743610024452209473e-02) (15, 9.70683172345161437988e-02) (16, 1.44302830100059509277e-01) (17, 1.34233221411705017090e-01) (18, 5.43576292693614959717e-03) (19, 7.47964233160018920898e-02) (20, -9.62140336632728576660e-02) (21, -3.56254540383815765381e-02) (22, 3.68403270840644836426e-02) (23, 4.22190949320793151855e-02) (24, -1.94233860820531845093e-02) (0, -8.48326608538627624512e-02) (1, -7.51647353172302246094e-02) (2, -9.80021730065345764160e-02) (3, 7.48147666454315185547e-02) (4, 3.05749550461769104004e-02) (5, -9.91070494055747985840e-02) (6, -1.53400778770446777344e-01) (7, -1.18550330400466918945e-01) (8, 1.85157489031553268433e-02) (9, 1.72473571728914976120e-03) (10, 2.09452807903289794922e-02) (11, -7.23976567387580871582e-02) (12, 5.42104169726371765137e-02) (13, 8.26823189854621887207e-02) (14, -8.43027532100677490234e-02) (15, 7.32018426060676574707e-02) (16, -4.66747134923934936523e-02) (17, 9.00443047285079956055e-02) (18, -3.76874729990959167480e-02) (19, -6.10778369009494781494e-02) (20, -1.66701778769493103027e-01) (21, -2.30845250189304351807e-02) (22, -9.58066433668136596680e-02) (23, -9.77300330996513366699e-02) (24, 4.26275841891765594482e-02) (0, -4.07982617616653442383e-02) (1, -1.82289928197860717773e-01) (2, 3.09093058109283447266e-01) (3, -3.01879853010177612305e-01) (4, 2.57474720478057861328e-01) (5, -5.89080005884170532227e-02) (6, 7.25998818874359130859e-01) (7, 1.99650526046752929688e-01) (8, -2.19486132264137268066e-01) (9, 1.10003380104899406433e-02) (10, -4.44139212369918823242e-01) (11, 2.31268048286437988281e-01) (12, 1.23290449380874633789e-01) (13, -8.30412060022354125977e-02) (14, -1.74851436167955398560e-02) (15, -5.36278486251831054688e-01) (16, 2.88659662008285522461e-01) (17, 2.33731731772422790527e-01) (18, 2.65748947858810424805e-02) (19, 2.34217092394828796387e-01) (20, 1.46945878863334655762e-01) (21, -1.18133813142776489258e-01) (22, 7.28821828961372375488e-02) (23, -9.12185013294219970703e-03) (24, -1.43689781427383422852e-01) (0, 1.06923617422580718994e-01) (1, 1.00563414394855499268e-01) (2, -1.36626353487372398376e-02) (3, 1.31168812513351440430e-02) (4, -3.41689796186983585358e-03) (5, -1.36894196271896362305e-01) (6, -1.37144625186920166016e-01) (7, -1.12934239208698272705e-01) (8, 8.34116637706756591797e-02) (9, 1.09357219189405441284e-02) (10, -2.44829542934894561768e-02) (11, -8.58702138066291809082e-02) (12, -7.20032379031181335449e-02) (13, -9.32783037424087524414e-02) (14, 1.88361465930938720703e-01) (15, -1.06243461370468139648e-01) (16, -1.38729885220527648926e-01) (17, -6.80072903633117675781e-02) (18, -1.15046881139278411865e-01) (19, 1.75286773592233657837e-02) (20, 2.20144335180521011353e-02) (21, -1.08473025262355804443e-01) (22, -3.86419966816902160645e-02) (23, 4.34581711888313293457e-02) (24, 7.85252172499895095825e-03) (0, -1.14764235913753509521e-01) (1, -1.34005814790725708008e-01) (2, -1.49424999952316284180e-01) (3, 2.36471276730298995972e-02) (4, 8.15435200929641723633e-02) (5, -3.84291186928749084473e-02) (6, 1.59096475690603256226e-02) (7, -8.22921842336654663086e-02) (8, -6.00883178412914276123e-02) (9, 5.96867650747299194336e-02) (10, 9.70169305801391601562e-02) (11, 1.00925989449024200439e-01) (12, 2.48295348137617111206e-02) (13, -7.93282836675643920898e-02) (14, 3.88588272035121917725e-02) (15, 2.36391022801399230957e-01) (16, 4.76890169084072113037e-02) (17, -3.76049466431140899658e-02) (18, -6.67412653565406799316e-02) (19, 3.39278839528560638428e-02) (20, -1.95209428668022155762e-01) (21, -1.10054396092891693115e-01) (22, 4.97958287596702575684e-02) (23, 2.20677256584167480469e-02) (24, -4.96835336089134216309e-02) (0, -1.11628687381744384766e+00) (1, 3.96747052669525146484e-01) (2, 2.56459832191467285156e-01) (3, 3.40621709823608398438e-01) (4, -6.00268281996250152588e-02) (5, -6.70408234000205993652e-02) (6, 4.15216423571109771729e-02) (7, 2.99347311258316040039e-01) (8, -4.00799423456192016602e-01) (9, -3.23932655155658721924e-02) (10, 2.57873952388763427734e-01) (11, 6.45814090967178344727e-02) (12, -1.86502918601036071777e-01) (13, -5.76496459543704986572e-02) (14, -9.78693552315235137939e-03) (15, -1.32392853498458862305e-01) (16, -2.81770050525665283203e-01) (17, -2.51190483570098876953e-01) (18, -2.75808244943618774414e-01) (19, -5.67289471626281738281e-01) (20, -4.25495177507400512695e-01) (21, 5.89972913265228271484e-01) (22, 5.32169267535209655762e-02) (23, -7.93734863400459289551e-02) (24, 1.07953138649463653564e-03) (0, 1.22398220002651214600e-01) (1, 3.02555441856384277344e-01) (2, -1.63230076432228088379e-02) (3, -8.30357223749160766602e-02) (4, -2.78464108705520629883e-02) (5, -2.80935049057006835938e-01) (6, -4.51374113559722900391e-01) (7, -1.42127662897109985352e-01) (8, -1.29720242694020271301e-02) (9, 2.36443281173706054688e-01) (10, 1.21736884117126464844e-01) (11, -6.09463080763816833496e-02) (12, -4.84117902815341949463e-02) (13, 7.11640790104866027832e-02) (14, 1.71679660677909851074e-01) (15, 7.68703445792198181152e-02) (16, -3.11468213796615600586e-01) (17, -3.85825902223587036133e-01) (18, -1.37915998697280883789e-01) (19, 3.32027256488800048828e-01) (20, 3.11245620250701904297e-01) (21, -1.93014457821846008301e-01) (22, 6.59643635153770446777e-02) (23, 6.81134536862373352051e-02) (24, 3.07831913232803344727e-03) (0, -1.64526805281639099121e-01) (1, 9.53521579504013061523e-03) (2, -9.75067541003227233887e-02) (3, 2.18579005450010299683e-02) (4, 1.05670668184757232666e-01) (5, 3.50912399590015411377e-02) (6, -1.53623864054679870605e-01) (7, -1.00529111921787261963e-01) (8, -9.82528179883956909180e-03) (9, -6.78161010146141052246e-02) (10, 6.27622231841087341309e-02) (11, 6.47000819444656372070e-02) (12, -1.01891439408063888550e-02) (13, -3.32413651049137115479e-02) (14, -1.28829041495919227600e-02) (15, 1.46081801503896713257e-02) (16, -6.93663908168673515320e-03) (17, -9.27503395359963178635e-04) (18, 2.29306221008300781250e-02) (19, -8.74602049589157104492e-02) (20, -1.24939851462841033936e-01) (21, -9.06424075365066528320e-02) (22, 2.72369906306266784668e-02) (23, 4.23370674252510070801e-02) (24, 5.75123578310012817383e-02) (0, -1.28062114119529724121e-01) (1, -9.93930920958518981934e-02) (2, -6.20418973267078399658e-02) (3, -9.74743366241455078125e-02) (4, -6.73144012689590454102e-02) (5, 1.45735330879688262939e-02) (6, -1.26049429178237915039e-01) (7, 7.33243003487586975098e-02) (8, -5.56667372584342956543e-02) (9, -8.65976065397262573242e-02) (10, 7.82188177108764648438e-02) (11, 5.34294359385967254639e-02) (12, -4.99984920024871826172e-02) (13, -9.73298549652099609375e-02) (14, 1.84348155744373798370e-03) (15, 6.63759261369705200195e-02) (16, 1.12100467085838317871e-01) (17, -2.32640700414776802063e-03) (18, 9.69399511814117431641e-02) (19, -5.38594089448451995850e-02) (20, -7.78416022658348083496e-02) (21, -1.36423662304878234863e-01) (22, 6.31131231784820556641e-04) (23, -9.32601466774940490723e-02) (24, 7.46293365955352783203e-03) (0, 4.32599708437919616699e-03) (1, -7.28891566395759582520e-02) (2, 1.98357522487640380859e-01) (3, -2.69679248332977294922e-01) (4, 1.74733087420463562012e-01) (5, -9.28615704178810119629e-02) (6, 3.18796455860137939453e-01) (7, 7.96295776963233947754e-02) (8, -5.97937311977148056030e-03) (9, 2.58400198072195053101e-02) (10, -1.45279198884963989258e-01) (11, 8.10110718011856079102e-02) (12, 1.39700353145599365234e-01) (13, 5.50037482753396034241e-03) (14, -4.44100424647331237793e-02) (15, -2.61323988437652587891e-01) (16, 9.24806222319602966309e-02) (17, -5.90589828789234161377e-03) (18, -1.51484962552785873413e-02) (19, 6.89856261014938354492e-02) (20, -2.81697437167167663574e-02) (21, 6.13740645349025726318e-02) (22, -1.45024359226226806641e-02) (23, 7.05790594220161437988e-02) (24, -5.77276311814785003662e-02) (0, 1.65139522869139909744e-03) (1, -1.65027871727943420410e-01) (2, -2.73358076810836791992e-01) (3, -4.21009987592697143555e-01) (4, 3.88276949524879455566e-02) (5, -3.86560499668121337891e-01) (6, 2.60492652654647827148e-01) (7, -9.62039455771446228027e-02) (8, 3.29809546470642089844e-01) (9, 3.12628373503684997559e-02) (10, -2.58470550179481506348e-02) (11, 6.33494779467582702637e-02) (12, -4.69504203647375106812e-03) (13, -9.91836711764335632324e-02) (14, -1.07209004461765289307e-01) (15, 2.62003898620605468750e-01) (16, 2.70005464553833007812e-01) (17, 2.85220444202423095703e-01) (18, 1.25322833657264709473e-01) (19, -8.13083425164222717285e-02) (20, -1.06507055461406707764e-01) (21, 5.07806241512298583984e-03) (22, 6.31617531180381774902e-02) (23, -7.99209773540496826172e-02) (24, -3.43833938241004943848e-02) (0, -2.88917068392038345337e-02) (1, 1.41460508108139038086e-01) (2, -1.38374865055084228516e-01) (3, 1.85145437717437744141e-01) (4, -1.54914081096649169922e-01) (5, 1.21901117265224456787e-01) (6, -1.93074539303779602051e-01) (7, -6.69358521699905395508e-02) (8, -7.51938074827194213867e-02) (9, 2.80051827430725097656e-02) (10, 1.47749826312065124512e-01) (11, -6.38531446456909179688e-02) (12, -7.35051706433296203613e-02) (13, 8.35856720805168151855e-02) (14, -3.97675596177577972412e-02) (15, 5.70970447733998298645e-03) (16, -7.85892009735107421875e-02) (17, 1.93277932703495025635e-02) (18, 5.44499307870864868164e-02) (19, -6.28843978047370910645e-02) (20, -4.04083617031574249268e-02) (21, -5.93802891671657562256e-02) (22, -9.60994735360145568848e-02) (23, 6.60258904099464416504e-02) (24, -5.82562126219272613525e-02) (0, -4.14091050624847412109e-02) (1, 5.20850382745265960693e-02) (2, -9.98403597623109817505e-03) (3, -9.51104909181594848633e-02) (4, 8.37973579764366149902e-02) (5, -1.11950308084487915039e-01) (6, -8.15615355968475341797e-02) (7, -5.85835501551628112793e-02) (8, 1.38544989749789237976e-02) (9, -2.54945456981658935547e-02) (10, -4.50491905212402343750e-02) (11, -6.76725730299949645996e-02) (12, 4.41478677093982696533e-02) (13, -5.40369339287281036377e-02) (14, 3.25016081333160400391e-02) (15, -4.99605610966682434082e-02) (16, 2.04232223331928253174e-02) (17, -1.48880228400230407715e-01) (18, -5.77032659202814102173e-03) (19, 6.37055635452270507812e-02) (20, -5.50001040101051330566e-02) (21, 2.07722038030624389648e-02) (22, -8.39962810277938842773e-02) (23, -5.69504685699939727783e-02) (24, 3.40865664184093475342e-02) (0, -1.88265934586524963379e-01) (1, -1.56394392251968383789e-01) (2, 2.04284399747848510742e-01) (3, -7.89898261427879333496e-02) (4, 2.49798130244016647339e-02) (5, 3.27461250126361846924e-02) (6, 4.56641495227813720703e-01) (7, 1.88017994165420532227e-01) (8, -1.31677929311990737915e-02) (9, -6.99917227029800415039e-02) (10, -2.14996665716171264648e-01) (11, 7.50859677791595458984e-02) (12, -1.78945083171129226685e-02) (13, 1.97599940001964569092e-02) (14, -1.31878346204757690430e-01) (15, -2.09232196211814880371e-01) (16, 2.22495004534721374512e-01) (17, 2.24672719836235046387e-01) (18, -3.62095944583415985107e-02) (19, -1.76769882440567016602e-01) (20, -1.78179219365119934082e-01) (21, 1.85806900262832641602e-01) (22, 8.07395651936531066895e-02) (23, -5.74102252721786499023e-03) (24, -1.22970126569271087646e-01) (0, 7.62939825654029846191e-02) (1, 8.48702490329742431641e-02) (2, -8.04129764437675476074e-02) (3, 1.71987429261207580566e-01) (4, -2.04423099756240844727e-01) (5, -2.35581137239933013916e-02) (6, -1.93039730191230773926e-01) (7, -9.76248681545257568359e-02) (8, -5.13020530343055725098e-02) (9, 4.86954301595687866211e-02) (10, 6.77393004298210144043e-02) (11, -6.86679631471633911133e-02) (12, -7.29615911841392517090e-02) (13, 1.48336589336395263672e-02) (14, -1.46296666935086250305e-02) (15, -5.07873557507991790771e-02) (16, -3.67360115051269531250e-02) (17, -6.06525391340255737305e-02) (18, 1.59369315952062606812e-02) (19, -7.88041502237319946289e-02) (20, 1.91798418760299682617e-01) (21, -1.48504570126533508301e-01) (22, 9.48728397488594055176e-02) (23, 5.40990307927131652832e-02) (24, -9.65821370482444763184e-03) (0, -2.87829991430044174194e-02) (1, -2.32029318809509277344e-01) (2, 9.13930833339691162109e-02) (3, -1.24222515150904655457e-02) (4, 2.76545405387878417969e-01) (5, 3.81511673331260681152e-02) (6, 3.32698345184326171875e-01) (7, 9.80455875396728515625e-02) (8, 7.68270716071128845215e-02) (9, -6.84457644820213317871e-02) (10, -1.39650404453277587891e-01) (11, -2.53805089741945266724e-02) (12, 4.94433157145977020264e-02) (13, -1.15503035485744476318e-01) (14, -1.28809168934822082520e-01) (15, -3.80252629518508911133e-01) (16, 1.13283313810825347900e-01) (17, 1.03544883430004119873e-01) (18, 1.85649413615465164185e-02) (19, -2.14559733867645263672e-02) (20, 1.69634278863668441772e-02) (21, -1.51443809270858764648e-01) (22, 1.40723437070846557617e-02) (23, -6.42604529857635498047e-02) (24, -1.38828545808792114258e-01) (0, -1.88407674431800842285e-02) (1, -2.49793916940689086914e-01) (2, 1.15655139088630676270e-01) (3, -1.84287101030349731445e-01) (4, 3.57526808977127075195e-01) (5, -1.73922583460807800293e-01) (6, 5.12003540992736816406e-01) (7, -2.60210782289505004883e-02) (8, -2.28554010391235351562e-01) (9, -4.55051921308040618896e-02) (10, -1.45201444625854492188e-01) (11, 2.33357027173042297363e-01) (12, -2.36775521188974380493e-02) (13, -5.77967092394828796387e-02) (14, 2.35872436314821243286e-03) (15, -2.91348248720169067383e-01) (16, 1.92657396197319030762e-01) (17, 1.82060167193412780762e-01) (18, 8.09816569089889526367e-02) (19, 2.15035781264305114746e-01) (20, -4.54232804477214813232e-02) (21, 2.46218785643577575684e-01) (22, -1.14799290895462036133e-02) (23, -1.41762346029281616211e-02) (24, -1.21936634182929992676e-01) (0, 9.97946485877037048340e-02) (1, 1.13992981612682342529e-01) (2, 2.73637250065803527832e-02) (3, -1.31343305110931396484e-01) (4, -5.72298988699913024902e-02) (5, -2.04313844442367553711e-01) (6, -2.47755035758018493652e-01) (7, -6.80555179715156555176e-02) (8, -4.28153667598962783813e-03) (9, 9.90893468260765075684e-02) (10, -4.96184490621089935303e-02) (11, -2.14290414005517959595e-02) (12, -5.90985193848609924316e-02) (13, 1.30918594077229499817e-02) (14, 7.35350847244262695312e-02) (15, -2.70597916096448898315e-02) (16, -2.17610731720924377441e-01) (17, -2.74090230464935302734e-01) (18, 2.26335152983665466309e-02) (19, 2.13540241122245788574e-01) (20, 2.28887587785720825195e-01) (21, -1.98118224740028381348e-01) (22, 1.20804160833358764648e-02) (23, 5.44640347361564636230e-02) (24, -7.38615840673446655273e-02) (0, -4.03558127582073211670e-02) (1, 1.88609406352043151855e-01) (2, -2.03862980008125305176e-01) (3, 3.21315348148345947266e-01) (4, -3.72361540794372558594e-01) (5, 1.04899108409881591797e-01) (6, -3.42472106218338012695e-01) (7, -3.36760245263576507568e-02) (8, -8.01912844181060791016e-02) (9, 1.57032571732997894287e-02) (10, 2.57348090410232543945e-01) (11, -4.74514439702033996582e-02) (12, -1.21508203446865081787e-01) (13, -2.88572385907173156738e-02) (14, -5.34920059144496917725e-02) (15, 5.99052198231220245361e-02) (16, -7.68952146172523498535e-02) (17, -1.90804302692413330078e-01) (18, -1.49919733405113220215e-01) (19, -1.33653089404106140137e-01) (20, -5.63112534582614898682e-02) (21, -3.78478765487670898438e-02) (22, 1.04182362556457519531e-02) (23, -5.15537708997726440430e-02) (24, 4.72723916172981262207e-02) (0, -1.35111793875694274902e-01) (1, -1.21046014130115509033e-01) (2, -6.47659078240394592285e-02) (3, 1.27142388373613357544e-02) (4, 9.69824194908142089844e-02) (5, -2.51158494502305984497e-02) (6, -1.12053655087947845459e-01) (7, 1.28463106229901313782e-02) (8, -5.46377710998058319092e-02) (9, -7.03025683760643005371e-02) (10, 5.67594543099403381348e-02) (11, -4.86863888800144195557e-02) (12, 2.15055309236049652100e-02) (13, -6.59469813108444213867e-02) (14, 4.21328991651535034180e-02) (15, -3.45898501109331846237e-04) (16, 1.19971491396427154541e-01) (17, 1.86886452138423919678e-02) (18, -9.85874235630035400391e-03) (19, -6.34531676769256591797e-02) (20, -4.82027009129524230957e-02) (21, -1.04165792465209960938e-01) (22, 7.04440549015998840332e-02) (23, 8.10751840472221374512e-02) (24, -4.47972230613231658936e-02) (0, -3.99722009897232055664e-02) (1, 6.74991682171821594238e-02) (2, -2.79943138360977172852e-01) (3, 2.65032231807708740234e-01) (4, -3.31594556570053100586e-01) (5, 1.85664355754852294922e-01) (6, -2.65041261911392211914e-01) (7, -3.97399589419364929199e-02) (8, -1.46992325782775878906e-01) (9, 6.35426305234432220459e-03) (10, 2.23135322332382202148e-01) (11, -6.50502368807792663574e-02) (12, -4.74074622616171836853e-04) (13, -6.99951127171516418457e-02) (14, -8.26038569211959838867e-02) (15, 1.96436598896980285645e-01) (16, -3.89598421752452850342e-02) (17, -1.02835230529308319092e-01) (18, -4.85275313258171081543e-02) (19, -1.99733272194862365723e-01) (20, -1.46204441785812377930e-01) (21, 3.88137251138687133789e-02) (22, 9.14790406823158264160e-02) (23, 3.20268645882606506348e-02) (24, 6.66205659508705139160e-02) (0, -1.36728867888450622559e-01) (1, -9.09075587987899780273e-02) (2, -1.28230109810829162598e-01) (3, 5.74757456779479980469e-02) (4, -2.40800734609365463257e-02) (5, -9.93697270750999450684e-02) (6, -1.54441192746162414551e-01) (7, -5.62566779553890228271e-02) (8, -5.73955141007900238037e-02) (9, 3.52716036140918731689e-02) (10, 5.82576282322406768799e-02) (11, -7.90422335267066955566e-02) (12, 5.39441825821995735168e-03) (13, -4.09839265048503875732e-02) (14, -6.58672600984573364258e-02) (15, 1.58757083117961883545e-02) (16, 6.62213116884231567383e-02) (17, 8.61233770847320556641e-02) (18, 9.05452594161033630371e-02) (19, 5.45140653848648071289e-02) (20, -1.49985745549201965332e-01) (21, 2.42921896278858184814e-02) (22, 2.21954211592674255371e-02) (23, 3.54195758700370788574e-02) (24, -3.49914357066154479980e-02) (0, -6.84498921036720275879e-02) (1, -1.15614727139472961426e-01) (2, 1.83682441711425781250e-01) (3, 3.22290807962417602539e-02) (4, 8.26213285326957702637e-02) (5, 1.66482388973236083984e-01) (6, 1.85888543725013732910e-01) (7, -1.59062430262565612793e-01) (8, 2.07730650901794433594e-01) (9, -4.38719941303133964539e-03) (10, -8.96657109260559082031e-02) (11, 4.13198210299015045166e-03) (12, 7.82082527875900268555e-02) (13, 6.02767840027809143066e-02) (14, -1.08144767582416534424e-01) (15, -5.30331321060657501221e-02) (16, 7.49019086360931396484e-02) (17, 5.60331484302878379822e-03) (18, 8.27859267592430114746e-02) (19, 1.69065520167350769043e-01) (20, -1.23775951564311981201e-01) (21, -1.81737005710601806641e-01) (22, 3.22271510958671569824e-02) (23, -4.42222021520137786865e-02) (24, 3.37094925343990325928e-02) (0, 1.02574698626995086670e-01) (1, 1.20424218475818634033e-01) (2, -5.64525984227657318115e-02) (3, -5.42728044092655181885e-02) (4, -1.98628425598144531250e-01) (5, -1.84560790657997131348e-01) (6, -2.48527899384498596191e-01) (7, -3.75287681818008422852e-01) (8, -3.25879193842411041260e-02) (9, 1.01177111268043518066e-01) (10, 1.62704378366470336914e-01) (11, -2.29098886251449584961e-01) (12, -1.19843430817127227783e-01) (13, 4.01190333068370819092e-02) (14, 2.08221212029457092285e-01) (15, 1.02659545838832855225e-01) (16, -3.63064289093017578125e-01) (17, -3.58021914958953857422e-01) (18, -9.36738327145576477051e-02) (19, 1.34228214621543884277e-01) (20, 9.99544709920883178711e-02) (21, 5.76003193855285644531e-02) (22, 7.95344263315200805664e-03) (23, 2.78294309973716735840e-02) (24, 1.13049000501632690430e-01) (0, -6.47838339209556579590e-02) (1, -1.91705301403999328613e-01) (2, 6.69816285371780395508e-02) (3, -1.53192371129989624023e-01) (4, 3.43605168163776397705e-02) (5, 3.26931588351726531982e-02) (6, 1.04075752198696136475e-01) (7, 5.77171072363853454590e-02) (8, 8.58129337430000305176e-02) (9, -5.85903553292155265808e-03) (10, 3.96060012280941009521e-02) (11, 1.03228710591793060303e-01) (12, -3.78640517592430114746e-02) (13, 7.74335339665412902832e-02) (14, 6.73027932643890380859e-02) (15, -3.58672514557838439941e-02) (16, 5.86607605218887329102e-02) (17, -3.96833494305610656738e-02) (18, 3.02148181945085525513e-02) (19, -6.41116276383399963379e-02) (20, 2.27243732661008834839e-02) (21, -1.22566670179367065430e-01) (22, -6.28135502338409423828e-02) (23, -9.12055820226669311523e-02) (24, 7.03020859509706497192e-03) (0, -1.58532977104187011719e-01) (1, -8.22169855237007141113e-02) (2, 1.76272243261337280273e-02) (3, -3.18366549909114837646e-02) (4, -8.67538452148437500000e-02) (5, -6.52521476149559020996e-03) (6, -1.70790940523147583008e-01) (7, -9.83814969658851623535e-02) (8, -1.31893400102853775024e-02) (9, -5.11015355587005615234e-02) (10, 2.41457298398017883301e-03) (11, 3.86117883026599884033e-02) (12, 7.13454112410545349121e-02) (13, -3.50788794457912445068e-02) (14, -3.17848362028598785400e-02) (15, 1.34689256548881530762e-01) (16, -1.43282217904925346375e-02) (17, -2.86934897303581237793e-02) (18, 6.43561556935310363770e-02) (19, -6.53511434793472290039e-02) (20, -1.99368447065353393555e-01) (21, -6.07946738600730895996e-02) (22, 3.10120210051536560059e-02) (23, -6.77488744258880615234e-02) (24, 7.80978724360466003418e-02) (0, -1.21036488562822341919e-02) (1, -1.30353406071662902832e-01) (2, -1.05566740036010742188e-01) (3, 5.40256574749946594238e-02) (4, -4.66430597007274627686e-02) (5, 4.05389368534088134766e-02) (6, -1.49634525179862976074e-01) (7, -1.48615958169102668762e-02) (8, -1.43599472939968109131e-02) (9, 2.87077780812978744507e-02) (10, 9.41092055290937423706e-03) (11, -1.00772557780146598816e-02) (12, 5.79550936818122863770e-02) (13, 3.71972694993019104004e-02) (14, -8.23718905448913574219e-02) (15, 2.16444563120603561401e-02) (16, -1.86592582613229751587e-02) (17, 8.23915675282478332520e-02) (18, 1.02828152477741241455e-01) (19, 1.52435926720499992371e-02) (20, -1.92753836512565612793e-01) (21, -7.15448036789894104004e-02) (22, 5.60507252812385559082e-02) (23, -6.06773607432842254639e-02) (24, 1.12194642424583435059e-01) (0, 3.61887626349925994873e-02) (1, -2.06383660435676574707e-01) (2, 1.07717327773571014404e-01) (3, -1.43428891897201538086e-01) (4, 2.07755550742149353027e-01) (5, -9.50066298246383666992e-02) (6, 4.70591574907302856445e-01) (7, 8.55312496423721313477e-02) (8, -1.37507602572441101074e-01) (9, -1.02920874953269958496e-01) (10, -9.23283025622367858887e-02) (11, 2.40252036601305007935e-02) (12, 3.44395600259304046631e-02) (13, -3.78546789288520812988e-02) (14, -2.84270066767930984497e-02) (15, -2.51732826232910156250e-01) (16, 2.57204204797744750977e-01) (17, 8.77172052860260009766e-02) (18, 1.44458457827568054199e-01) (19, 6.12819269299507141113e-02) (20, -1.44223436713218688965e-01) (21, 1.44577786326408386230e-01) (22, 7.70870521664619445801e-02) (23, 8.90807285904884338379e-02) (24, -2.69608423113822937012e-02) (0, -1.06644205749034881592e-01) (1, 2.27149724960327148438e-02) (2, -8.66932123899459838867e-02) (3, -7.56344795227050781250e-02) (4, -5.43234348297119140625e-02) (5, -8.74433070421218872070e-02) (6, -1.58049851655960083008e-01) (7, -3.25452089309692382812e-02) (8, -7.37513974308967590332e-02) (9, 3.90059761703014373779e-02) (10, -1.04859143495559692383e-01) (11, -6.29703560844063758850e-03) (12, -7.76651799678802490234e-02) (13, 3.02247256040573120117e-02) (14, 1.34788518771529197693e-02) (15, 1.23147934675216674805e-01) (16, 3.68869677186012268066e-02) (17, 6.02759346365928649902e-02) (18, 1.10612407326698303223e-01) (19, 8.03498849272727966309e-02) (20, -1.32324501872062683105e-01) (21, -1.18765115737915039062e-01) (22, 7.48586580157279968262e-02) (23, -3.41580808162689208984e-03) (24, 8.03241208195686340332e-02) (0, -3.49268794059753417969e-01) (1, -1.75453290343284606934e-01) (2, 2.01737582683563232422e-01) (3, -1.59438356757164001465e-01) (4, 1.52046084403991699219e-01) (5, 4.25964035093784332275e-02) (6, 5.58627724647521972656e-01) (7, 3.36725831031799316406e-01) (8, 1.09891355037689208984e-01) (9, -2.98335582017898559570e-01) (10, 3.27703058719635009766e-02) (11, 