tree
version=v4
num_class=1
num_tree_per_iteration=1
label_index=0
max_feature_idx=41
objective=binary sigmoid:1
feature_names=cost_per_row duck_execution_time filter_selectivity is_mixed is_olap is_oltp join_complexity num_aggregates num_between num_case num_distinct num_filters num_group_by num_hashjoin num_having num_in num_indexscan num_join num_joins_plan num_like num_limits num_mergejoin num_nestloop num_order_by num_select num_seqscan num_sorts num_subquery num_tables num_union num_where num_with performance_ratio pg_execution_time plan_depth plan_rows plan_width query_length scan_ratio startup_cost time_difference total_cost
feature_infos=[0:100] [0.0002155303955078125:2.6665413379669189] none [0:1] [0:1] [0:1] none none none none [0:1] none [0:1] none [0:1] [0:1] none [0:2] none none none none none [0:2] [0:3] [0:1] none [0:2] [0:1] none [0:3] none [0.0098628243431448936:551.085205078125] [1.8999999156221747e-05:14.39605712890625] [0:1] [0:1] [0:10] [40:569] none none [2.5272369384765625e-05:14.242904663085938] [0:100]
tree_sizes=353 658 659 661 660 660 652 759 758 667 860 865 864 865 861 667 666 667 664 668 669 666 666 764 665 666 466 465 464 464 664 465 464 464 465 465 465 464 466 466 465 466 465 465 465 463 465 464 464 464 465 464 464 465 466 469 469 466 561 465 465 465 465 466 463 465 464 464 467 465 465 466 466 465 466 462 465 468 463 466 466 464 465 467 470 465 465 470 466 467 467 467 362 465 465 466 468 467 468 466 466 467 469 472 469 467 468 468 468 468 468 467 470 469 469 469 468 469 466 468 467 469 473 469 470 471 470 471 470 466 471 471 471 470 470 364 470 471 467 470 469 470 469 470 470 468 469 470 464 470 470 471 469 469 467 467 470 470 449 450 471 471 474 470 469 469 470 471 471 472 473 473 474 473 367 474 472 475 475 473 472 477 482 477 476 478 467 475 478 477 469 471 471 469 469 475 475 477 477 477

Tree=0
num_leaves=2
num_cat=0
split_feature=37
split_gain=134129
threshold=376.50000000000006
decision_type=2
left_child=-1
right_child=-2
leaf_value=-4.187633309359807 -0.9946725912268235
leaf_weight=62.339057573117316 69.512558150105178
leaf_count=4029 118
internal_value=-2.50323
internal_weight=131.852
internal_count=4147
is_linear=0
shrinkage=1


Tree=1
num_leaves=5
num_cat=0
split_feature=37 1 32 33
split_gain=1210.43 2.71824 14.0478 40.5455
threshold=376.50000000000006 0.42454087734222418 358.33966064453131 0.0059965848922729501
decision_type=2 2 2 2
left_child=-1 -2 3 -3
right_child=1 2 -4 -5
leaf_value=-0.050589633685728157 0.18515140981789993 0.18481141326195349 0.18507990029829546 0.11547593452914129
leaf_weight=59.353079617023468 580.02819156646729 61.705126762390137 209.79743099212646 33.945537731051445
leaf_count=4029 47 5 17 49
internal_value=0.16786 0.182512 0.177424 0.160403
internal_weight=944.829 885.476 305.448 95.6507
internal_count=4147 118 71 54
is_linear=0
shrinkage=0.05


Tree=2
num_leaves=5
num_cat=0
split_feature=37 1 33 33
split_gain=948.914 1.73317 9.92446 29.8515
threshold=376.50000000000006 0.42454087734222418 0.0016600000089965763 0.0059965848922729501
decision_type=2 2 2 2
left_child=-1 -2 -3 -4
right_child=1 2 3 -5
leaf_value=-0.050543731290608067 0.16230775152787516 0.16225606687718919 0.16206194315649888 0.10419350171314173
leaf_weight=56.50846576038748 627.22514247894287 226.86244297027588 66.717367172241211 35.701919421553612
leaf_count=4029 47 17 5 49
internal_value=0.148407 0.16017 0.156034 0.14206
internal_weight=1013.02 956.507 329.282 102.419
internal_count=4147 118 71 54
is_linear=0
shrinkage=0.05


Tree=3
num_leaves=5
num_cat=0
split_feature=37 10 1 1
split_gain=771.405 1.87012 15.0388 29.5122
threshold=376.50000000000006 1.0000000180025095e-35 0.32887625694274908 0.35972523689270025
decision_type=2 2 2 2
left_child=-1 2 -2 -4
right_child=1 -3 3 -5
leaf_value=-0.050499288039388759 0.14545285591667878 0.14609760245563458 0.14516503284381385 0.087385066691983093
leaf_weight=53.798720774240792 338.93646240234375 577.78923511505127 56.489410400390625 38.393040508031845
leaf_count=4029 24 41 4 49
internal_value=0.133841 0.143654 0.140354 0.121954
internal_weight=1065.41 1011.61 433.819 94.8825
internal_count=4147 118 77 53
is_linear=0
shrinkage=0.05


Tree=4
num_leaves=5
num_cat=0
split_feature=37 1 32 33
split_gain=643.784 1.52549 7.33526 22.3199
threshold=376.50000000000006 0.42454087734222418 358.33966064453131 0.0059965848922729501
decision_type=2 2 2 2
left_child=-1 -2 3 -3
right_child=1 2 -4 -5
leaf_value=-0.050456169227009441 0.13274471380717773 0.13232854359170662 0.13246530273316043 0.084497973572536536
leaf_weight=51.217642108909786 690.88475131988525 73.542442321777344 250.07272434234619 38.868389457464218
leaf_count=4029 47 5 17 49
internal_value=0.122498 0.130917 0.127383 0.115924
internal_weight=1104.59 1053.37 362.484 112.411
internal_count=4147 118 71 54
is_linear=0
shrinkage=0.05


Tree=5
num_leaves=5
num_cat=0
split_feature=5 1 32 32
split_gain=538.834 5.42254 8.64219 12.1722
threshold=1.0000000180025095e-35 0.46717166900634771 358.33966064453131 175.98426818847659
decision_type=2 2 2 2
left_child=1 -1 3 -3
right_child=-2 2 -4 -5
leaf_value=0.12242276325171042 -0.050410688441246854 0.078334020044818264 0.12210846882011567 0.12177377264886356
leaf_weight=908.4453303348273 47.924238815903664 39.280518740415573 90.799495697021484 30.263187408447266
leaf_count=189 3960 44 6 2
internal_value=0.113446 0.120802 0.111515 0.0974571
internal_weight=1116.71 1068.79 160.343 69.5437
internal_count=4201 241 52 46
is_linear=0
shrinkage=0.05


Tree=6
num_leaves=5
num_cat=0
split_feature=37 0 1 1
split_gain=484.572 1.02363 3.93021 8.63095
threshold=376.50000000000006 1.0000000180025095e-35 0.31820762157440191 0.3506686687469483
decision_type=2 2 2 2
left_child=-1 2 -2 -4
right_child=1 -3 3 -5
leaf_value=-0.05038199100049337 0.11393229165232738 0.11470981849745165 0.11381198001364817 0.089559744892191304
leaf_weight=47.38203751668334 323.77880573272705 600.20263004302979 92.50714111328125 71.114275872707367
leaf_count=4089 21 39 6 46
internal_value=0.10598 0.112801 0.110416 0.103363
internal_weight=1134.98 1087.6 487.4 163.621
internal_count=4201 112 73 52
is_linear=0
shrinkage=0.05


Tree=7
num_leaves=6
num_cat=0
split_feature=37 1 33 32 32
split_gain=424.171 0.922032 4.29463 8.35074 30.8711
threshold=376.50000000000006 0.42454087734222418 0.00235962902661413 116.01936721801759 72.870956420898452
decision_type=2 2 2 2 2
left_child=-1 -2 -3 4 -4
right_child=1 2 3 -5 -6
leaf_value=-0.050342212057237073 0.10739509198175773 0.10698403548820733 0.038332120722061123 0.10747633350740193 0.11343638982158839
leaf_weight=45.105984656140208 716.56719303131104 264.95932865142822 25.307910799980164 62.287361145019531 30.765626907348633
leaf_count=4089 46 17 43 4 2
internal_value=0.0997676 0.105932 0.103157 0.0944648 0.0797568
internal_weight=1144.99 1099.89 383.32 118.361 56.0735
internal_count=4201 112 66 49 45
is_linear=0
shrinkage=0.05


Tree=8
num_leaves=6
num_cat=0
split_feature=37 0 33 1 33
split_gain=375.13 0.940381 4.7977 10.874 13.8743
threshold=376.50000000000006 1.0000000180025095e-35 13.304129123687746 0.30179703235626226 13.202878475189211
decision_type=2 2 2 2 2
left_child=-1 2 3 -2 -5
right_child=1 -3 -4 4 -6
leaf_value=-0.050303353546291868 0.10114142427858611 0.10193007841138564 0.10195658088539319 0.055927320603373631 0.10080806394583482
leaf_weight=42.938528965227306 109.5578145980835 609.89015769958496 312.88646125793457 41.399348229169846 31.302151679992676
leaf_count=4089 7 39 20 44 2
internal_value=0.094519 0.100155 0.0979383 0.0909604 0.0754317
internal_weight=1147.97 1105.04 495.146 182.259 72.7015
internal_count=4201 112 73 53 46
is_linear=0
shrinkage=0.05


Tree=9
num_leaves=5
num_cat=0
split_feature=37 0 33 33
split_gain=334.489 0.839287 4.32142 6.81098
threshold=376.50000000000006 1.0000000180025095e-35 13.304129123687746 13.202878475189211
decision_type=2 2 2 2
left_child=-1 2 3 -2
right_child=1 -3 -4 -5
leaf_value=-0.050265306400634195 0.075971781063287253 0.096902850420400949 0.096919364178030321 0.096198992670436759
leaf_weight=40.874604748561978 88.393829584121704 609.45688533782959 312.69393539428711 93.787271499633789
leaf_count=4089 47 39 20 6
internal_value=0.0900099 0.0952105 0.093097 0.0864593
internal_weight=1145.21 1104.33 494.875 182.181
internal_count=4201 112 73 53
is_linear=0
shrinkage=0.05


Tree=10
num_leaves=7
num_cat=0
split_feature=37 1 1 32 32 32
split_gain=299.949 2.165 7.69251 15.4231 31.7804 85.7524
threshold=376.50000000000006 0.42454087734222418 0.46717166900634771 386.97634887695318 175.98426818847659 119.17513275146486
decision_type=2 2 2 2 2 2
left_child=-1 -2 -3 4 5 -4
right_child=1 2 3 -5 -6 -7
leaf_value=-0.050229025554421949 0.092428785522436982 0.092711442032212613 -0.087146841450727902 0.091838068211767682 0.091583580518189128 0.092988337813670663
leaf_weight=39.070197958499193 715.14046859741211 233.12417984008789 11.30045011639595 77.679572105407715 31.073017120361328 15.58768367767334
leaf_count=4106 46 15 46 5 2 1
internal_value=0.0856908 0.0905989 0.0870125 0.07712 0.0571844 0.0170541
internal_weight=1122.98 1083.91 368.765 135.641 57.9612 26.8881
internal_count=4221 115 69 54 49 47
is_linear=0
shrinkage=0.05


Tree=11
num_leaves=7
num_cat=0
split_feature=37 1 1 32 32 32
split_gain=271.105 1.94953 6.93239 14.044 28.9845 78.2839
threshold=376.50000000000006 0.42454087734222418 0.46717166900634771 386.97634887695318 175.98426818847659 119.17513275146486
decision_type=2 2 2 2 2 2
left_child=-1 -2 -3 4 5 -4
right_child=1 2 3 -5 -6 -7
leaf_value=-0.050192378244467477 0.088682560284751966 0.088932792815811831 -0.083957681334670908 0.088153825423760351 0.087911883949549408 0.089107256322230544
leaf_weight=37.191248773597181 708.25359725952148 230.93499660491943 11.150729268789291 76.902804374694824 30.763946533203125 15.460660934448242
leaf_count=4106 46 15 46 5 2 1
internal_value=0.0823283 0.0869285 0.0834899 0.0740327 0.0548982 0.0163594
internal_weight=1110.66 1073.47 365.213 134.278 57.3753 26.6114
internal_count=4221 115 69 54 49 47
is_linear=0
shrinkage=0.05


Tree=12
num_leaves=7
num_cat=0
split_feature=37 1 1 32 32 32
split_gain=246.303 1.76132 6.27687 12.8369 26.5328 71.7214
threshold=376.50000000000006 0.42454087734222418 0.46717166900634771 386.97634887695318 175.98426818847659 119.17513275146486
decision_type=2 2 2 2 2 2
left_child=-1 -2 -3 4 5 -4
right_child=1 2 3 -5 -6 -7
leaf_value=-0.050156261745034007 0.085399277618212421 0.085622068128208481 -0.081132305038584249 0.08492105738866132 0.084688085338166075 0.085708084223463682
leaf_weight=35.402315673418343 698.94352436065674 227.94900798797607 10.970099955797195 75.868277549743652 30.352291107177734 15.278585433959961
leaf_count=4106 46 15 46 5 2 1
internal_value=0.0793736 0.0837114 0.0804015 0.0713226 0.0528893 0.0157475
internal_weight=1094.76 1059.36 360.418 132.469 56.601 26.2487
internal_count=4221 115 69 54 49 47
is_linear=0
shrinkage=0.05


Tree=13
num_leaves=7
num_cat=0
split_feature=37 1 1 32 32 32
split_gain=224.767 1.59563 5.70636 11.7727 24.3677 65.9153
threshold=376.50000000000006 0.42454087734222418 0.46717166900634771 386.97634887695318 175.98426818847659 119.17513275146486
decision_type=2 2 2 2 2 2
left_child=-1 -2 -3 4 5 -4
right_child=1 2 3 -5 -6 -7
leaf_value=-0.050120588453742204 0.082501017950890682 0.082700271600329278 -0.078613565413663766 0.082064325526378101 0.08183749489686204 0.082708606758049946
leaf_weight=33.699163814075291 687.60964488983154 224.29718780517578 10.763892948627472 74.618630409240723 29.854991912841797 15.050360679626465
leaf_count=4106 46 15 46 5 2 1
internal_value=0.0767594 0.0808712 0.0776743 0.0689266 0.0511116 0.0152046
internal_weight=1075.89 1042.19 354.585 130.288 55.6692 25.8143
internal_count=4221 115 69 54 49 47
is_linear=0
shrinkage=0.05


Tree=14
num_leaves=7
num_cat=0
split_feature=37 1 1 32 32 32
split_gain=205.909 1.44877 5.20589 10.8283 22.4436 60.7473
threshold=376.50000000000006 0.42454087734222418 0.46717166900634771 386.97634887695318 175.98426818847659 119.17513275146486
decision_type=2 2 2 2 2 2
left_child=-1 -2 -3 4 5 -4
right_child=1 2 3 -5 -6 -7
leaf_value=-0.050085258762844059 0.079926469182221016 0.080105293232982988 -0.076355628585939306 0.07952413465865299 0.079301154309589006 0.08004430077005803
leaf_weight=32.07774854125455 674.60116100311279 220.09402084350586 10.53677824139595 73.191146850585938 29.286870956420898 14.783777236938477
leaf_count=4106 46 15 46 5 2 1
internal_value=0.0744322 0.078348 0.0752508 0.0667952 0.0495289 0.0147197
internal_weight=1054.57 1022.49 347.893 127.799 54.6074 25.3206
internal_count=4221 115 69 54 49 47
is_linear=0
shrinkage=0.05


Tree=15
num_leaves=5
num_cat=0
split_feature=37 0 1 1
split_gain=191.113 2.07529 6.67623 13.2069
threshold=376.50000000000006 1.0000000180025095e-35 0.32887625694274908 0.36931324005126959
decision_type=2 2 2 2
left_child=-1 2 -2 -4
right_child=1 -3 3 -5
leaf_value=-0.050050265497086958 0.077595279240374695 0.078842420432226168 0.077198304286800495 0.039118750172665862
leaf_weight=30.536948012653738 272.70671367645264 588.40531635284424 57.288464546203613 39.574741929769516
leaf_count=4106 19 41 4 48
internal_value=0.0728563 0.0767842 0.0734732 0.0617484
internal_weight=988.512 957.975 369.57 96.8632
internal_count=4218 112 71 52
is_linear=0
shrinkage=0.05


Tree=16
num_leaves=5
num_cat=0
split_feature=37 0 1 1
split_gain=175.95 2.00211 6.61369 12.8795
threshold=376.50000000000006 1.0000000180025095e-35 0.32887625694274908 0.36931324005126959
decision_type=2 2 2 2
left_child=-1 2 -2 -4
right_child=1 -3 3 -5
leaf_value=-0.050015372656388724 0.075531546287804396 0.076702588969924226 0.075159425600237251 0.03733426043855282
leaf_weight=29.067469802685082 266.31433773040771 574.92318344116211 55.937314987182617 39.402203559875488
leaf_count=4106 19 41 4 48
internal_value=0.0708947 0.0746575 0.0713723 0.0596348
internal_weight=965.645 936.577 361.654 95.3395
internal_count=4218 112 71 52
is_linear=0
shrinkage=0.05


Tree=17
num_leaves=5
num_cat=0
split_feature=37 0 1 1
split_gain=162.413 1.95036 6.59279 12.6153
threshold=376.50000000000006 1.0000000180025095e-35 0.32887625694274908 0.36931324005126959
decision_type=2 2 2 2
left_child=-1 2 -2 -4
right_child=1 -3 3 -5
leaf_value=-0.049980567504349607 0.073670558118536178 0.074774329274107973 0.073319105909593049 0.035644502480375484
leaf_weight=27.668673315085471 259.56308174133301 560.62621784210205 54.512868881225586 39.216115951538086
leaf_count=4106 19 41 4 48
internal_value=0.0691155 0.0727316 0.0694557 0.0576642
internal_weight=941.587 913.918 353.292 93.729
internal_count=4218 112 71 52
is_linear=0
shrinkage=0.05


Tree=18
num_leaves=5
num_cat=0
split_feature=37 0 33 32
split_gain=150.265 1.91616 4.58474 7.8788
threshold=376.50000000000006 1.0000000180025095e-35 13.304129123687746 0.023530752398073677
decision_type=2 2 2 2
left_child=-1 2 3 -2
right_child=1 -3 -4 -5
leaf_value=-0.049945763257745121 0.072146425291975 0.073029467958173763 0.072393069116049633 0.047027621218661032
leaf_weight=26.337206444237381 66.79461669921875 545.70052146911621 213.7865514755249 64.007401436567307
leaf_count=4106 5 41 16 50
internal_value=0.0674945 0.0709796 0.0676986 0.0599382
internal_weight=916.626 890.289 344.589 130.802
internal_count=4218 112 71 55
is_linear=0
shrinkage=0.05


Tree=19
num_leaves=5
num_cat=0
split_feature=37 0 1 1
split_gain=139.279 1.92877 6.84137 13.3522
threshold=376.50000000000006 1.0000000180025095e-35 0.32887625694274908 0.36931324005126959
decision_type=2 2 2 2
left_child=-1 2 -2 -4
right_child=1 -3 3 -5
leaf_value=-0.049910873763126799 0.070478764919587739 0.071444611514197218 0.070514059860518952 0.031218961672157926
leaf_weight=25.069869169965386 245.40426921844482 530.30792427062988 51.904776573181152 38.496990472078323
leaf_count=4106 19 41 4 48
internal_value=0.0659985 0.0693647 0.0660448 0.0538887
internal_weight=891.184 866.114 335.806 90.4018
internal_count=4218 112 71 52
is_linear=0
shrinkage=0.05


Tree=20
num_leaves=5
num_cat=0
split_feature=37 0 33 32
split_gain=131.634 1.05336 2.33899 4.31539
threshold=376.50000000000006 1.0000000180025095e-35 13.304129123687746 0.023530752398073677
decision_type=2 2 2 2
left_child=-1 2 3 -2
right_child=1 -3 -4 -5
leaf_value=-0.049881264176588024 0.069199380751558251 0.070151983030022985 0.069691646742075772 0.051365835404660366
leaf_weight=24.178825930692255 75.569369316101074 452.26993846893311 189.97857284545898 72.214695855975151
leaf_count=4160 6 36 15 42
internal_value=0.0647556 0.0682763 0.0657299 0.0605595
internal_weight=814.211 790.033 337.763 147.784
internal_count=4259 99 63 48
is_linear=0
shrinkage=0.05


Tree=21
num_leaves=5
num_cat=0
split_feature=37 0 1 1
split_gain=122.436 1.0844 2.53672 4.34542
threshold=376.50000000000006 1.0000000180025095e-35 0.32081353664398199 0.34044134616851812
decision_type=2 2 2 2
left_child=-1 2 -2 -4
right_child=1 -3 3 -5
leaf_value=-0.049846216414219519 0.067907957392691662 0.068822521482300253 0.067796058270180579 0.048106533032248877
leaf_weight=23.015447746030986 206.88660621643066 438.31209945678711 60.901422500610352 60.451314464211464
leaf_count=4160 17 36 5 41
internal_value=0.0634888 0.0669042 0.0643073 0.0580767
internal_weight=789.567 766.551 328.239 121.353
internal_count=4259 99 63 46
is_linear=0
shrinkage=0.05


Tree=22
num_leaves=5
num_cat=0
split_feature=37 0 1 1
split_gain=114.057 1.11452 2.6564 4.46263
threshold=376.50000000000006 1.0000000180025095e-35 0.32081353664398199 0.34044134616851812
decision_type=2 2 2 2
left_child=-1 2 -2 -4
right_child=1 -3 3 -5
leaf_value=-0.049810838601733784 0.066727597013387679 0.067603654147648864 0.066612648430849991 0.046462101620732554
leaf_weight=21.908202107995749 200.19050121307373 424.26203536987305 58.935815811157227 59.489599868655205
leaf_count=4160 17 36 5 41
internal_value=0.0623207 0.0656406 0.0629906 0.0565802
internal_weight=764.786 742.878 318.616 118.425
internal_count=4259 99 63 46
is_linear=0
shrinkage=0.05


Tree=23
num_leaves=6
num_cat=0
split_feature=37 0 33 33 1
split_gain=106.395 1.14992 2.79102 5.22654 10.937
threshold=376.50000000000006 1.0000000180025095e-35 13.304129123687746 13.202878475189211 0.30179703235626226
decision_type=2 2 2 2 2
left_child=-1 2 3 4 -2
right_child=1 -3 -4 -5 -6
leaf_value=-0.049775043663684355 0.065430818449519923 0.06648325578204585 0.066223102648382007 0.065870634384096488 0.024542352736343989
leaf_weight=20.854409020394087 34.238333702087402 410.19950103759766 173.1016845703125 69.047613143920898 32.605584368109703
leaf_count=4160 3 36 15 6 39
internal_value=0.0612368 0.0644692 0.0617587 0.0559907 0.0456271
internal_weight=740.047 719.193 308.993 135.892 66.8439
internal_count=4259 99 63 48 42
is_linear=0
shrinkage=0.05


Tree=24
num_leaves=5
num_cat=0
split_feature=37 0 1 1
split_gain=99.382 1.1774 3.60254 7.23016
threshold=376.50000000000006 1.0000000180025095e-35 0.32406902313232427 0.35972523689270025
decision_type=2 2 2 2
left_child=-1 2 -2 -4
right_child=1 -3 3 -5
leaf_value=-0.049738744630614701 0.064709139426379167 0.065450894317757177 0.064782501360995018 0.037361092649651581
leaf_weight=19.851514838635921 198.16984367370605 396.19278907775879 55.518125534057617 45.650880709290504
leaf_count=4160 18 36 5 40
internal_value=0.0602357 0.0633884 0.0606209 0.0525075
internal_weight=715.383 695.532 299.339 101.169
internal_count=4259 99 63 45
is_linear=0
shrinkage=0.05


Tree=25
num_leaves=5
num_cat=0
split_feature=37 0 1 1
split_gain=91.5043 1.76068 7.53895 17.2093
threshold=376.50000000000006 1.0000000180025095e-35 0.32081353664398199 0.35972523689270025
decision_type=2 2 2 2
left_child=-1 2 -2 -4
right_child=1 -3 3 -5
leaf_value=-0.049694827064346227 0.063739392604581821 0.064358534123124631 0.063886852568857705 0.018322859133342098
leaf_weight=18.647045502904803 233.17530822753906 434.3556547164917 53.675728797912598 34.483934164047241
leaf_count=4105 22 41 5 46
internal_value=0.0593687 0.0620727 0.0589484 0.046162
internal_weight=774.338 755.691 321.335 88.1597
internal_count=4219 114 73 51
is_linear=0
shrinkage=0.05


Tree=26
num_leaves=3
num_cat=0
split_feature=23 37
split_gain=94.5374 89.1538
threshold=1.5000000000000002 376.50000000000006
decision_type=2 2
left_child=1 -1
right_child=-2 -3
leaf_value=-0.049656918747626219 -0.087448786866900885 0.063401887351855715
leaf_weight=17.750894940458238 10.822144806385039 718.67971706390381
leaf_count=4105 44 70
internal_value=0.0585004 0.0606636
internal_weight=747.253 736.431
internal_count=4219 4175
is_linear=0
shrinkage=0.05


Tree=27
num_leaves=3
num_cat=0
split_feature=23 37
split_gain=88.3432 83.6524
threshold=1.5000000000000002 376.50000000000006
decision_type=2 2
left_child=1 -1
right_child=-2 -3
leaf_value=-0.049618239950929462 -0.084220305821583519 0.062590385564599116
leaf_weight=16.898085089866072 10.682441949844359 692.26821422576904
leaf_count=4105 44 70
internal_value=0.0577459 0.059903
internal_weight=719.849 709.166
internal_count=4219 4175
is_linear=0
shrinkage=0.05


Tree=28
num_leaves=3
num_cat=0
split_feature=23 37
split_gain=82.682 78.5635
threshold=1.5000000000000002 376.50000000000006
decision_type=2 2
left_child=1 -1
right_child=-2 -3
leaf_value=-0.049578684543186403 -0.081361700142758231 0.06183727329283515
leaf_weight=16.086536911549047 10.512639462947844 666.32281970977783
leaf_count=4105 44 70
internal_value=0.0570455 0.0591966
internal_weight=692.922 682.409
internal_count=4219 4175
is_linear=0
shrinkage=0.05


Tree=29
num_leaves=3
num_cat=0
split_feature=23 37
split_gain=77.4883 73.8476
threshold=1.5000000000000002 376.50000000000006
decision_type=2 2
left_child=1 -1
right_child=-2 -3
leaf_value=-0.049538170403516567 -0.0788145643568961 0.061137238506236979
leaf_weight=15.314270578557624 10.317901253700255 640.89979076385498
leaf_count=4105 44 70
internal_value=0.0563944 0.0585396
internal_weight=666.532 656.214
internal_count=4219 4175
is_linear=0
shrinkage=0.05


Tree=30
num_leaves=5
num_cat=0
split_feature=37 0 33 33
split_gain=67.0635 1.34067 3.62265 7.0922
threshold=376.50000000000006 1.0000000180025095e-35 13.304129123687746 13.202878475189211
decision_type=2 2 2 2
left_child=-1 2 3 -2
right_child=1 -3 -4 -5
leaf_value=-0.049497300222491311 0.032601559540105525 0.060529120307980612 0.06062525484331166 0.060015609565782196
leaf_weight=14.595066984649746 45.527748823165894 384.94202136993408 134.84087944030762 52.912203788757324
leaf_count=4110 44 44 15 6
internal_value=0.0559927 0.0584988 0.0551027 0.0474335
internal_weight=632.818 618.223 233.281 98.44
internal_count=4219 109 65 50
is_linear=0
shrinkage=0.05


Tree=31
num_leaves=3
num_cat=0
split_feature=23 37
split_gain=67.0822 65.5511
threshold=1.5000000000000002 376.50000000000006
decision_type=2 2
left_child=1 -1
right_child=-2 -3
leaf_value=-0.049454618812119183 -0.077331443276579273 0.059959929170583896
leaf_weight=13.895024765515698 9.2679625749587995 585.76725292205811
leaf_count=4110 40 69
internal_value=0.0553372 0.0574085
internal_weight=608.93 599.662
internal_count=4219 4179
is_linear=0
shrinkage=0.05


Tree=32
num_leaves=3
num_cat=0
split_feature=23 37
split_gain=63.021 61.7477
threshold=1.5000000000000002 376.50000000000006
decision_type=2 2
left_child=1 -1
right_child=-2 -3
leaf_value=-0.049410688332825373 -0.075187951407008749 0.059387830831386469
leaf_weight=13.228902062634004 9.0635865926742536 562.43127918243408
leaf_count=4110 40 69
internal_value=0.0548027 0.0568708
internal_weight=584.724 575.66
internal_count=4219 4179
is_linear=0
shrinkage=0.05


Tree=33
num_leaves=3
num_cat=0
split_feature=23 37
split_gain=59.2638 58.2022
threshold=1.5000000000000002 376.50000000000006
decision_type=2 2
left_child=1 -1
right_child=-2 -3
leaf_value=-0.04936541509405909 -0.073251466235928583 0.058853275780085958
leaf_weight=12.595063974615185 8.8461810350418073 539.73800134658813
leaf_count=4110 40 69
internal_value=0.0543031 0.056368
internal_weight=561.179 552.333
internal_count=4219 4179
is_linear=0
shrinkage=0.05


Tree=34
num_leaves=3
num_cat=0
split_feature=23 37
split_gain=55.7798 54.893
threshold=1.5000000000000002 376.50000000000006
decision_type=2 2
left_child=1 -1
right_child=-2 -3
leaf_value=-0.049318690586250526 -0.071494344677660804 0.058353246748005599
leaf_weight=11.991955506149678 8.6186391115188581 517.70328903198242
leaf_count=4110 40 69
internal_value=0.0538356 0.0558973
internal_weight=538.314 529.695
internal_count=4219 4179
is_linear=0
shrinkage=0.05


Tree=35
num_leaves=3
num_cat=0
split_feature=23 37
split_gain=59.0114 52.0102
threshold=1.5000000000000002 376.50000000000006
decision_type=2 2
left_child=1 -1
right_child=-2 -3
leaf_value=-0.049274427967396187 -0.070050788551308751 0.057859213673181947
leaf_weight=11.470914480742065 9.4314207136630994 495.78739547729492
leaf_count=4128 45 69
internal_value=0.0531044 0.0554175
internal_weight=516.69 507.258
internal_count=4242 4197
is_linear=0
shrinkage=0.05


Tree=36
num_leaves=3
num_cat=0
split_feature=23 37
split_gain=55.6213 49.1071
threshold=1.5000000000000002 376.50000000000006
decision_type=2 2
left_child=1 -1
right_child=-2 -3
leaf_value=-0.049224688985414669 -0.068586458208848677 0.05742178527699611
leaf_weight=10.922321225283666 9.1601581871509534 475.10980653762817
leaf_count=4128 45 69
internal_value=0.0526956 0.0550053
internal_weight=495.192 486.032
internal_count=4242 4197
is_linear=0
shrinkage=0.05


Tree=37
num_leaves=3
num_cat=0
split_feature=23 37
split_gain=52.4609 46.3886
threshold=1.5000000000000002 376.50000000000006
decision_type=2 2
left_child=1 -1
right_child=-2 -3
leaf_value=-0.04917319361102479 -0.067243608973216934 0.057011404325377657
leaf_weight=10.400345019763334 8.8849105685949308 455.10980749130249
leaf_count=4128 45 69
internal_value=0.0523117 0.0546183
internal_weight=474.395 465.51
internal_count=4242 4197
is_linear=0
shrinkage=0.05


Tree=38
num_leaves=3
num_cat=0
split_feature=23 37
split_gain=49.5101 43.8407
threshold=1.5000000000000002 376.50000000000006
decision_type=2 2
left_child=1 -1
right_child=-2 -3
leaf_value=-0.049119833714517093 -0.066008229108175998 0.056626067534495617
leaf_weight=9.9037000243552011 8.6075446754693967 435.78578758239746
leaf_count=4128 45 69
internal_value=0.0519509 0.0542546
internal_weight=454.297 445.689
internal_count=4242 4197
is_linear=0
shrinkage=0.05


Tree=39
num_leaves=3
num_cat=0
split_feature=23 37
split_gain=46.7515 41.4506
threshold=1.5000000000000002 376.50000000000006
decision_type=2 2
left_child=1 -1
right_child=-2 -3
leaf_value=-0.049064490184537644 -0.064868302275202794 0.056263956224139801
leaf_weight=9.4311632809694839 8.3296698331832868 417.13320112228394
leaf_count=4128 45 69
internal_value=0.0516116 0.0539125
internal_weight=434.894 426.564
internal_count=4242 4197
is_linear=0
shrinkage=0.05


Tree=40
num_leaves=3
num_cat=0
split_feature=23 37
split_gain=42.2657 39.3501
threshold=1.5000000000000002 376.50000000000006
decision_type=2 2
left_child=1 -1
right_child=-2 -3
leaf_value=-0.049010473818087964 -0.063748589463419172 0.055937411895689397
leaf_weight=9.0094142132438702 7.6947716921567908 405.27090740203857
leaf_count=4139 43 70
internal_value=0.0514649 0.0536318
internal_weight=421.975 414.28
internal_count=4252 4209
is_linear=0
shrinkage=0.05


Tree=41
num_leaves=3
num_cat=0
split_feature=23 37
split_gain=39.9522 37.2335
threshold=1.5000000000000002 376.50000000000006
decision_type=2 2
left_child=1 -1
right_child=-2 -3
leaf_value=-0.048950974960100216 -0.062769172582848504 0.055616172715199391
leaf_weight=8.5802968009375018 7.4323121905326834 387.67646884918213
leaf_count=4139 43 70
internal_value=0.0511627 0.0533275
internal_weight=403.689 396.257
internal_count=4252 4209
is_linear=0
shrinkage=0.05


Tree=42
num_leaves=3
num_cat=0
split_feature=23 37
split_gain=37.7821 35.2435
threshold=1.5000000000000002 376.50000000000006
decision_type=2 2
left_child=1 -1
right_child=-2 -3
leaf_value=-0.048889136292723324 -0.061857795541339716 0.055313645545879975
leaf_weight=8.1720212381333095 7.1727796345949164 370.73564672470093
leaf_count=4139 43 70
internal_value=0.0508777 0.0530408
internal_weight=386.08 378.908
internal_count=4252 4209
is_linear=0
shrinkage=0.05


Tree=43
num_leaves=3
num_cat=0
split_feature=23 37
split_gain=35.7447 33.3713
threshold=1.5000000000000002 376.50000000000006
decision_type=2 2
left_child=1 -1
right_child=-2 -3
leaf_value=-0.048824837505796394 -0.061007599628525748 0.055028558762369964
leaf_weight=7.7835780144669107 6.9169813692569724 354.43592691421509
leaf_count=4139 43 70
internal_value=0.0506088 0.0527702
internal_weight=369.136 362.22
internal_count=4252 4209
is_linear=0
shrinkage=0.05


Tree=44
num_leaves=3
num_cat=0
split_feature=23 37
split_gain=33.8304 31.6088
threshold=1.5000000000000002 376.50000000000006
decision_type=2 2
left_child=1 -1
right_child=-2 -3
leaf_value=-0.04875794429778503 -0.060212545208159676 0.054759742776487125
leaf_weight=7.4140074350871137 6.6655921041965476 338.76355266571045
leaf_count=4139 43 70
internal_value=0.0503547 0.0525148
internal_weight=352.843 346.178
internal_count=4252 4209
is_linear=0
shrinkage=0.05


Tree=45
num_leaves=3
num_cat=0
split_feature=1 37
split_gain=29.5441 29.1229
threshold=1.7489973306655886 376.50000000000006
decision_type=2 2
left_child=1 -1
right_child=-2 -3
leaf_value=-0.048659581647051545 -0.059341493613270971 0.05420021990320039
leaf_weight=6.9181935945525757 5.971321463584899 300.15559487044811
leaf_count=4056 40 70
internal_value=0.0496962 0.0518515
internal_weight=313.045 307.074
internal_count=4166 4126
is_linear=0
shrinkage=0.05


Tree=46
num_leaves=3
num_cat=0
split_feature=23 37
split_gain=31.9513 27.7557
threshold=1.5000000000000002 376.50000000000006
decision_type=2 2
left_child=1 -1
right_child=-2 -3
leaf_value=-0.048585767425413734 -0.059006900536323181 0.054250492575678537
leaf_weight=6.5906868586316696 6.5198066085577002 286.09691476821899
leaf_count=4056 45 65
internal_value=0.0494496 0.051902
internal_weight=299.207 292.688
internal_count=4166 4121
is_linear=0
shrinkage=0.05


Tree=47
num_leaves=3
num_cat=0
split_feature=23 37
split_gain=30.2686 26.3141
threshold=1.5000000000000002 376.50000000000006
decision_type=2 2
left_child=1 -1
right_child=-2 -3
leaf_value=-0.048508893646790889 -0.058339843408092479 0.054025153400826156
leaf_weight=6.2790981275029472 6.272057816386222 273.25061988830566
leaf_count=4056 45 65
internal_value=0.0492359 0.0516875
internal_weight=285.802 279.53
internal_count=4166 4121
is_linear=0
shrinkage=0.05


Tree=48
num_leaves=3
num_cat=0
split_feature=1 37
split_gain=25.1012 24.8037
threshold=1.7489973306655886 376.50000000000006
decision_type=2 2
left_child=1 -1
right_child=-2 -3
leaf_value=-0.048428818993995038 -0.057343068153318147 0.053499218397108653
leaf_weight=5.9826549869030705 5.3139382600784293 261.64377914369106
leaf_count=4056 40 70
internal_value=0.0490333 0.0511848
internal_weight=272.94 267.626
internal_count=4166 4126
is_linear=0
shrinkage=0.05


Tree=49
num_leaves=3
num_cat=0
split_feature=23 37
split_gain=27.5165 23.6711
threshold=1.5000000000000002 376.50000000000006
decision_type=2 2
left_child=1 -1
right_child=-2 -3
leaf_value=-0.048345384471054013 -0.057289074026285469 0.05361193871469494
leaf_weight=5.700623015407472 5.8490311354398719 249.17810225486755
leaf_count=4056 45 65
internal_value=0.0488178 0.0512939
internal_weight=260.728 254.879
internal_count=4166 4121
is_linear=0
shrinkage=0.05


Tree=50
num_leaves=3
num_cat=0
split_feature=23 37
split_gain=23.4832 22.7146
threshold=1.5000000000000002 376.50000000000006
decision_type=2 2
left_child=1 -1
right_child=-2 -3
leaf_value=-0.048277993843042516 -0.056368650950750478 0.053434785181103665
leaf_weight=5.4928593781078225 5.0678861588239661 238.68937468528748
leaf_count=4103 41 65
internal_value=0.0488804 0.0511075
internal_weight=249.25 244.182
internal_count=4209 4168
is_linear=0
shrinkage=0.05


Tree=51
num_leaves=3
num_cat=0
split_feature=1 37
split_gain=20.9245 21.499
threshold=1.7489973306655886 376.50000000000006
decision_type=2 2
left_child=1 -1
right_child=-2 -3
leaf_value=-0.048188279909425855 -0.055591728934665387 0.053117085712293302
leaf_weight=5.2346368504222474 4.5915699228644362 228.07685169577599
leaf_count=4103 39 67
internal_value=0.0487061 0.0508031
internal_weight=237.903 233.311
internal_count=4209 4170
is_linear=0
shrinkage=0.05


Tree=52
num_leaves=3
num_cat=0
split_feature=23 37
split_gain=21.2559 20.4616
threshold=1.5000000000000002 376.50000000000006
decision_type=2 2
left_child=1 -1
right_child=-2 -3
leaf_value=-0.048094775294273411 -0.055398394829009073 0.053082604868589137
leaf_weight=4.9889701935462645 4.6933772712945929 217.40027379989624
leaf_count=4103 41 65
internal_value=0.04853 0.0507698
internal_weight=227.083 222.389
internal_count=4209 4168
is_linear=0
shrinkage=0.05


Tree=53
num_leaves=3
num_cat=0
split_feature=23 37
split_gain=20.1711 19.4268
threshold=1.5000000000000002 376.50000000000006
decision_type=2 2
left_child=1 -1
right_child=-2 -3
leaf_value=-0.047997318961030822 -0.054904016185262687 0.052920123975060178
leaf_weight=4.7552498199511311 4.504540041089057 207.41672277450562
leaf_count=4103 41 65
internal_value=0.0483722 0.0506132
internal_weight=216.677 212.172
internal_count=4209 4168
is_linear=0
shrinkage=0.05


Tree=54
num_leaves=3
num_cat=0
split_feature=23 37
split_gain=19.1461 18.4483
threshold=1.5000000000000002 376.50000000000006
decision_type=2 2
left_child=1 -1
right_child=-2 -3
leaf_value=-0.047895745490925262 -0.054430864717297578 0.052766138554493074
leaf_weight=4.5328949919203287 4.3220036774873725 197.86240839958191
leaf_count=4103 41 65
internal_value=0.0482219 0.0504645
internal_weight=206.717 202.395
internal_count=4209 4168
is_linear=0
shrinkage=0.05


Tree=55
num_leaves=3
num_cat=0
split_feature=23 5
split_gain=18.8889 16.9418
threshold=1.5000000000000002 1.0000000180025095e-35
decision_type=2 2
left_child=1 -1
right_child=-2 -3
leaf_value=0.052512871888256811 -0.054205197051091641 -0.047718375700845944
leaf_weight=187.97646489727776 4.3011791855096808 4.186569459969177
leaf_count=200 42 3998
internal_value=0.0479402 0.0502795
internal_weight=196.464 192.163
internal_count=4240 4198
is_linear=0
shrinkage=0.05


Tree=56
num_leaves=3
num_cat=0
split_feature=23 5
split_gain=17.9328 16.0932
threshold=1.5000000000000002 1.0000000180025095e-35
decision_type=2 2
left_child=1 -1
right_child=-2 -3
leaf_value=0.052365954300867171 -0.053763693215943834 -0.047604934492677629
leaf_weight=179.29803687380627 4.1249585896730414 3.9918746859766534
leaf_count=200 42 3998
internal_value=0.0477957 0.0501367
internal_weight=187.415 183.29
internal_count=4240 4198
is_linear=0
shrinkage=0.05


Tree=57
num_leaves=3
num_cat=0
split_feature=23 37
split_gain=17.0284 16.0708
threshold=1.5000000000000002 376.50000000000006
decision_type=2 2
left_child=1 -1
right_child=-2 -3
leaf_value=-0.047604405969499428 -0.053338595448726683 0.052336691012216399
leaf_weight=3.9931424781680098 3.9550413042306891 170.81582307815552
leaf_count=4133 42 65
internal_value=0.0476565 0.0499992
internal_weight=178.764 174.809
internal_count=4240 4198
is_linear=0
shrinkage=0.05


Tree=58
num_leaves=4
num_cat=0
split_feature=37 1 32
split_gain=14.5437 1.16559 2.09146
threshold=376.50000000000006 0.46717166900634771 358.33966064453131
decision_type=2 2 2
left_child=-1 -2 -3
right_child=1 2 -4
leaf_value=-0.047486301651944972 0.052068120403722579 0.025231784098253059 0.051555782952071964
leaf_weight=3.807849447708576 132.78383469581604 14.631126299500464 19.23803973197937
leaf_count=4133 54 45 8
internal_value=0.0475321 0.0497604 0.040439
internal_weight=170.461 166.653 33.8692
internal_count=4240 107 53
is_linear=0
shrinkage=0.05


Tree=59
num_leaves=3
num_cat=0
split_feature=23 37
split_gain=16.4968 14.5222
threshold=1.5000000000000002 376.50000000000006
decision_type=2 2
left_child=1 -1
right_child=-2 -3
leaf_value=-0.047363260901857607 -0.053121036588110342 0.052105330705545308
leaf_weight=3.6315674460493019 3.8681685626506797 155.52979898452759
leaf_count=4133 42 65
internal_value=0.0472729 0.0497761
internal_weight=163.03 159.161
internal_count=4240 4198
is_linear=0
shrinkage=0.05


Tree=60
num_leaves=3
num_cat=0
split_feature=23 37
split_gain=16.3175 13.6404
threshold=1.5000000000000002 376.50000000000006
decision_type=2 2
left_child=1 -1
right_child=-2 -3
leaf_value=-0.04721038130095577 -0.052826723980989455 0.051885907385578592
leaf_weight=3.4327960017835712 3.8794000148773184 142.05061531066895
leaf_count=4099 44 63
internal_value=0.0467582 0.0494825
internal_weight=149.363 145.483
internal_count=4206 4162
is_linear=0
shrinkage=0.05


Tree=61
num_leaves=3
num_cat=0
split_feature=23 37
split_gain=15.5065 12.9722
threshold=1.5000000000000002 376.50000000000006
decision_type=2 2
left_child=1 -1
right_child=-2 -3
leaf_value=-0.047075876316834492 -0.052440454899741321 0.05178352897450203
leaf_weight=3.2747531194472677 3.7174138128757468 135.38331866264343
leaf_count=4099 44 63
internal_value=0.0466519 0.0493804
internal_weight=142.375 138.658
internal_count=4206 4162
is_linear=0
shrinkage=0.05


Tree=62
num_leaves=3
num_cat=0
split_feature=23 37
split_gain=14.7384 12.3389
threshold=1.5000000000000002 376.50000000000006
decision_type=2 2
left_child=1 -1
right_child=-2 -3
leaf_value=-0.046935846809516103 -0.052065594567949361 0.051686151454536346
leaf_weight=3.1243948577903202 3.561632812023162 129.01728391647339
leaf_count=4099 44 63
internal_value=0.0465496 0.0492828
internal_weight=135.703 132.142
internal_count=4206 4162
is_linear=0
shrinkage=0.05


Tree=63
num_leaves=3
num_cat=0
split_feature=23 37
split_gain=14.0107 11.7387
threshold=1.5000000000000002 376.50000000000006
decision_type=2 2
left_child=1 -1
right_child=-2 -3
leaf_value=-0.046790112805228407 -0.051700904876280818 0.051593474651076512
leaf_weight=2.9813468033680683 3.4119135439395896 122.94009959697723
leaf_count=4099 44 63
internal_value=0.0464511 0.0491892
internal_weight=129.333 125.921
internal_count=4206 4162
is_linear=0
shrinkage=0.05


Tree=64
num_leaves=3
num_cat=0
split_feature=23 37
split_gain=13.3211 11.1696
threshold=1.5000000000000002 376.50000000000006
decision_type=2 2
left_child=1 -1
right_child=-2 -3
leaf_value=-0.046638481135945813 -0.051345233222446565 0.051505221671823011
leaf_weight=2.845252882805652 3.2681038677692404 117.1397351026535
leaf_count=4099 44 63
internal_value=0.046356 0.0490994
internal_weight=123.253 119.985
internal_count=4206 4162
is_linear=0
shrinkage=0.05


Tree=65
num_leaves=3
num_cat=0
split_feature=23 37
split_gain=11.7251 10.7146
threshold=1.5000000000000002 376.50000000000006
decision_type=2 2
left_child=1 -1
right_child=-2 -3
leaf_value=-0.046495840159117452 -0.050785983687947657 0.051519183792395187
leaf_weight=2.7277670464245594 2.8753266483545294 119.09219717979431
leaf_count=4116 40 66
internal_value=0.0468615 0.0492471
internal_weight=124.695 121.82
internal_count=4222 4182
is_linear=0
shrinkage=0.05


Tree=66
num_leaves=3
num_cat=0
split_feature=23 37
split_gain=11.1531 10.198
threshold=1.5000000000000002 376.50000000000006
decision_type=2 2
left_child=1 -1
right_child=-2 -3
leaf_value=-0.046332456722442329 -0.050433002843098686 0.051434958769969043
leaf_weight=2.6039984367089337 2.754439264535903 113.46498703956604
leaf_count=4116 40 66
internal_value=0.0467693 0.0491605
internal_weight=118.823 116.069
internal_count=4222 4182
is_linear=0
shrinkage=0.05


Tree=67
num_leaves=3
num_cat=0
split_feature=23 37
split_gain=10.6108 9.70798
threshold=1.5000000000000002 376.50000000000006
decision_type=2 2
left_child=1 -1
right_child=-2 -3
leaf_value=-0.046162632645139624 -0.050085782671220783 0.051354618636302411
leaf_weight=2.4862445424078023 2.6384868845343581 108.09597885608673
leaf_count=4116 40 66
internal_value=0.04668 0.0490772
internal_weight=113.221 110.582
internal_count=4222 4182
is_linear=0
shrinkage=0.05


Tree=68
num_leaves=3
num_cat=0
split_feature=23 5
split_gain=10.0966 8.80378
threshold=1.5000000000000002 1.0000000180025095e-35
decision_type=2 2
left_child=1 -1
right_child=-2 -3
leaf_value=0.051172564790861574 -0.04974341134611554 -0.04580234083907711
leaf_weight=103.08142027701251 2.5273177772760382 2.2669060402549794
leaf_count=196 40 3986
internal_value=0.0465934 0.048997
internal_weight=107.876 105.348
internal_count=4222 4182
is_linear=0
shrinkage=0.05


Tree=69
num_leaves=3
num_cat=0
split_feature=23 37
split_gain=9.60702 8.84474
threshold=1.5000000000000002 376.50000000000006
decision_type=2 2
left_child=1 -1
right_child=-2 -3
leaf_value=-0.04582242522302174 -0.049405033535590531 0.051204834749711006
leaf_weight=2.2784587247297159 2.4207787401974192 98.098542928695679
leaf_count=4116 40 66
internal_value=0.0464997 0.0489092
internal_weight=102.798 100.377
internal_count=4222 4182
is_linear=0
shrinkage=0.05


Tree=70
num_leaves=3
num_cat=0
split_feature=23 37
split_gain=10.4428 8.44514
threshold=1.5000000000000002 376.50000000000006
decision_type=2 2
left_child=1 -1
right_child=-2 -3
leaf_value=-0.045645096454416938 -0.049564071451594402 0.051142313935183863
leaf_weight=2.182849876699037 2.6526555046439162 91.088814735412598
leaf_count=4127 46 64
internal_value=0.0459568 0.0487772
internal_weight=95.9243 93.2717
internal_count=4237 4191
is_linear=0
shrinkage=0.05


Tree=71
num_leaves=3
num_cat=0
split_feature=23 37
split_gain=9.93809 8.04496
threshold=1.5000000000000002 376.50000000000006
decision_type=2 2
left_child=1 -1
right_child=-2 -3
leaf_value=-0.045448892687296127 -0.049249299743950301 0.051074680829973622
leaf_weight=2.0855527648236594 2.5396295897662631 86.758336186408997
leaf_count=4127 46 64
internal_value=0.0458764 0.0487041
internal_weight=91.3835 88.8439
internal_count=4237 4191
is_linear=0
shrinkage=0.05


Tree=72
num_leaves=3
num_cat=0
split_feature=23 37
split_gain=9.45923 7.66518
threshold=1.5000000000000002 376.50000000000006
decision_type=2 2
left_child=1 -1
right_child=-2 -3
leaf_value=-0.045245382641910942 -0.048936789640109842 0.051009915448536003
leaf_weight=1.9929788125737093 2.4314331114292136 82.629346370697021
leaf_count=4127 46 64
internal_value=0.0457977 0.0486332
internal_weight=87.0538 84.6223
internal_count=4237 4191
is_linear=0
shrinkage=0.05


Tree=73
num_leaves=3
num_cat=0
split_feature=23 37
split_gain=9.00483 7.30471
threshold=1.5000000000000002 376.50000000000006
decision_type=2 2
left_child=1 -1
right_child=-2 -3
leaf_value=-0.045034394573316899 -0.048625849397104855 0.050947839116307403
leaf_weight=1.9048976596968703 2.327892765402793 78.692940235137939
leaf_count=4127 46 64
internal_value=0.0457206 0.0485644
internal_weight=82.9257 80.5978
internal_count=4237 4191
is_linear=0
shrinkage=0.05


Tree=74
num_leaves=3
num_cat=0
split_feature=23 37
split_gain=8.57357 6.96253
threshold=1.5000000000000002 376.50000000000006
decision_type=2 2
left_child=1 -1
right_child=-2 -3
leaf_value=-0.044815779200705119 -0.048315829400837347 0.050888281615044231
leaf_weight=1.8210895060328756 2.2288380451500407 74.940555930137634
leaf_count=4127 46 64
internal_value=0.0456448 0.0484974
internal_weight=78.9905 76.7616
internal_count=4237 4191
is_linear=0
shrinkage=0.05


Tree=75
num_leaves=3
num_cat=0
split_feature=23 37
split_gain=8.44945 6.68884
threshold=1.5000000000000002 376.50000000000006
decision_type=2 2
left_child=1 -1
right_child=-2 -3
leaf_value=-0.044626505084447203 -0.04812361562481738 0.05083067661758689
leaf_weight=1.754012522404081 2.2081108540296546 72.345033645629883
leaf_count=4154 48 65
internal_value=0.0455274 0.0484466
internal_weight=76.3072 74.099
internal_count=4267 4219
is_linear=0
shrinkage=0.05


Tree=76
num_leaves=3
num_cat=0
split_feature=23 37
split_gain=8.04659 6.37789
threshold=1.5000000000000002 376.50000000000006
decision_type=2 2
left_child=1 -1
right_child=-2 -3
leaf_value=-0.044393468389265167 -0.04781979223508865 0.050775882020171616
leaf_weight=1.6775204638252024 2.1140502095222464 68.889222919940948
leaf_count=4154 48 65
internal_value=0.0454543 0.0483831
internal_weight=72.6808 70.5667
internal_count=4267 4219
is_linear=0
shrinkage=0.05


Tree=77
num_leaves=3
num_cat=0
split_feature=23 5
split_gain=7.66411 5.74483
threshold=1.5000000000000002 1.0000000180025095e-35
decision_type=2 2
left_child=1 -1
right_child=-2 -3
leaf_value=0.050595098281807672 -0.047515181278681977 -0.043849285434718367
leaf_weight=65.679576212191023 2.024140626192092 1.5211403081193555
leaf_count=203 48 4016
internal_value=0.0453821 0.048321
internal_weight=69.2249 67.2007
internal_count=4267 4219
is_linear=0
shrinkage=0.05


Tree=78
num_leaves=3
num_cat=0
split_feature=1 37
split_gain=6.4361 5.7926
threshold=1.7489973306655886 376.50000000000006
decision_type=2 2
left_child=1 -1
right_child=-2 -3
leaf_value=-0.043934512644872581 -0.046539754284851971 0.050322347090824719
leaf_weight=1.5438557292800386 1.7261763960123051 62.677721485495567
leaf_count=4154 44 69
internal_value=0.0452992 0.0479139
internal_weight=65.9478 64.2216
internal_count=4267 4223
is_linear=0
shrinkage=0.05


Tree=79
num_leaves=3
num_cat=0
split_feature=23 37
split_gain=7.03378 5.56668
threshold=1.5000000000000002 376.50000000000006
decision_type=2 2
left_child=1 -1
right_child=-2 -3
leaf_value=-0.043677992489564194 -0.046993210721087142 0.050623704008018612
leaf_weight=1.4775436236523081 1.8755261600017537 59.495602548122406
leaf_count=4154 48 65
internal_value=0.0451989 0.0481889
internal_weight=62.8487 60.9731
internal_count=4267 4219
is_linear=0
shrinkage=0.05


Tree=80
num_leaves=3
num_cat=0
split_feature=23 37
split_gain=5.90388 5.28116
threshold=1.5000000000000002 376.50000000000006
decision_type=2 2
left_child=1 -1
right_child=-2 -3
leaf_value=-0.043372576618873976 -0.046007232419574905 0.050580166719039747
leaf_weight=1.4052108697069332 1.5803146213293064 58.368071556091309
leaf_count=4130 42 67
internal_value=0.0456399 0.0482192
internal_weight=61.3536 59.7733
internal_count=4239 4197
is_linear=0
shrinkage=0.05


Tree=81
num_leaves=3
num_cat=0
split_feature=23 37
split_gain=5.62945 5.04103
threshold=1.5000000000000002 376.50000000000006
decision_type=2 2
left_child=1 -1
right_child=-2 -3
leaf_value=-0.043097916687310632 -0.045672676137883533 0.050534575599421386
leaf_weight=1.3456055580463715 1.514691725373267 55.570345759391785
leaf_count=4130 42 67
internal_value=0.0455698 0.0481615
internal_weight=58.4306 56.916
internal_count=4239 4197
is_linear=0
shrinkage=0.05


Tree=82
num_leaves=3
num_cat=0
split_feature=23 37
split_gain=5.36876 4.81291
threshold=1.5000000000000002 376.50000000000006
decision_type=2 2
left_child=1 -1
right_child=-2 -3
leaf_value=-0.042814691601206309 -0.045334708017932761 0.050490392337263969
leaf_weight=1.288880815176525 1.4520187973976124 52.905326962471008
leaf_count=4130 42 67
internal_value=0.0454997 0.0481045
internal_weight=55.6462 54.1942
internal_count=4239 4197
is_linear=0
shrinkage=0.05


Tree=83
num_leaves=3
num_cat=0
split_feature=23 5
split_gain=5.12109 4.32264
threshold=1.5000000000000002 1.0000000180025095e-35
decision_type=2 2
left_child=1 -1
right_child=-2 -3
leaf_value=0.050311838880847184 -0.04499295079785666 -0.042118670699506214
leaf_weight=50.435132520156913 1.3921724706888188 1.1666598973679345
leaf_count=200 42 3997
internal_value=0.0454294 0.048048
internal_weight=52.994 51.6018
internal_count=4239 4197
is_linear=0
shrinkage=0.05


Tree=84
num_leaves=3
num_cat=0
split_feature=23 5
split_gain=4.88445 4.12903
threshold=1.5000000000000002 1.0000000180025095e-35
decision_type=2 2
left_child=1 -1
right_child=-2 -3
leaf_value=0.050256170839774128 -0.044647059368620012 -0.041806503684480356
leaf_weight=48.027302917849738 1.3350335508584965 1.1185691999271501
leaf_count=200 42 3997
internal_value=0.0453468 0.0479786
internal_weight=50.4809 49.1459
internal_count=4239 4197
is_linear=0
shrinkage=0.05


Tree=85
num_leaves=3
num_cat=0
split_feature=23 37
split_gain=4.64838 4.25323
threshold=1.5000000000000002 376.50000000000006
decision_type=2 2
left_child=1 -1
right_child=-2 -3
leaf_value=-0.042018969825433641 -0.044296726068280619 0.050361478992333265
leaf_weight=1.1508940955682181 1.2804866321384896 44.417065322399139
leaf_count=4141 42 65
internal_value=0.0451183 0.0478319
internal_weight=46.8484 45.568
internal_count=4248 4206
is_linear=0
shrinkage=0.05


Tree=86
num_leaves=3
num_cat=0
split_feature=23 37
split_gain=4.43639 4.06426
threshold=1.5000000000000002 376.50000000000006
decision_type=2 2
left_child=1 -1
right_child=-2 -3
leaf_value=-0.041703996621958582 -0.043941665163028602 0.050321395898299273
leaf_weight=1.1035628236131731 1.228420354425906 42.283706903457642
leaf_count=4141 42 65
internal_value=0.0450455 0.0477752
internal_weight=44.6157 43.3873
internal_count=4248 4206
is_linear=0
shrinkage=0.05


Tree=87
num_leaves=3
num_cat=0
split_feature=23 5
split_gain=4.23492 3.61013
threshold=1.5000000000000002 1.0000000180025095e-35
decision_type=2 2
left_child=1 -1
right_child=-2 -3
leaf_value=0.050111257362146715 -0.043581611730820799 -0.04083385767646034
leaf_weight=40.321045394288376 1.1787273623049248 0.98963875300250848
leaf_count=197 42 4009
internal_value=0.0449719 0.0477185
internal_weight=42.4894 41.3107
internal_count=4248 4206
is_linear=0
shrinkage=0.05


Tree=88
num_leaves=3
num_cat=0
split_feature=23 37
split_gain=4.04204 3.73989
threshold=1.5000000000000002 376.50000000000006
decision_type=2 2
left_child=1 -1
right_child=-2 -3
leaf_value=-0.041102860325322031 -0.043216342865299628 0.050243827456140006
leaf_weight=1.0224674457567733 1.1313040666282166 38.324127018451691
leaf_count=4141 42 65
internal_value=0.0448822 0.0476451
internal_weight=40.4779 39.3466
internal_count=4248 4206
is_linear=0
shrinkage=0.05


Tree=89
num_leaves=3
num_cat=0
split_feature=23 37
split_gain=3.86008 3.57633
threshold=1.5000000000000002 376.50000000000006
decision_type=2 2
left_child=1 -1
right_child=-2 -3
leaf_value=-0.040763274763766358 -0.042845654162501697 0.050206010693671137
leaf_weight=0.98131358025420823 1.0860507823526848 36.481881082057953
leaf_count=4141 42 65
internal_value=0.0448064 0.0475879
internal_weight=38.5492 37.4632
internal_count=4248 4206
is_linear=0
shrinkage=0.05


Tree=90
num_leaves=3
num_cat=0
split_feature=23 37
split_gain=3.56639 3.38167
threshold=1.5000000000000002 376.50000000000006
decision_type=2 2
left_child=1 -1
right_child=-2 -3
leaf_value=-0.040353945381111617 -0.042283484533823606 0.050104545955588047
leaf_weight=0.93553976796101679 1.0191653538495291 31.531359076499939
leaf_count=4120 41 61
internal_value=0.0442375 0.0472285
internal_weight=33.4861 32.4669
internal_count=4222 4181
is_linear=0
shrinkage=0.05


Tree=91
num_leaves=3
num_cat=0
split_feature=23 37
split_gain=3.40749 3.23561
threshold=1.5000000000000002 376.50000000000006
decision_type=2 2
left_child=1 -1
right_child=-2 -3
leaf_value=-0.039995813528333729 -0.041896923378746502 0.050068006693661349
leaf_weight=0.89855551057553995 0.97908063791692157 30.01496896147728
leaf_count=4120 41 61
internal_value=0.0441555 0.0471684
internal_weight=31.8926 30.9135
internal_count=4222 4181
is_linear=0
shrinkage=0.05


Tree=92
num_leaves=2
num_cat=0
split_feature=37
split_gain=2.88731
threshold=376.50000000000006
decision_type=2
left_child=-1
right_child=-2
leaf_value=-0.03962930539256438 0.046814400670207368
leaf_weight=0.8633417446253614 29.512235740199685
leaf_count=4120 102
internal_value=0.0440714
internal_weight=30.3756
internal_count=4222
is_linear=0
shrinkage=0.05


Tree=93
num_leaves=3
num_cat=0
split_feature=23 37
split_gain=3.40483 2.9651
threshold=1.5000000000000002 376.50000000000006
decision_type=2 2
left_child=1 -1
right_child=-2 -3
leaf_value=-0.039254544912300959 -0.04194235871901536 0.049997826967696064
leaf_weight=0.8298113440105287 0.98366462253034015 27.283579587936401
leaf_count=4120 41 61
internal_value=0.0437431 0.0470564
internal_weight=29.0971 28.1134
internal_count=4222 4181
is_linear=0
shrinkage=0.05


Tree=94
num_leaves=3
num_cat=0
split_feature=23 37
split_gain=3.25344 2.83949
threshold=1.5000000000000002 376.50000000000006
decision_type=2 2
left_child=1 -1
right_child=-2 -3
leaf_value=-0.038871685147966531 -0.041550650686561878 0.049961680271239449
leaf_weight=0.797881463149685 0.94521023146808048 25.971321493387222
leaf_count=4120 41 61
internal_value=0.0436549 0.046993
internal_weight=27.7144 26.7692
internal_count=4222 4181
is_linear=0
shrinkage=0.05


Tree=95
num_leaves=3
num_cat=0
split_feature=23 37
split_gain=3.2571 2.74201
threshold=1.5000000000000002 376.50000000000006
decision_type=2 2
left_child=1 -1
right_child=-2 -3
leaf_value=-0.038517136207321216 -0.041474647662680032 0.049984237585532248
leaf_weight=0.7702069695951711 0.94025494530796905 27.259616315364838
leaf_count=4130 42 66
internal_value=0.0440621 0.0472464
internal_weight=28.9701 28.0298
internal_count=4238 4196
is_linear=0
shrinkage=0.05


Tree=96
num_leaves=3
num_cat=0
split_feature=23 37
split_gain=3.11334 2.62753
threshold=1.5000000000000002 376.50000000000006
decision_type=2 2
left_child=1 -1
right_child=-2 -3
leaf_value=-0.038119320473519652 -0.041077172303829297 0.049948748873787113
leaf_weight=0.74111584058846958 0.90377962216734786 25.948180913925171
leaf_count=4130 42 66
internal_value=0.0439741 0.0471834
internal_weight=27.5931 26.6893
internal_count=4238 4196
is_linear=0
shrinkage=0.05


Tree=97
num_leaves=3
num_cat=0
split_feature=23 37
split_gain=2.97661 2.51863
threshold=1.5000000000000002 376.50000000000006
decision_type=2 2
left_child=1 -1
right_child=-2 -3
leaf_value=-0.037713969713867597 -0.040673688373936978 0.049913180986503422
leaf_weight=0.71340672748920653 0.86898383870720763 24.69989201426506
leaf_count=4130 42 66
internal_value=0.0438837 0.0471191
internal_weight=26.2823 25.4133
internal_count=4238 4196
is_linear=0
shrinkage=0.05


Tree=98
num_leaves=3
num_cat=0
split_feature=23 37
split_gain=2.84655 2.41504
threshold=1.5000000000000002 376.50000000000006
decision_type=2 2
left_child=1 -1
right_child=-2 -3
leaf_value=-0.037301320608987186 -0.040264184558827854 0.049877444877216168
leaf_weight=0.68701156901079841 0.83579122833907504 23.511746853590012
leaf_count=4130 42 66
internal_value=0.0437906 0.0470533
internal_weight=25.0345 24.1988
internal_count=4238 4196
is_linear=0
shrinkage=0.05


Tree=99
num_leaves=3
num_cat=0
split_feature=23 37
split_gain=2.72282 2.31647
threshold=1.5000000000000002 376.50000000000006
decision_type=2 2
left_child=1 -1
right_child=-2 -3
leaf_value=-0.036881626188738574 -0.039848673495190494 0.049841457834105506
leaf_weight=0.66186562241637759 0.80412835627794166 22.3808813393116
leaf_count=4130 42 66
internal_value=0.0436948 0.0469858
internal_weight=23.8469 23.0427
internal_count=4238 4196
is_linear=0
shrinkage=0.05


Tree=100
num_leaves=3
num_cat=0
split_feature=23 37
split_gain=2.66818 2.21549
threshold=1.5000000000000002 376.50000000000006
decision_type=2 2
left_child=1 -1
right_child=-2 -3
leaf_value=-0.036416639441029623 -0.039650860510557023 0.049808977437522842
leaf_weight=0.63581418007380008 0.7913002036511888 21.400837481021881
leaf_count=4108 43 66
internal_value=0.0435625 0.046942
internal_weight=22.828 22.0367
internal_count=4217 4174
is_linear=0
shrinkage=0.05


Tree=101
num_leaves=3
num_cat=0
split_feature=23 37
split_gain=2.55301 2.12661
threshold=1.5000000000000002 376.50000000000006
decision_type=2 2
left_child=1 -1
right_child=-2 -3
leaf_value=-0.0359831390914781 -0.039227702057209074 0.049772238791379222
leaf_weight=0.61308366937738057 0.76167616620659728 20.371829688549042
leaf_count=4108 43 66
internal_value=0.0434607 0.0468709
internal_weight=21.7466 20.9849
internal_count=4217 4174
is_linear=0
shrinkage=0.05


Tree=102
num_leaves=3
num_cat=0
split_feature=23 37
split_gain=2.44343 2.04202
threshold=1.5000000000000002 376.50000000000006
decision_type=2 2
left_child=1 -1
right_child=-2 -3
leaf_value=-0.035543517248102445 -0.038798646672282847 0.049734991187984606
leaf_weight=0.59142174158478766 0.73341865092515846 19.392507702112198
leaf_count=4108 43 66
internal_value=0.0433556 0.0467978
internal_weight=20.7173 19.9839
internal_count=4217 4174
is_linear=0
shrinkage=0.05


Tree=103
num_leaves=3
num_cat=0
split_feature=23 5
split_gain=2.33914 1.80026
threshold=1.5000000000000002 1.0000000180025095e-35
decision_type=2 2
left_child=1 -1
right_child=-2 -3
leaf_value=0.049474005187394553 -0.038363806895900215 -0.034111052438465655
leaf_weight=18.502123012614906 0.70646421052515407 0.52914634597255172
leaf_count=201 43 3973
internal_value=0.043247 0.0467225
internal_weight=19.7377 19.0313
internal_count=4217 4174
is_linear=0
shrinkage=0.05


Tree=104
num_leaves=3
num_cat=0
split_feature=23 37
split_gain=2.23886 1.89962
threshold=1.5000000000000002 376.50000000000006
decision_type=2 2
left_child=1 -1
right_child=-2 -3
leaf_value=-0.034742310390756308 -0.037923314316859941 0.049658798795094092
leaf_weight=0.55514496062824648 0.68075218610465427 17.577411323785782
leaf_count=4108 43 66
internal_value=0.0431162 0.0466242
internal_weight=18.8133 18.1326
internal_count=4217 4174
is_linear=0
shrinkage=0.05


Tree=105
num_leaves=3
num_cat=0
split_feature=23 37
split_gain=2.11907 1.83584
threshold=1.5000000000000002 376.50000000000006
decision_type=2 2
left_child=1 -1
right_child=-2 -3
leaf_value=-0.034351303446523873 -0.03733479973819713 0.049623880159021583
leaf_weight=0.53879251108447235 0.6488317595794787 16.820290744304657
leaf_count=4138 43 66
internal_value=0.0430613 0.0465492
internal_weight=18.0079 17.3591
internal_count=4247 4204
is_linear=0
shrinkage=0.05


Tree=106
num_leaves=3
num_cat=0
split_feature=23 37
split_gain=2.03048 1.76516
threshold=1.5000000000000002 376.50000000000006
decision_type=2 2
left_child=1 -1
right_child=-2 -3
leaf_value=-0.033892263818423606 -0.036882022121937967 0.049583801995648109
leaf_weight=0.52060342313780594 0.62577180750667949 16.012644857168198
leaf_count=4138 43 66
internal_value=0.0429413 0.0464667
internal_weight=17.159 16.5332
internal_count=4247 4204
is_linear=0
shrinkage=0.05


Tree=107
num_leaves=3
num_cat=0
split_feature=23 37
split_gain=1.94611 1.69784
threshold=1.5000000000000002 376.50000000000006
decision_type=2 2
left_child=1 -1
right_child=-2 -3
leaf_value=-0.033428772251529244 -0.036424230174181886 0.049542774938959783
leaf_weight=0.50325914431596075 0.60377182718366462 15.244079113006592
leaf_count=4138 43 66
internal_value=0.042817 0.0463814
internal_weight=16.3511 15.7473
internal_count=4247 4204
is_linear=0
shrinkage=0.05


Tree=108
num_leaves=3
num_cat=0
split_feature=23 37
split_gain=1.86577 1.63372
threshold=1.5000000000000002 376.50000000000006
decision_type=2 2
left_child=1 -1
right_child=-2 -3
leaf_value=-0.032961226833503464 -0.03596166763115758 0.049500702883532227
leaf_weight=0.48671802580792878 0.58278185129165727 14.512716963887215
leaf_count=4138 43 66
internal_value=0.0426883 0.0462932
internal_weight=15.5822 14.9994
internal_count=4247 4204
is_linear=0
shrinkage=0.05


Tree=109
num_leaves=3
num_cat=0
split_feature=23 37
split_gain=1.78925 1.57263
threshold=1.5000000000000002 376.50000000000006
decision_type=2 2
left_child=1 -1
right_child=-2 -3
leaf_value=-0.03249003513193164 -0.035494598964565582 0.049457491076982753
leaf_weight=0.47094053083128429 0.56275412719696838 13.816770061850546
leaf_count=4138 43 66
internal_value=0.0425548 0.0462018
internal_weight=14.8505 14.2877
internal_count=4247 4204
is_linear=0
shrinkage=0.05


Tree=110
num_leaves=3
num_cat=0
split_feature=23 37
split_gain=1.64014 1.50412
threshold=1.5000000000000002 376.50000000000006
decision_type=2 2
left_child=1 -1
right_child=-2 -3
leaf_value=-0.031979599564024262 -0.034587265519433287 0.049356964792879633
leaf_weight=0.4547790850920127 0.52575709670782167 12.218020245432852
leaf_count=4132 41 61
internal_value=0.0420042 0.0458191
internal_weight=13.1986 12.6728
internal_count=4234 4193
is_linear=0
shrinkage=0.05


Tree=111
num_leaves=3
num_cat=0
split_feature=23 37
split_gain=1.57404 1.44888
threshold=1.5000000000000002 376.50000000000006
decision_type=2 2
left_child=1 -1
right_child=-2 -3
leaf_value=-0.031502158314837603 -0.034107567776401011 0.049308327961652451
leaf_weight=0.44046877107757509 0.5083441901952036 11.633415117859839
leaf_count=4132 41 61
internal_value=0.0418523 0.045715
internal_weight=12.5822 12.0739
internal_count=4234 4193
is_linear=0
shrinkage=0.05


Tree=112
num_leaves=3
num_cat=0
split_feature=23 5
split_gain=1.51103 1.27793
threshold=1.5000000000000002 1.0000000180025095e-35
decision_type=2 2
left_child=1 -1
right_child=-2 -3
leaf_value=0.048980787242023795 -0.033624634048769142 -0.029822247008669818
leaf_weight=11.108457426133098 0.4917230140417822 0.39549853854987205
leaf_count=187 41 4006
internal_value=0.0416947 0.045607
internal_weight=11.9957 11.504
internal_count=4234 4193
is_linear=0
shrinkage=0.05


Tree=113
num_leaves=3
num_cat=0
split_feature=23 37
split_gain=1.45013 1.35647
threshold=1.5000000000000002 376.50000000000006
decision_type=2 2
left_child=1 -1
right_child=-2 -3
leaf_value=-0.030653240720203114 -0.033138810717319174 0.049206543127668964
leaf_weight=0.41676517155428783 0.47585589811205942 10.550749391317366
leaf_count=4132 41 61
internal_value=0.0415098 0.0454706
internal_weight=11.4434 10.9675
internal_count=4234 4193
is_linear=0
shrinkage=0.05


Tree=114
num_leaves=3
num_cat=0
split_feature=23 37
split_gain=1.39287 1.30805
threshold=1.5000000000000002 376.50000000000006
decision_type=2 2
left_child=1 -1
right_child=-2 -3
leaf_value=-0.030170301698405184 -0.032650443781644709 0.049152885072631158
leaf_weight=0.40418643498560314 0.46070695482194501 10.046973511576651
leaf_count=4132 41 61
internal_value=0.0413403 0.0453544
internal_weight=10.9119 10.4512
internal_count=4234 4193
is_linear=0
shrinkage=0.05


Tree=115
num_leaves=3
num_cat=0
split_feature=23 37
split_gain=1.55509 1.25741
threshold=1.5000000000000002 376.50000000000006
decision_type=2 2
left_child=1 -1
right_child=-2 -3
leaf_value=-0.029559742158957826 -0.034015580037204077 0.049168587199272806
leaf_weight=0.38913204932759882 0.50764961075037796 10.294520795345305
leaf_count=4081 47 66
internal_value=0.0412668 0.0455899
internal_weight=11.1913 10.6837
internal_count=4194 4147
is_linear=0
shrinkage=0.05


Tree=116
num_leaves=3
num_cat=0
split_feature=23 37
split_gain=1.49236 1.21383
threshold=1.5000000000000002 376.50000000000006
decision_type=2 2
left_child=1 -1
right_child=-2 -3
leaf_value=-0.029074717286024544 -0.033534759897094875 0.049114523168702962
leaf_weight=0.3778000205202251 0.49103912618011314 9.8030700385570508
leaf_count=4081 47 66
internal_value=0.0410951 0.0454721
internal_weight=10.6719 10.1809
internal_count=4194 4147
is_linear=0
shrinkage=0.05


Tree=117
num_leaves=3
num_cat=0
split_feature=23 37
split_gain=1.43254 1.17223
threshold=1.5000000000000002 376.50000000000006
decision_type=2 2
left_child=1 -1
right_child=-2 -3
leaf_value=-0.028589453768282119 -0.033050945234831715 0.049058464790516926
leaf_weight=0.36697586705849872 0.47518403176218349 9.3354705870151502
leaf_count=4081 47 66
internal_value=0.0409169 0.0453498
internal_weight=10.1776 9.70245
internal_count=4194 4147
is_linear=0
shrinkage=0.05


Tree=118
num_leaves=3
num_cat=0
split_feature=23 37
split_gain=1.37548 1.13251
threshold=1.5000000000000002 376.50000000000006
decision_type=2 2
left_child=1 -1
right_child=-2 -3
leaf_value=-0.028104364275821178 -0.032564484968365309 0.049000299329296587
leaf_weight=0.35663473013846569 0.46004824899137098 8.890569254755972
leaf_count=4081 47 66
internal_value=0.040732 0.0452228
internal_weight=9.70725 9.2472
internal_count=4194 4147
is_linear=0
shrinkage=0.05


Tree=119
num_leaves=3
num_cat=0
split_feature=23 37
split_gain=1.32105 1.09457
threshold=1.5000000000000002 376.50000000000006
decision_type=2 2
left_child=1 -1
right_child=-2 -3
leaf_value=-0.027619851403206261 -0.032075758808924985 0.048939903355240726
leaf_weight=0.34675311682803922 0.44559727143496353 8.4672686979174596
leaf_count=4081 47 66
internal_value=0.0405403 0.045091
internal_weight=9.25962 8.81402
internal_count=4194 4147
is_linear=0
shrinkage=0.05


Tree=120
num_leaves=3
num_cat=0
split_feature=23 37
split_gain=1.15505 1.06299
threshold=1.5000000000000002 376.50000000000006
decision_type=2 2
left_child=1 -1
right_child=-2 -3
leaf_value=-0.02714265147169044 -0.030071355480907225 0.048940334733521051
leaf_weight=0.3374299360148133 0.39243573416024524 8.5143419429659826
leaf_count=4086 43 70
internal_value=0.0411921 0.0452107
internal_weight=9.24421 8.85177
internal_count=4199 4156
is_linear=0
shrinkage=0.05


Tree=121
num_leaves=3
num_cat=0
split_feature=23 37
split_gain=1.11185 1.02833
threshold=1.5000000000000002 376.50000000000006
decision_type=2 2
left_child=1 -1
right_child=-2 -3
leaf_value=-0.026660451512723574 -0.029576105475093286 0.048878166157058589
leaf_weight=0.32839593745302309 0.38102270476520139 8.1092619076371175
leaf_count=4086 43 70
internal_value=0.0409932 0.0450747
internal_weight=8.81868 8.43766
internal_count=4199 4156
is_linear=0
shrinkage=0.05


Tree=122
num_leaves=3
num_cat=0
split_feature=23 5
split_gain=1.07056 0.896513
threshold=1.5000000000000002 1.0000000180025095e-35
decision_type=2 2
left_child=1 -1
right_child=-2 -3
leaf_value=0.048473214784923779 -0.029080980766243839 -0.024539542248835228
leaf_weight=7.7508950884512151 0.37011557631194669 0.29272333788685401
leaf_count=204 43 3952
internal_value=0.040787 0.0449335
internal_weight=8.41373 8.04362
internal_count=4199 4156
is_linear=0
shrinkage=0.05


Tree=123
num_leaves=3
num_cat=0
split_feature=23 37
split_gain=1.03038 0.971957
threshold=1.5000000000000002 376.50000000000006
decision_type=2 2
left_child=1 -1
right_child=-2 -3
leaf_value=-0.025848935085824046 -0.028586370581865979 0.048746725647475904
leaf_weight=0.31400522348121729 0.35969009809195984 7.3596800118684769
leaf_count=4086 43 70
internal_value=0.040548 0.0447578
internal_weight=8.03338 7.67369
internal_count=4199 4156
is_linear=0
shrinkage=0.05


Tree=124
num_leaves=3
num_cat=0
split_feature=23 37
split_gain=0.992668 0.941221
threshold=1.5000000000000002 376.50000000000006
decision_type=2 2
left_child=1 -1
right_child=-2 -3
leaf_value=-0.025372203391255455 -0.028092643492529781 0.048676728933715455
leaf_weight=0.30599385133245949 0.34972326876595605 7.0107013806700706
leaf_count=4086 43 70
internal_value=0.0403263 0.0446054
internal_weight=7.66642 7.3167
internal_count=4199 4156
is_linear=0
shrinkage=0.05


Tree=125
num_leaves=3
num_cat=0
split_feature=23 37
split_gain=0.991972 0.920523
threshold=1.5000000000000002 376.50000000000006
decision_type=2 2
left_child=1 -1
right_child=-2 -3
leaf_value=-0.025137890816255611 -0.028355119139846514 0.048531646864633154
leaf_weight=0.30216951916372625 0.35527976881712664 6.3583047389984131
leaf_count=4140 45 66
internal_value=0.0394073 0.0441274
internal_weight=7.01575 6.66047
internal_count=4251 4206
is_linear=0
shrinkage=0.05


Tree=126
num_leaves=3
num_cat=0
split_feature=23 37
split_gain=0.955153 0.891717
threshold=1.5000000000000002 376.50000000000006
decision_type=2 2
left_child=1 -1
right_child=-2 -3
leaf_value=-0.024665274909800292 -0.027862304948803387 0.048452295603376543
leaf_weight=0.29466947209584748 0.34550417633727182 6.0580254346132278
leaf_count=4140 45 66
internal_value=0.0391608 0.0439562
internal_weight=6.6982 6.35269
internal_count=4251 4206
is_linear=0
shrinkage=0.05


Tree=127
num_leaves=3
num_cat=0
split_feature=23 37
split_gain=0.919919 0.864127
threshold=1.5000000000000002 376.50000000000006
decision_type=2 2
left_child=1 -1
right_child=-2 -3
leaf_value=-0.024195818386415505 -0.027370885765402555 0.048369634398624572
leaf_weight=0.28749135526595626 0.33615640318021167 5.7723420411348343
leaf_count=4140 45 66
internal_value=0.0389054 0.0437784
internal_weight=6.39599 6.05983
internal_count=4251 4206
is_linear=0
shrinkage=0.05


Tree=128
num_leaves=3
num_cat=0
split_feature=23 37
split_gain=0.886187 0.837688
threshold=1.5000000000000002 376.50000000000006
decision_type=2 2
left_child=1 -1
right_child=-2 -3
leaf_value=-0.023729822030248055 -0.026881216679177752 0.048283510319720807
leaf_weight=0.28061979639460322 0.32721602777019132 5.5005462542176247
leaf_count=4140 45 66
internal_value=0.038641 0.0435937
internal_weight=6.10838 5.78117
internal_count=4251 4206
is_linear=0
shrinkage=0.05


Tree=129
num_leaves=3
num_cat=0
split_feature=23 37
split_gain=0.853879 0.81234
threshold=1.5000000000000002 376.50000000000006
decision_type=2 2
left_child=1 -1
right_child=-2 -3
leaf_value=-0.023267573977979412 -0.026393649662951366 0.048193767840649916
leaf_weight=0.27404007279983478 0.31866361806169141 5.24196407943964
leaf_count=4140 45 66
internal_value=0.0383672 0.0434021
internal_weight=5.83467 5.516
internal_count=4251 4206
is_linear=0
shrinkage=0.05


Tree=130
num_leaves=3
num_cat=0
split_feature=23 37
split_gain=0.800248 0.780929
threshold=1.5000000000000002 376.50000000000006
decision_type=2 2
left_child=1 -1
right_child=-2 -3
leaf_value=-0.022584875853571339 -0.025290353008486501 0.048156182681658659
leaf_weight=0.26472735046627338 0.30042059812694777 5.1456832885742188
leaf_count=4077 44 68
internal_value=0.0385914 0.0434405
internal_weight=5.71083 5.41041
internal_count=4189 4145
is_linear=0
shrinkage=0.05


Tree=131
num_leaves=3
num_cat=0
split_feature=23 37
split_gain=0.772056 0.758083
threshold=1.5000000000000002 376.50000000000006
decision_type=2 2
left_child=1 -1
right_child=-2 -3
leaf_value=-0.022133131827036898 -0.024811916128570768 0.048061255076765924
leaf_weight=0.25881636840858835 0.29302041046321381 4.9043456017971039
leaf_count=4077 44 68
internal_value=0.0383036 0.0432389
internal_weight=5.45618 5.16316
internal_count=4189 4145
is_linear=0
shrinkage=0.05


Tree=132
num_leaves=3
num_cat=0
split_feature=23 37
split_gain=0.745001 0.736143
threshold=1.5000000000000002 376.50000000000006
decision_type=2 2
left_child=1 -1
right_child=-2 -3
leaf_value=-0.021686023424954782 -0.024336953774289061 0.047962317184334538
leaf_weight=0.25315166256041255 0.28593498189002264 4.6747433245182037
leaf_count=4077 44 68
internal_value=0.0380059 0.0430298
internal_weight=5.21383 4.92789
internal_count=4189 4145
is_linear=0
shrinkage=0.05


Tree=133
num_leaves=3
num_cat=0
split_feature=23 37
split_gain=0.719025 0.715061
threshold=1.5000000000000002 376.50000000000006
decision_type=2 2
left_child=1 -1
right_child=-2 -3
leaf_value=-0.021243765891934864 -0.023865753564383915 0.047859202091496827
leaf_weight=0.24772163005764003 0.27914945129305113 4.4563062265515327
leaf_count=4077 44 68
internal_value=0.037698 0.0428129
internal_weight=4.98318 4.70403
internal_count=4189 4145
is_linear=0
shrinkage=0.05


Tree=134
num_leaves=3
num_cat=0
split_feature=23 37
split_gain=0.69407 0.694792
threshold=1.5000000000000002 376.50000000000006
decision_type=2 2
left_child=1 -1
right_child=-2 -3
leaf_value=-0.020806560450102554 -0.023398582370544582 0.047751737291243129
leaf_weight=0.24251528419699742 0.27264969842508424 4.2484917640686035
leaf_count=4077 44 68
internal_value=0.0373797 0.0425879
internal_weight=4.76366 4.49101
internal_count=4189 4145
is_linear=0
shrinkage=0.05


Tree=135
num_leaves=2
num_cat=0
split_feature=37
split_gain=0.57056
threshold=376.50000000000006
decision_type=2
left_child=-1
right_child=-2
leaf_value=-0.02020461772013557 0.041848411122794957
leaf_weight=0.23559756217946404 3.9528131377883255
leaf_count=4090 103
internal_value=0.0368023
internal_weight=4.18841
internal_count=4193
is_linear=0
shrinkage=0.05


Tree=136
num_leaves=3
num_cat=0
split_feature=23 37
split_gain=0.582246 0.643802
threshold=1.5000000000000002 376.50000000000006
decision_type=2 2
left_child=1 -1
right_child=-2 -3
leaf_value=-0.019780242514637392 -0.020915606389623871 0.047317511716207163
leaf_weight=0.23088575858491855 0.24111184710636724 3.5692052021622658
leaf_count=4090 38 65
internal_value=0.0362064 0.0415561
internal_weight=4.0412 3.80009
internal_count=4193 4155
is_linear=0
shrinkage=0.05


Tree=137
num_leaves=3
num_cat=0
split_feature=23 37
split_gain=0.562856 0.625945
threshold=1.5000000000000002 376.50000000000006
decision_type=2 2
left_child=1 -1
right_child=-2 -3
leaf_value=-0.019361481950559846 -0.020479792762149347 0.047187410655915307
leaf_weight=0.22636419899208782 0.23618483543395985 3.4045299403369427
leaf_count=4090 38 65
internal_value=0.0358364 0.0412906
internal_weight=3.86708 3.63089
internal_count=4193 4155
is_linear=0
shrinkage=0.05


Tree=138
num_leaves=3
num_cat=0
split_feature=23 37
split_gain=0.544148 0.608726
threshold=1.5000000000000002 376.50000000000006
decision_type=2 2
left_child=1 -1
right_child=-2 -3
leaf_value=-0.018948472381537681 -0.020049593016617694 0.047051943676177294
leaf_weight=0.22202412188926324 0.2314568101428448 3.2478620223701
leaf_count=4090 38 65
internal_value=0.0354548 0.0410157
internal_weight=3.70134 3.46989
internal_count=4193 4155
is_linear=0
shrinkage=0.05


Tree=139
num_leaves=3
num_cat=0
split_feature=23 37
split_gain=0.526086 0.59211
threshold=1.5000000000000002 376.50000000000006
decision_type=2 2
left_child=1 -1
right_child=-2 -3
leaf_value=-0.018541326109119773 -0.019625142239796028 0.046910920719088429
leaf_weight=0.21785720281695908 0.22691865637898434 3.0988116674125195
leaf_count=4090 38 65
internal_value=0.0350616 0.0407314
internal_weight=3.54359 3.31667
internal_count=4193 4155
is_linear=0
shrinkage=0.05


Tree=140
num_leaves=3
num_cat=0
split_feature=23 37
split_gain=0.567685 0.5874
threshold=1.5000000000000002 376.50000000000006
decision_type=2 2
left_child=1 -1
right_child=-2 -3
leaf_value=-0.018353432859588018 -0.021010800628721463 0.046936028778541423
leaf_weight=0.21597014478175047 0.24239750672131766 3.1230896264314651
leaf_count=4096 41 66
internal_value=0.0348465 0.0408483
internal_weight=3.58146 3.33906
internal_count=4203 4162
is_linear=0
shrinkage=0.05


Tree=141
num_leaves=3
num_cat=0
split_feature=23 37
split_gain=0.548054 0.571633
threshold=1.5000000000000002 376.50000000000006
decision_type=2 2
left_child=1 -1
right_child=-2 -3
leaf_value=-0.01795507522471293 -0.020573971014266945 0.046790177573366565
leaf_weight=0.21204294922063205 0.23741770396009076 2.9801087565720081
leaf_count=4096 41 66
internal_value=0.0344444 0.0405559
internal_weight=3.42957 3.19215
internal_count=4203 4162
is_linear=0
shrinkage=0.05


Tree=142
num_leaves=3
num_cat=0
split_feature=23 37
split_gain=0.529114 0.556394
threshold=1.5000000000000002 376.50000000000006
decision_type=2 2
left_child=1 -1
right_child=-2 -3
leaf_value=-0.017562813086777585 -0.020142702409762854 0.046638429533388502
leaf_weight=0.208270106668352 0.23263942217454303 2.8440786600112915
leaf_count=4096 41 66
internal_value=0.0340305 0.0402535
internal_weight=3.28499 3.05235
internal_count=4203 4162
is_linear=0
shrinkage=0.05


Tree=143
num_leaves=3
num_cat=0
split_feature=23 37
split_gain=0.510828 0.541655
threshold=1.5000000000000002 376.50000000000006
decision_type=2 2
left_child=1 -1
right_child=-2 -3
leaf_value=-0.017176724042612179 -0.01971714141583604 0.046480599889833815
leaf_weight=0.20464462664676908 0.22805337794125069 2.7146603986620903
leaf_count=4096 41 66
internal_value=0.0336046 0.0399411
internal_weight=3.14736 2.91931
internal_count=4203 4162
is_linear=0
shrinkage=0.05


Tree=144
num_leaves=3
num_cat=0
split_feature=23 37
split_gain=0.493165 0.527389
threshold=1.5000000000000002 376.50000000000006
decision_type=2 2
left_child=1 -1
right_child=-2 -3
leaf_value=-0.016796862707019487 -0.01929741369662721 0.046316498642648612
leaf_weight=0.20115990005433637 0.22365081636235107 2.5915319286286831
leaf_count=4096 41 66
internal_value=0.0331665 0.0396184
internal_weight=3.01634 2.79269
internal_count=4203 4162
is_linear=0
shrinkage=0.05


Tree=145
num_leaves=3
num_cat=0
split_feature=23 37
split_gain=0.490449 0.511524
threshold=1.5000000000000002 376.50000000000006
decision_type=2 2
left_child=1 -1
right_child=-2 -3
leaf_value=-0.016536887613253178 -0.019852490954675641 0.045965496647060129
leaf_weight=0.1988207184258507 0.22960182651877392 2.3601170741021633
leaf_count=4126 43 63
internal_value=0.03171 0.0387895
internal_weight=2.78854 2.55894
internal_count=4232 4189
is_linear=0
shrinkage=0.05


Tree=146
num_leaves=3
num_cat=0
split_feature=23 37
split_gain=0.472642 0.49795
threshold=1.5000000000000002 376.50000000000006
decision_type=2 2
left_child=1 -1
right_child=-2 -3
leaf_value=-0.016167677147667595 -0.019430973032618658 0.045781228409565777
leaf_weight=0.19556022425968045 0.22513716388493765 2.2542166337370872
leaf_count=4126 43 63
internal_value=0.031238 0.0384349
internal_weight=2.67491 2.44978
internal_count=4232 4189
is_linear=0
shrinkage=0.05


Tree=147
num_leaves=3
num_cat=0
split_feature=23 37
split_gain=0.455438 0.484784
threshold=1.5000000000000002 376.50000000000006
decision_type=2 2
left_child=1 -1
right_child=-2 -3
leaf_value=-0.015804798776721269 -0.019015364614149113 0.045589954883962773
leaf_weight=0.19242421380477104 0.22085046628490079 2.153458908200264
leaf_count=4126 43 63
internal_value=0.0307538 0.0380694
internal_weight=2.56673 2.34588
internal_count=4232 4189
is_linear=0
shrinkage=0.05


Tree=148
num_leaves=3
num_cat=0
split_feature=23 37
split_gain=0.438809 0.472005
threshold=1.5000000000000002 376.50000000000006
decision_type=2 2
left_child=1 -1
right_child=-2 -3
leaf_value=-0.015448266155047997 -0.01860577359566095 0.0453914987893312
leaf_weight=0.1894072027353112 0.21673364145681251 2.0575928837060928
leaf_count=4126 43 63
internal_value=0.0302576 0.037693
internal_weight=2.46373 2.247
internal_count=4232 4189
is_linear=0
shrinkage=0.05


Tree=149
num_leaves=3
num_cat=0
split_feature=23 37
split_gain=0.422726 0.459592
threshold=1.5000000000000002 376.50000000000006
decision_type=2 2
left_child=1 -1
right_child=-2 -3
leaf_value=-0.015098090478818202 -0.018202288417758054 0.045185691579030948
leaf_weight=0.18650396417797366 0.2127790362574159 1.9663798417896032
leaf_count=4126 43 63
internal_value=0.0297493 0.0373056
internal_weight=2.36566 2.15288
internal_count=4232 4189
is_linear=0
shrinkage=0.05


Tree=150
num_leaves=3
num_cat=0
split_feature=23 37
split_gain=0.408214 0.442947
threshold=1.5000000000000002 376.50000000000006
decision_type=2 2
left_child=1 -1
right_child=-2 -3
leaf_value=-0.014637825928226437 -0.018029243895734317 0.044873902465968694
leaf_weight=0.18277527936152238 0.21115844650194038 1.842491926625371
leaf_count=4096 44 64
internal_value=0.0288552 0.0367144
internal_weight=2.23643 2.02527
internal_count=4204 4160
is_linear=0
shrinkage=0.05


Tree=151
num_leaves=3
num_cat=0
split_feature=23 37
split_gain=0.392896 0.431319
threshold=1.5000000000000002 376.50000000000006
decision_type=2 2
left_child=1 -1
right_child=-2 -3
leaf_value=-0.014302525252102617 -0.017634691372654169 0.044649515692887998
leaf_weight=0.18011960218427714 0.20742187835276116 1.7617112174630165
leaf_count=4096 44 64
internal_value=0.0283191 0.0362998
internal_weight=2.14925 1.94183
internal_count=4204 4160
is_linear=0
shrinkage=0.05


Tree=152
num_leaves=3
num_cat=0
split_feature=23 37
split_gain=0.378068 0.419998
threshold=1.5000000000000002 376.50000000000006
decision_type=2 2
left_child=1 -1
right_child=-2 -3
leaf_value=-0.01397354749459557 -0.017246419085634439 0.044417233720610162
leaf_weight=0.17756201108568381 0.20383042376488436 1.6848468948155639
leaf_count=4096 44 64
internal_value=0.0277714 0.035874
internal_weight=2.06624 1.86241
internal_count=4204 4160
is_linear=0
shrinkage=0.05


Tree=153
num_leaves=3
num_cat=0
split_feature=1 37
split_gain=0.314657 0.396466
threshold=1.7489973306655886 376.50000000000006
decision_type=2 2
left_child=1 -1
right_child=-2 -3
leaf_value=-0.013650864170796612 -0.014454375110340723 0.04307596821546078
leaf_weight=0.17509833225631144 0.18020455306395899 1.6318806414492426
leaf_count=4096 41 67
internal_value=0.0272122 0.0345295
internal_weight=1.98718 1.80698
internal_count=4204 4163
is_linear=0
shrinkage=0.05


Tree=154
num_leaves=3
num_cat=0
split_feature=23 37
split_gain=0.353152 0.398348
threshold=1.5000000000000002 376.50000000000006
decision_type=2 2
left_child=1 -1
right_child=-2 -3
leaf_value=-0.013334443584851696 -0.01667546734850358 0.0439347557370545
leaf_weight=0.17272454232443113 0.19868957716971647 1.5438083466142414
leaf_count=4096 44 64
internal_value=0.026599 0.0350028
internal_weight=1.91522 1.71653
internal_count=4204 4160
is_linear=0
shrinkage=0.05


Tree=155
num_leaves=3
num_cat=0
split_feature=23 37
split_gain=0.342696 0.401748
threshold=1.5000000000000002 376.50000000000006
decision_type=2 2
left_child=1 -1
right_child=-2 -3
leaf_value=-0.013035672717885475 -0.015100458310887757 0.044360137179248429
leaf_weight=0.17052051394421175 0.18528886558488 1.6671763844788072
leaf_count=4102 41 70
internal_value=0.0285248 0.0360561
internal_weight=2.02299 1.8377
internal_count=4213 4172
is_linear=0
shrinkage=0.05


Tree=156
num_leaves=3
num_cat=0
split_feature=23 37
split_gain=0.330463 0.391598
threshold=1.5000000000000002 376.50000000000006
decision_type=2 2
left_child=1 -1
right_child=-2 -3
leaf_value=-0.012731418312745872 -0.014756045321220762 0.044117935448162483
leaf_weight=0.16831228531373188 0.18253752496093523 1.5948919393122194
leaf_count=4102 41 70
internal_value=0.0279556 0.0356156
internal_weight=1.94574 1.7632
internal_count=4213 4172
is_linear=0
shrinkage=0.05


Tree=157
num_leaves=3
num_cat=0
split_feature=23 37
split_gain=0.318564 0.381683
threshold=1.5000000000000002 376.50000000000006
decision_type=2 2
left_child=1 -1
right_child=-2 -3
leaf_value=-0.012433287621815345 -0.014418048541188527 0.043867543029680892
leaf_weight=0.16618320053385094 0.17988805938512098 1.5261085890233514
leaf_count=4102 41 70
internal_value=0.027375 0.0351638
internal_weight=1.87218 1.69229
internal_count=4213 4172
is_linear=0
shrinkage=0.05


Tree=158
num_leaves=3
num_cat=0
split_feature=37 1
split_gain=0.275068 0.169875
threshold=376.50000000000006 0.46717166900634771
decision_type=2 2
left_child=-1 -2
right_child=1 -3
leaf_value=-0.012141226124784493 0.042578670763294642 0
leaf_weight=0.16412997506267868 1.244711661711335 0.39327945560216893
leaf_count=4102 61 50
internal_value=0.0267832 0.0340345
internal_weight=1.80212 1.63799
internal_count=4213 111
is_linear=0
shrinkage=0.05


Tree=159
num_leaves=3
num_cat=0
split_feature=37 1
split_gain=0.265562 0.165602
threshold=376.50000000000006 0.46717166900634771
decision_type=2 2
left_child=-1 -2
right_child=1 -3
leaf_value=-0.011855170695533402 0.042279731395384303 0
leaf_weight=0.16214945251704205 1.1928586158901451 0.39327945560216893
leaf_count=4102 61 50
internal_value=0.0262132 0.0335425
internal_weight=1.74829 1.58614
internal_count=4213 111
is_linear=0
shrinkage=0.05


Tree=160
num_leaves=3
num_cat=0
split_feature=23 37
split_gain=0.278204 0.344712
threshold=1.5000000000000002 376.50000000000006
decision_type=2 2
left_child=1 -1
right_child=-2 -3
leaf_value=-0.012050511422827736 -0.014929879718609158 0.042195778391874113
leaf_weight=0.16349886058378604 0.18394291633740079 1.1790904868394134
leaf_count=4183 42 63
internal_value=0.0224758 0.0317463
internal_weight=1.52653 1.34259
internal_count=4288 4246
is_linear=0
shrinkage=0.05


Tree=161
num_leaves=3
num_cat=0
split_feature=23 37
split_gain=0.266575 0.335193
threshold=1.5000000000000002 376.50000000000006
decision_type=2 2
left_child=1 -1
right_child=-2 -3
leaf_value=-0.011766336154401938 -0.014588641891233579 0.041885784796139386
leaf_weight=0.16154060385088076 0.18124152533710014 1.1304009370505808
leaf_count=4183 42 63
internal_value=0.0218385 0.0312218
internal_weight=1.47318 1.29194
internal_count=4288 4246
is_linear=0
shrinkage=0.05


Tree=162
num_leaves=3
num_cat=0
split_feature=23 40
split_gain=0.255299 0.287808
threshold=1.5000000000000002 0.30032058060169226
decision_type=2 2
left_child=1 -1
right_child=-2 -3
leaf_value=-0.0092644149488072657 -0.014253807799063692 0.040483973268833448
leaf_weight=0.14547796835540783 0.17863986920565378 1.0982298627350244
leaf_count=3788 42 458
internal_value=0.0211931 0.0306874
internal_weight=1.42235 1.24371
internal_count=4288 4246
is_linear=0
shrinkage=0.05


Tree=163
num_leaves=3
num_cat=0
split_feature=23 37
split_gain=0.243959 0.319031
threshold=1.5000000000000002 376.50000000000006
decision_type=2 2
left_child=1 -1
right_child=-2 -3
leaf_value=-0.011375625614870993 -0.013925354516305386 0.041248374876008853
leaf_weight=0.15889525151214901 0.17613368341699254 1.0410690754652021
leaf_count=4183 42 63
internal_value=0.0205114 0.0300948
internal_weight=1.3761 1.19996
internal_count=4288 4246
is_linear=0
shrinkage=0.05


Tree=164
num_leaves=3
num_cat=0
split_feature=23 37
split_gain=0.233368 0.310009
threshold=1.5000000000000002 376.50000000000006
decision_type=2 2
left_child=1 -1
right_child=-2 -3
leaf_value=-0.011105607525747237 -0.013603248440632579 0.040912554645979898
leaf_weight=0.1570981084842058 0.17371890367940079 0.9990216288715601
leaf_count=4183 42 63
internal_value=0.019852 0.0295422
internal_weight=1.32984 1.15612
internal_count=4288 4246
is_linear=0
shrinkage=0.05


Tree=165
num_leaves=3
num_cat=0
split_feature=23 37
split_gain=0.25383 0.314554
threshold=1.5000000000000002 376.50000000000006
decision_type=2 2
left_child=1 -1
right_child=-2 -3
leaf_value=-0.010452144121654593 -0.013479826262374185 0.041711366157709838
leaf_weight=0.15285042339746713 0.17283402802422654 1.1046882523223756
leaf_count=4145 43 70
internal_value=0.0221702 0.031385
internal_weight=1.43037 1.25754
internal_count=4258 4215
is_linear=0
shrinkage=0.05


Tree=166
num_leaves=3
num_cat=0
split_feature=23 37
split_gain=0.243322 0.306215
threshold=1.5000000000000002 376.50000000000006
decision_type=2 2
left_child=1 -1
right_child=-2 -3
leaf_value=-0.010201989813151818 -0.01316646955651927 0.041387922475479073
leaf_weight=0.15126125306778693 0.17053886293433618 1.0595811149105427
leaf_count=4145 43 70
internal_value=0.0215118 0.0308422
internal_weight=1.38138 1.21084
internal_count=4258 4215
is_linear=0
shrinkage=0.05


Tree=167
num_leaves=3
num_cat=0
split_feature=23 37
split_gain=0.233111 0.298036
threshold=1.5000000000000002 376.50000000000006
decision_type=2 2
left_child=1 -1
right_child=-2 -3
leaf_value=-0.0099573049730428912 -0.012859354049300102 0.041055800392792156
leaf_weight=0.14972605489674595 0.16832623467780661 1.0166435437276957
leaf_count=4145 43 70
internal_value=0.0208459 0.0302898
internal_weight=1.3347 1.16637
internal_count=4258 4215
is_linear=0
shrinkage=0.05


Tree=168
num_leaves=3
num_cat=0
split_feature=23 37
split_gain=0.223189 0.290011
threshold=1.5000000000000002 376.50000000000006
decision_type=2 2
left_child=1 -1
right_child=-2 -3
leaf_value=-0.0097180108441715721 -0.012558425332456402 0.040715042108408962
leaf_weight=0.14824270377721382 0.16619270411320042 0.97576895356178284
leaf_count=4145 43 70
internal_value=0.020173 0.0297281
internal_weight=1.2902 1.12401
internal_count=4258 4215
is_linear=0
shrinkage=0.05


Tree=169
num_leaves=3
num_cat=0
split_feature=23 37
split_gain=0.213546 0.282136
threshold=1.5000000000000002 376.50000000000006
decision_type=2 2
left_child=1 -1
right_child=-2 -3
leaf_value=-0.0094840191342793669 -0.012263624634044646 0.040365710701981257
leaf_weight=0.14680916737779603 0.16413499810732912 0.93685606401413679
leaf_count=4145 43 70
internal_value=0.0194936 0.0291575
internal_weight=1.2478 1.08367
internal_count=4258 4215
is_linear=0
shrinkage=0.05


Tree=170
num_leaves=3
num_cat=0
split_feature=23 37
split_gain=0.212769 0.276351
threshold=1.5000000000000002 376.50000000000006
decision_type=2 2
left_child=1 -1
right_child=-2 -3
leaf_value=-0.0090493700697928375 -0.012168358231937714 0.040299892799735525
leaf_weight=0.14418965577715404 0.16350140632130217 0.92986751534044743
leaf_count=4092 44 72
internal_value=0.0195038 0.0292096
internal_weight=1.23756 1.07406
internal_count=4208 4164
is_linear=0
shrinkage=0.05


Tree=171
num_leaves=3
num_cat=0
split_feature=23 37
split_gain=0.203432 0.268891
threshold=1.5000000000000002 376.50000000000006
decision_type=2 2
left_child=1 -1
right_child=-2 -3
leaf_value=-0.0088303688102354498 -0.011881603852603836 0.039940523983420989
leaf_weight=0.14289082647883311 0.16153882490471017 0.89315443765372038
leaf_count=4092 44 72
internal_value=0.0188156 0.0286276
internal_weight=1.19758 1.03605
internal_count=4208 4164
is_linear=0
shrinkage=0.05


Tree=172
num_leaves=3
num_cat=0
split_feature=23 37
split_gain=0.194358 0.261561
threshold=1.5000000000000002 376.50000000000006
decision_type=2 2
left_child=1 -1
right_child=-2 -3
leaf_value=-0.0086163299790195848 -0.011600826389436481 0.039572794222871792
leaf_weight=0.14163469531922601 0.15964505355805159 0.85819851700216532
leaf_count=4092 44 72
internal_value=0.0181222 0.0280375
internal_weight=1.15948 0.999833
internal_count=4208 4164
is_linear=0
shrinkage=0.05


Tree=173
num_leaves=3
num_cat=0
split_feature=23 37
split_gain=0.18554 0.254357
threshold=1.5000000000000002 376.50000000000006
decision_type=2 2
left_child=1 -1
right_child=-2 -3
leaf_value=-0.0084071655984059458 -0.011325956215095224 0.039196833044104457
leaf_weight=0.14041965955038904 0.15781729924492538 0.82491332292556763
leaf_count=4092 44 72
internal_value=0.0174242 0.0274397
internal_weight=1.12315 0.965333
internal_count=4208 4164
is_linear=0
shrinkage=0.05


Tree=174
num_leaves=2
num_cat=0
split_feature=37
split_gain=0.148064
threshold=376.50000000000006
decision_type=2
left_child=-1
right_child=-2
leaf_value=-0.0082027857748438373 0.025576916094404191
leaf_weight=0.1392441653079004 0.94926956784911454
leaf_count=4092 116
internal_value=0.0167222
internal_weight=1.08851
internal_count=4208
is_linear=0
shrinkage=0.05


Tree=175
num_leaves=3
num_cat=0
split_feature=23 37
split_gain=0.174519 0.230008
threshold=1.5000000000000002 376.50000000000006
decision_type=2 2
left_child=1 -1
right_child=-2 -3
leaf_value=-0.0082022237077538258 -0.013914635752011238 0.037470760822965403
leaf_weight=0.13924095472248155 0.17619337420910597 0.69762458838522434
leaf_count=4115 48 65
internal_value=0.0126518 0.0244702
internal_weight=1.01306 0.836866
internal_count=4228 4180
is_linear=0
shrinkage=0.05


Tree=176
num_leaves=3
num_cat=0
split_feature=1 37
split_gain=0.13023 0.204808
threshold=1.7489973306655886 376.50000000000006
decision_type=2 2
left_child=1 -1
right_child=-2 -3
leaf_value=-0.0080025547687185474 -0.010335907636169529 0.034599576078965806
leaf_weight=0.1381036227394361 0.15145544335246086 0.69429819937795401
leaf_count=4115 44 69
internal_value=0.0119738 0.0220688
internal_weight=0.983857 0.832402
internal_count=4228 4184
is_linear=0
shrinkage=0.05


Tree=177
num_leaves=3
num_cat=0
split_feature=23 37
split_gain=0.157904 0.216694
threshold=1.5000000000000002 376.50000000000006
decision_type=2 2
left_child=1 -1
right_child=-2 -3
leaf_value=-0.0078074923380781862 -0.013489777531219119 0.036658580439193032
leaf_weight=0.13700294110094546 0.17300684284418821 0.64913207106292248
leaf_count=4115 48 65
internal_value=0.0112628 0.0232602
internal_weight=0.959142 0.786135
internal_count=4228 4180
is_linear=0
shrinkage=0.05


Tree=178
num_leaves=3
num_cat=0
split_feature=23 37
split_gain=0.148965 0.210062
threshold=1.5000000000000002 376.50000000000006
decision_type=2 2
left_child=1 -1
right_child=-2 -3
leaf_value=-0.0076169483417716614 -0.013176253324567247 0.036228675956876406
leaf_weight=0.13593753750683391 0.17070578876882792 0.62577434070408344
leaf_count=4115 48 65
internal_value=0.0105866 0.0226256
internal_weight=0.932418 0.761712
internal_count=4228 4180
is_linear=0
shrinkage=0.05


Tree=179
num_leaves=3
num_cat=0
split_feature=23 37
split_gain=0.140358 0.20356
threshold=1.5000000000000002 376.50000000000006
decision_type=2 2
left_child=1 -1
right_child=-2 -3
leaf_value=-0.0074308377221027665 -0.012868968454589539 0.035792462033853549
leaf_weight=0.13490611650922801 0.1684875376522541 0.60351616702973843
leaf_count=4115 48 65
internal_value=0.00991138 0.0219878
internal_weight=0.90691 0.738422
internal_count=4228 4180
is_linear=0
shrinkage=0.05


Tree=180
num_leaves=3
num_cat=0
split_feature=23 37
split_gain=0.1 0.181799
threshold=1.5000000000000002 376.50000000000006
decision_type=2 2
left_child=1 -1
right_child=-2 -3
leaf_value=-0.0071435812873703363 -0.0099462786786001789 0.034021605919009934
leaf_weight=0.13333169752877438 0.14897112525068223 0.52561310771852732
leaf_count=4099 42 60
internal_value=0.00786549 0.0192603
internal_weight=0.807916 0.658945
internal_count=4201 4159
is_linear=0
shrinkage=0.05


Tree=181
num_leaves=3
num_cat=0
split_feature=23 37
split_gain=0.0936457 0.175756
threshold=1.5000000000000002 376.50000000000006
decision_type=2 2
left_child=1 -1
right_child=-2 -3
leaf_value=-0.0069685499265577898 -0.009707238339374355 0.033559314652404783
leaf_weight=0.13238269221437804 0.14750761166214943 0.50803645513951778
leaf_count=4099 42 60
internal_value=0.00718899 0.0186191
internal_weight=0.787927 0.640419
internal_count=4201 4159
is_linear=0
shrinkage=0.05


Tree=182
num_leaves=3
num_cat=0
split_feature=23 5
split_gain=0.0875147 0.147188
threshold=1.5000000000000002 1.0000000180025095e-35
decision_type=2 2
left_child=1 -1
right_child=-2 -3
leaf_value=0.031467645191787193 -0.0094735082932494025 -0.0044777143423558137
leaf_weight=0.50306923512835056 0.14609302720054984 0.11966865706381213
leaf_count=194 42 3965
internal_value=0.00651702 0.0179782
internal_weight=0.768831 0.622738
internal_count=4201 4159
is_linear=0
shrinkage=0.05


Tree=183
num_leaves=3
num_cat=0
split_feature=23 37
split_gain=0.0814594 0.165089
threshold=1.5000000000000002 376.50000000000006
decision_type=2 2
left_child=1 -1
right_child=-2 -3
leaf_value=-0.0067682067359856254 -0.009245003866182433 0.032645969429746707
leaf_weight=0.13130582452140516 0.14472549548372626 0.47605977673083544
leaf_count=4099 42 60
internal_value=0.00584212 0.0173044
internal_weight=0.752091 0.607366
internal_count=4201 4159
is_linear=0
shrinkage=0.05


Tree=184
num_leaves=3
num_cat=0
split_feature=23 37
split_gain=0.075766 0.15939
threshold=1.5000000000000002 376.50000000000006
decision_type=2 2
left_child=1 -1
right_child=-2 -3
leaf_value=-0.0066020273597511663 -0.0090216354880332094 0.032172554842160452
leaf_weight=0.13042018323540105 0.14340319321490824 0.46077307406812906
leaf_count=4099 42 60
internal_value=0.00518139 0.0166672
internal_weight=0.734596 0.591193
internal_count=4201 4159
is_linear=0
shrinkage=0.05


Tree=185
num_leaves=3
num_cat=0
split_feature=23 37
split_gain=0.0907947 0.172074
threshold=1.5000000000000002 376.50000000000006
decision_type=2 2
left_child=1 -1
right_child=-2 -3
leaf_value=-0.0065970899995028481 -0.0091209673138705778 0.033423087325095163
leaf_weight=0.13039400540583301 0.14402719330973923 0.50305176014080644
leaf_count=4122 44 66
internal_value=0.00730525 0.0185916
internal_weight=0.777473 0.633446
internal_count=4232 4188
is_linear=0
shrinkage=0.05


Tree=186
num_leaves=3
num_cat=0
split_feature=0 40
split_gain=0.0810038 0.10906
threshold=1.0000000180025095e-35 6.9642150402069101
decision_type=2 2
left_child=1 -1
right_child=-2 -3
leaf_value=-0.023202394686059488 0.024670170774611408 0.015734358498607683
leaf_weight=0.27226492539193714 0.2947160848416388 0.1918041598983109
leaf_count=4166 40 26
internal_value=0.00662753 0
internal_weight=0.758785 0.464069
internal_count=4232 4192
is_linear=0
shrinkage=0.05


Tree=187
num_leaves=3
num_cat=0
split_feature=23 37
split_gain=0.0811194 0.160143
threshold=1.5000000000000002 376.50000000000006
decision_type=2 2
left_child=1 -1
right_child=-2 -3
leaf_value=-0.0058636904774162762 -0.0083377375343793945 0.032654408904944074
leaf_weight=0.12656591483755619 0.13947614422068 0.47634671302512288
leaf_count=4122 44 66
internal_value=0.00652319 0.0177714
internal_weight=0.742389 0.602913
internal_count=4232 4188
is_linear=0
shrinkage=0.05


Tree=188
num_leaves=3
num_cat=0
split_feature=23 37
split_gain=0.0756114 0.154781
threshold=1.5000000000000002 376.50000000000006
decision_type=2 2
left_child=1 -1
right_child=-2 -3
leaf_value=-0.0057190657265246466 -0.0081350215702877364 0.032181058024473908
leaf_weight=0.12582599661618588 0.13832558109425008 0.46104675950482488
leaf_count=4122 44 66
internal_value=0.00584681 0.0171263
internal_weight=0.725198 0.586873
internal_count=4232 4188
is_linear=0
shrinkage=0.05


Tree=189
num_leaves=3
num_cat=0
split_feature=23 37
split_gain=0.0702918 0.149532
threshold=1.5000000000000002 376.50000000000006
decision_type=2 2
left_child=1 -1
right_child=-2 -3
leaf_value=-0.0055779152278551125 -0.0079369753441279039 0.031704743982980822
leaf_weight=0.12510849211685127 0.13721206900663674 0.44644935010001063
leaf_count=4122 44 66
internal_value=0.00517657 0.0164832
internal_weight=0.70877 0.571558
internal_count=4232 4188
is_linear=0
shrinkage=0.05


Tree=190
num_leaves=3
num_cat=0
split_feature=0 40
split_gain=0.052696 0.077768
threshold=1.0000000180025095e-35 6.9642150402069101
decision_type=2 2
left_child=1 -1
right_child=-2 -3
leaf_value=-0.021375002908537818 0.020352420270922704 0.011613217475026799
leaf_weight=0.24863769089643029 0.23724895436316729 0.16048473725095391
leaf_count=4177 36 25
internal_value=0.00326482 0
internal_weight=0.646371 0.409122
internal_count=4238 4202
is_linear=0
shrinkage=0.05


Tree=191
num_leaves=3
num_cat=0
split_feature=0 40
split_gain=0.0497491 0.0735035
threshold=1.0000000180025095e-35 6.9642150402069101
decision_type=2 2
left_child=1 -1
right_child=-2 -3
leaf_value=-0.020935616873872156 0.019926121312290955 0.011338179262928849
leaf_weight=0.24339616567885969 0.23247026512399316 0.15863215178251266
leaf_count=4177 36 25
internal_value=0.00322404 0
internal_weight=0.634499 0.402028
internal_count=4238 4202
is_linear=0
shrinkage=0.05


Tree=192
num_leaves=3
num_cat=0
split_feature=0 40
split_gain=0.0469689 0.0694757
threshold=1.0000000180025095e-35 6.9642150402069101
decision_type=2 2
left_child=1 -1
right_child=-2 -3
leaf_value=-0.020501477842707463 0.019505390028753469 0.011068954543657099
leaf_weight=0.23836919307359494 0.22788491193205118 0.15684407064691186
leaf_count=4177 36 25
internal_value=0.00318276 0
internal_weight=0.623098 0.395213
internal_count=4238 4202
is_linear=0
shrinkage=0.05


Tree=193
num_leaves=3
num_cat=0
split_feature=0 40
split_gain=0.044346 0.0656713
threshold=1.0000000180025095e-35 6.9642150402069101
decision_type=2 2
left_child=1 -1
right_child=-2 -3
leaf_value=-0.020072753947545582 0.019090365400573441 0.01080547174680155
leaf_weight=0.23354677439056104 0.22348396154120564 0.15511788707226515
leaf_count=4177 36 25
internal_value=0.00314105 0
internal_weight=0.612149 0.388665
internal_count=4238 4202
is_linear=0
shrinkage=0.05


Tree=194
num_leaves=3
num_cat=0
split_feature=0 40
split_gain=0.0418715 0.0620781
threshold=1.0000000180025095e-35 6.9642150402069101
decision_type=2 2
left_child=1 -1
right_child=-2 -3
leaf_value=-0.019649600208266747 0.01868116817781007 0.010547651229571506
leaf_weight=0.22891945895753452 0.21925895288586617 0.15345112094655633
leaf_count=4177 36 25
internal_value=0.00309894 0
internal_weight=0.60163 0.382371
internal_count=4238 4202
is_linear=0
shrinkage=0.05


Tree=195
num_leaves=3
num_cat=0
split_feature=23 37
split_gain=0.0565035 0.118985
threshold=1.5000000000000002 376.50000000000006
decision_type=2 2
left_child=1 -1
right_child=-2 -3
leaf_value=-0.0026961915029774944 -0.0079512659534531158 0.029564737881817307
leaf_weight=0.11139592116524 0.13733061566017568 0.38925172761082649
leaf_count=4103 48 64
internal_value=0.00272035 0.0148084
internal_weight=0.637978 0.500648
internal_count=4215 4167
is_linear=0
shrinkage=0.05


Tree=196
num_leaves=3
num_cat=0
split_feature=23 37
split_gain=0.0516949 0.114974
threshold=1.5000000000000002 376.50000000000006
decision_type=2 2
left_child=1 -1
right_child=-2 -3
leaf_value=-0.0026289775024304091 -0.0077574626734595951 0.029079717203191652
leaf_weight=0.11109599400515435 0.13624942721799016 0.3779143369756639
leaf_count=4103 48 64
